tree
version=v4
num_class=1
num_tree_per_iteration=1
label_index=0
max_feature_idx=14
objective=regression
feature_names=returns_1h returns_6h returns_24h momentum_5d momentum_20d volatility_6h volatility_24h volatility_ratio volume_ratio obv rsi macd macd_signal bb_position price_position
feature_infos=[-0.0145885754055355:0.0100620493040415] [-0.0301580698835274:0.0097939885173926999] [-0.063651591289782095:0.0209171359613835] [-0.073924050632911395:-0.00082946250829459998] none [0.0021252421661412:0.0071511509792581999] [0.0052460504526583001:0.0117617807832114] [0.21263239966093869:1.1561684178924745] [0.2377191907499539:2.7167041709440376] [-215205274.46923321:-722.24404718000665] [15.191740412979229:48.514851485148462] [-737.93017439475079:-0.00054809781749879998] [-624.15101149742827:-0.00035811543063439999] [-0.9107630900008884:0.094021578712230006] none
tree_sizes=2952 3044 3044 3057 3040 3047 3041 3054 3047 3059 3052 3024 3046 3053 3053 3061 3060 3038 3051 3043 3046 3038 3060 3029 3037 3048 3037 2957 3050 3045 3034

Tree=0
num_leaves=31
num_cat=0
split_feature=7 13 13 1 5 1 1 8 8 1 1 2 3 1 3 3 8 3 12 5 7 2 1 1 1 1 5 1 1 3
split_gain=0.0701721 0.0113887 0.00603138 0.004625 0.00305192 0.00253069 0.00176565 0.00139794 0.00107326 0.00153993 0.00100209 0.000638333 0.000526268 0.000471092 0.000414633 0.000406498 0.000406258 0.000382742 0.000334237 0.000232484 0.000176113 0.000290819 0.000125759 0.000104828 9.50179e-05 6.72243e-05 6.03752e-05 5.11603e-05 3.46897e-05 2.44284e-05
threshold=0.54685326298162384 -0.62192883750136407 -0.47379514982674564 -0.011566540522699948 0.0042777611798016507 -0.012930543198402148 -0.0020152262359882998 0.46268667479193887 0.30777182954804666 -0.0039385590985523489 -0.0020813621612574998 -0.027161163881830448 -0.050717537274098994 -0.0027245060146296497 -0.026806949240610146 -0.031297145444406142 0.62585767525137281 -0.038782752615185392 -3.1598369458166347 0.0066350005371799007 1.0660943880136287 -0.016497478564706448 -0.013811566170492997 0.0059272173857267008 0.0051885512758009008 -0.0091776035789242483 0.0065856209501232504 -0.0015964735684347998 -0.0042147377244153494 -0.013210457631607499
decision_type=2 2 2 2 2 2 2 2 2 2 2 2 2 2 2 2 2 2 2 2 2 2 2 2 2 2 2 2 2 2
left_child=2 3 5 12 11 14 8 23 9 -6 16 24 20 28 -1 -10 19 27 25 -5 21 -2 -14 -3 -4 -19 -18 -9 -7 -20
right_child=1 7 4 10 6 13 -8 17 15 -11 -12 -13 22 -15 -16 -17 26 18 29 -21 -22 -23 -24 -25 -26 -27 -28 -29 -30 -31
leaf_value=-0.010670196271150663 -0.0099880038940772502 -0.010457621175586095 -0.010399912282658474 -0.010120673539950168 -0.010658529424320872 -0.011068854442389026 -0.011125566088806804 -0.010364237830738997 -0.010713319676420871 -0.011165141430895741 -0.010434351847137291 -0.010619465098928626 -0.0099712230267263603 -0.011305897520136053 -0.010912393056999857 -0.010562616249293054 -0.010258436727084186 -0.010265804722651805 -0.010158775553189616 -0.0099878767435770989 -0.0097796723043258663 -0.0098536813299082808 -0.01011338951087367 -0.010577818437226083 -0.010274069837972487 -0.010357472819881362 -0.010176532180260833 -0.010444206773748587 -0.011130938329946214 -0.010217562981627846
leaf_weight=43 51 26 30 90 30 90 30 60 176 30 30 30 60 30 30 60 30 30 43 52 51 192 21 60 30 60 90 30 30 30
leaf_count=43 51 26 30 90 30 90 30 60 176 30 30 30 60 30 30 60 30 30 43 52 51 192 21 60 30 60 90 30 30 30
internal_value=-0.0103916 -0.0101314 -0.0108014 -0.0100114 -0.0106889 -0.0110112 -0.0107601 -0.0103673 -0.010723 -0.0109118 -0.0101606 -0.0104311 -0.00989523 -0.0111287 -0.0107697 -0.010675 -0.0101293 -0.0103081 -0.0102624 -0.010072 -0.00986414 -0.00988187 -0.0100081 -0.0105415 -0.010337 -0.0103269 -0.010197 -0.0103909 -0.0110844 -0.0101829
internal_weight=1645 1006 639 667 416 223 326 339 296 60 292 90 375 150 73 236 262 253 163 142 294 243 81 86 60 90 120 90 120 73
internal_count=1645 1006 639 667 416 223 326 339 296 60 292 90 375 150 73 236 262 253 163 142 294 243 81 86 60 90 120 90 120 73
is_linear=0
shrinkage=1


Tree=1
num_leaves=31
num_cat=0
split_feature=7 13 13 1 5 1 1 8 8 1 1 2 2 1 6 8 13 5 12 2 13 1 1 1 1 1 1 1 5 6
split_gain=0.0633303 0.0102783 0.00544332 0.00417406 0.00275436 0.00228395 0.0015935 0.00126164 0.000968619 0.00138979 0.000904384 0.000576095 0.000463827 0.00042516 0.000374206 0.000370975 0.000366864 0.000345425 0.000301649 0.000234793 0.000228448 0.000142946 9.46068e-05 8.57537e-05 6.42729e-05 6.067e-05 4.61721e-05 3.13074e-05 2.94512e-05 2.20467e-05
threshold=0.54685326298162384 -0.62192883750136407 -0.47379514982674564 -0.011566540522699948 0.0042777611798016507 -0.012930543198402148 -0.0020152262359882998 0.46268667479193887 0.30777182954804666 -0.0039385590985523489 -0.0020813621612574998 -0.027161163881830448 -0.0060875416361930992 -0.0027245060146296497 0.0088351841388678524 0.81845290147711547 -0.22836966988874988 0.0054483703609439016 -3.1598369458166347 -0.0019386045234512999 -0.88443434744865035 -0.017700452723838446 0.0059272173857267008 0.0051885512758009008 -0.013811566170492997 -0.0091776035789242483 -0.0015964735684347998 -0.0042147377244153494 0.0065856209501232504 0.0071169866492294511
decision_type=2 2 2 2 2 2 2 2 2 2 2 2 2 2 2 2 2 2 2 2 2 2 2 2 2 2 2 2 2 2
left_child=2 3 5 12 11 14 8 22 9 -6 15 23 20 27 -1 19 -10 26 25 -5 -2 -22 -3 -4 -14 -19 -9 -7 -17 -20
right_child=1 7 4 10 6 13 -8 17 16 -11 -12 -13 24 -15 -16 28 -18 18 29 -21 21 -23 -24 -25 -26 -27 -28 -29 -30 -31
leaf_value=-0.00049473545514047148 0.00042090767270161044 -6.2702165814698679e-05 -7.8787197708152235e-06 0.00033501790853084198 -0.00025356500409543518 -0.00064337377746899926 -0.00069724982604384427 2.6012008493125905e-05 -0.00030561574927891015 -0.00073484643362462529 -4.0596304461359982e-05 -0.00021645389497280121 0.00037836884148418904 -0.00086856465786695487 -0.00026464851703061616 0.00012652305886149407 -0.00016244748840108514 0.00011952347122132779 0.00016535312170162797 0.00021244572708383204 0.00058484077453613281 0.00049590875135093436 -0.00017688956577330828 0.00011167160701006651 0.00026431791484355928 3.2438768539577725e-05 -4.9958488671109083e-05 -0.00070235347375273709 0.00018719756044447423 0.00022120116451798482
leaf_weight=30 81 26 30 112 30 90 30 60 176 30 30 30 30 30 43 30 60 30 30 60 60 183 60 30 21 60 30 30 60 43
leaf_count=30 81 26 30 112 30 90 30 60 176 30 30 30 30 30 43 30 60 30 30 60 60 183 60 30 21 60 30 30 60 43
internal_value=1.81788e-12 0.000247254 -0.000389261 0.000361193 -0.000282416 -0.000588579 -0.000350016 2.30755e-05 -0.000314823 -0.000494206 0.000219447 -3.75537e-05 0.000471565 -0.000700208 -0.000359205 0.000249222 -0.000269217 7.93132e-05 0.000122726 0.00029226 0.000493627 0.000517867 -0.000142368 5.18964e-05 0.000331407 6.1467e-05 6.88509e-07 -0.000658119 0.000166973 0.00019825
internal_weight=1645 1006 639 667 416 223 326 339 296 60 292 90 375 150 73 262 236 253 163 172 324 243 86 60 51 90 90 120 90 73
internal_count=1645 1006 639 667 416 223 326 339 296 60 292 90 375 150 73 262 236 253 163 172 324 243 86 60 51 90 90 120 90 73
is_linear=0
shrinkage=0.05


Tree=2
num_leaves=31
num_cat=0
split_feature=7 13 13 1 5 1 1 8 8 1 1 2 3 1 3 8 3 3 2 1 7 2 2 1 1 1 1 1 5 1
split_gain=0.0571556 0.00927617 0.0049126 0.00376709 0.00248581 0.00206126 0.00143813 0.00113863 0.000874178 0.00125429 0.000816206 0.000519926 0.00042873 0.000383707 0.000337721 0.000334805 0.000331095 0.000311746 0.0002119 0.000178049 0.000149736 0.000255709 0.000142551 0.000102411 8.53827e-05 7.73927e-05 4.38791e-05 2.8255e-05 2.65797e-05 1.31729e-05
threshold=0.54685326298162384 -0.62192883750136407 -0.47379514982674564 -0.011566540522699948 0.0042777611798016507 -0.012930543198402148 -0.0020152262359882998 0.46268667479193887 0.30777182954804666 -0.0039385590985523489 -0.0020813621612574998 -0.027161163881830448 -0.050717537274098994 -0.0027245060146296497 -0.026806949240610146 0.81845290147711547 -0.031297145444406142 -0.038782752615185392 -0.0019386045234512999 0.0088684001363770523 1.0660943880136287 -0.016497478564706448 -0.026751804866155349 -0.013811566170492997 0.0059272173857267008 0.0051885512758009008 -0.0040032187963474491 -0.0042147377244153494 0.0065856209501232504 -0.0015964735684347998
decision_type=2 2 2 2 2 2 2 2 2 2 2 2 2 2 2 2 2 2 2 2 2 2 2 2 2 2 2 2 2 2
left_child=2 3 5 12 11 14 8 24 9 -6 15 25 20 27 -1 18 -10 26 -5 22 21 -2 -19 -14 -3 -4 -9 -7 -17 -28
right_child=1 7 4 10 6 13 -8 17 16 -11 -12 -13 23 -15 -16 28 -18 19 -20 -21 -22 -23 -24 -25 -26 -27 29 -29 -30 -31
leaf_value=-0.00025141609962596451 0.00036018295487498541 -5.9567055723164236e-05 -7.4847834184765819e-06 0.00031826700724195693 -0.00024088677018880845 -0.00061120510411759223 -0.00066238734871149063 5.0027458928525452e-05 -0.00029033495600081302 -0.00069810408167541031 -3.8566489820368588e-05 -0.00020563120488077403 0.00037939414614811544 -0.00082513643428683281 -0.0004699986893683672 0.00012019691057503225 -0.00015432510990649463 8.4310871898196638e-05 0.00020182344596832993 6.5592066675890237e-06 0.00055393817670205058 0.0004861364155658521 0.00018833742209085045 0.00025110200513154272 -0.00016804508632048965 0.00010608802549540997 -6.0464017224148849e-07 -0.00066723581403493881 0.00017783768707886339 -4.7460565110668543e-05
leaf_weight=43 51 26 30 112 30 90 30 30 176 30 30 30 60 30 30 30 60 60 60 30 51 192 73 21 60 30 30 30 60 30
leaf_count=43 51 26 30 112 30 90 30 30 176 30 30 30 60 30 30 30 60 60 60 30 51 192 73 21 60 30 30 30 60 30
internal_value=9.50187e-13 0.000234892 -0.000369798 0.000343133 -0.000268295 -0.00055915 -0.000332515 2.19218e-05 -0.000299082 -0.000469495 0.000208474 -3.5676e-05 0.000447987 -0.000665198 -0.000341245 0.000236761 -0.000255756 7.53475e-05 0.000277647 0.000116589 0.000476049 0.000459702 0.000141408 0.000346133 -0.000135249 4.93016e-05 6.54085e-07 -0.000625213 0.000158624 -2.40326e-05
internal_weight=1645 1006 639 667 416 223 326 339 296 60 292 90 375 150 73 262 236 253 172 163 294 243 133 81 86 60 90 120 90 60
internal_count=1645 1006 639 667 416 223 326 339 296 60 292 90 375 150 73 262 236 253 172 163 294 243 133 81 86 60 90 120 90 60
is_linear=0
shrinkage=0.05


Tree=3
num_leaves=31
num_cat=0
split_feature=7 13 0 1 1 1 0 8 0 3 1 3 0 0 3 12 6 6 5 11 0 0 0 0 0 1 3 0 0 0
split_gain=0.0515829 0.00837174 0.00454382 0.0033998 0.00308811 0.00240921 0.00105111 0.00102762 0.000844699 0.000835185 0.000736626 0.000386929 0.000326536 0.000317749 0.000281351 0.000245695 0.000236093 0.000180195 0.000123833 0.000118165 0.000116114 9.24257e-05 7.70579e-05 6.98469e-05 6.33308e-05 5.22119e-05 4.10094e-05 3.96009e-05 3.29438e-05 3.26409e-05
threshold=0.54685326298162384 -0.62192883750136407 -1.0000000180025095e-35 -0.011566540522699948 -0.0054549567215894492 -0.0095557289828367472 -0.0028355604536896496 0.46268667479193887 0.0060890578474062504 -0.026806949240610146 -0.0020813621612574998 -0.050717537274098994 -0.0036392535374765497 -0.00047970463249884997 -0.038782752615185392 -3.1598369458166347 0.0093916084153818514 0.0064917249973333513 0.0056973418742509007 -17.669989041860045 0.0020886390401929004 -0.0024334063799262497 0.0083192319646373022 0.0065972975720116006 0.0043615465826864512 -0.0091776035789242483 -0.06405582917929524 -0.0013486994273826998 -0.0019067212504120497 -0.0032452425051676995
decision_type=2 2 2 2 2 2 2 2 2 2 2 2 2 2 2 2 2 2 2 2 2 2 2 2 2 2 2 2 2 2
left_child=2 3 4 11 6 9 -1 22 24 19 13 12 18 17 27 25 -6 -5 -2 -4 -11 -13 -3 -10 -7 -16 -14 -9 -8 -18
right_child=1 7 5 10 16 8 28 14 23 20 -12 21 26 -15 15 -17 29 -19 -20 -21 -22 -23 -24 -25 -26 -27 -28 -29 -30 -31
leaf_value=-0.00057443222030997278 0.00045179917942732577 -5.6588706502225254e-05 -0.00022258016194195247 0.00027512022329924201 -0.00078387968242168429 -0.00014660885790362954 -0.00018990498501807453 -2.2830971488474461e-05 0.0001007836195640266 -0.00044649876654148104 -3.6638166056945921e-05 0.00036042443243786696 0.00047537558518039686 0.00032595596276223664 0.00010933175217360259 0.0001789205497105236 -0.00058189099654555327 0.00016710863681510091 0.00035702740100936763 -0.00032409405454906614 -0.00058561125770211224 0.00023854691535234453 -0.00015964283375069499 -7.1105445385910574e-06 -0.0002192557090893388 2.8545077657327057e-05 0.00052723749368279067 4.752608365379274e-05 -0.00025407647481188181 -0.00064211363593737289
leaf_weight=30 60 26 43 52 30 60 30 60 30 30 30 60 72 60 30 73 30 150 81 86 30 21 60 30 60 60 81 30 60 90
leaf_count=30 60 26 43 52 30 60 30 60 30 30 30 60 72 60 30 73 30 150 81 86 30 21 60 30 60 60 81 30 60 90
internal_value=-2.89839e-12 0.000223147 -0.000351308 0.000325976 -0.000507178 -0.000237258 -0.000318123 2.08257e-05 -0.000106343 -0.000361938 0.000198051 0.000425588 0.000452246 0.000224923 7.15802e-05 0.00011076 -0.000658422 0.000194914 0.000397356 -0.000290256 -0.000516055 0.000328827 -0.000128487 4.68365e-05 -0.000182932 5.5474e-05 0.000502832 6.2138e-07 -0.000232686 -0.000627058
internal_weight=1645 1006 639 667 270 369 120 339 180 189 292 375 294 262 253 163 150 202 141 129 60 81 86 60 120 90 153 90 90 120
internal_count=1645 1006 639 667 270 369 120 339 180 189 292 375 294 262 253 163 150 202 141 129 60 81 86 60 120 90 153 90 90 120
is_linear=0
shrinkage=0.05


Tree=4
num_leaves=31
num_cat=0
split_feature=7 13 10 10 0 10 0 8 0 3 0 2 3 3 10 3 0 0 13 0 2 5 2 0 0 5 0 3 0 0
split_gain=0.0465536 0.0075555 0.00455085 0.00285848 0.00267693 0.00163296 0.00217234 0.000927423 0.000821695 0.000385701 0.000284923 0.00026221 0.000256783 0.000253919 0.000227886 0.000225796 0.000208503 0.000271025 0.000153289 0.000148299 0.000114733 0.000109326 9.13247e-05 6.95447e-05 6.30368e-05 4.40109e-05 3.57398e-05 2.9973e-05 2.20624e-05 1.79706e-05
threshold=0.54685326298162384 -0.62192883750136407 25.723055584095402 18.960353767612727 0.0060890578474062504 39.166184476999526 0.0025544119552895505 0.46268667479193887 -0.0091557479743336976 -0.047272831922308141 -0.0011860804375990498 -0.043737198045175639 -0.031297145444406142 -0.038782752615185392 30.828791521318909 -0.040592574775798543 -0.0036392535374765497 0.0015589889456557502 -0.38042711967859133 -0.0056037909273994992 -0.026751804866155349 0.0056973418742509007 -0.00352852120037095 0.0083192319646373022 0.0065972975720116006 0.0071480024045094508 -0.0013486994273826998 -0.06081325559413809 -0.0019652427413076995 -0.011066569572725898
decision_type=2 2 2 2 2 2 2 2 2 2 2 2 2 2 2 2 2 2 2 2 2 2 2 2 2 2 2 2 2 2
left_child=2 3 10 16 5 6 11 23 15 22 28 -4 18 26 -11 29 21 25 -7 -15 -21 -2 -10 -3 -6 -18 -9 -23 -1 -5
right_child=1 7 4 8 24 12 -8 13 9 14 -12 -13 -14 19 -16 -17 17 -19 -20 20 -22 27 -24 -25 -26 -27 -28 -29 -30 -31
leaf_value=-0.00054925354197621346 0.00042920922860503199 -5.3759269212605433e-05 -0.00042417380027472975 0.00016055915039032699 9.5744442660361528e-05 -0.00022486400671471331 -0.00020628182109037082 -2.1689423056159286e-05 0.00043287128210067749 0.0001862866323480898 -0.00074468567036092284 -0.00059486208483576779 -0.00013927840627729894 4.8039924877230083e-06 0.00035930871963500981 -3.4806257463060323e-05 0.00050047813394271277 0.00031833210960030556 -0.00031503594978010821 7.6648406684398657e-05 0.00016997452117247533 0.00030274556484073402 0.00031172184972092513 -0.00015166068915277721 -6.7550172389019281e-06 0.00043158493936061863 4.51497791800648e-05 0.00036125063240804057 -0.00060176830738782887 0.00010583163239061833
leaf_weight=60 60 26 30 30 30 133 73 60 21 141 30 90 60 30 22 30 102 30 73 60 73 30 60 60 30 30 30 81 30 30
leaf_count=60 60 26 30 30 30 133 73 60 21 141 30 90 60 30 22 30 102 30 73 60 73 30 60 60 30 30 30 81 30 30
internal_value=-1.05347e-12 0.00021199 -0.000333743 0.000309677 -0.000269582 -0.000310638 -0.000421354 1.97844e-05 0.000206324 0.000253954 -0.00061124 -0.00055219 -0.000230305 6.80012e-05 0.000209639 7.71948e-05 0.000413341 0.000453989 -0.000256818 0.000105222 0.000127873 0.000374832 0.000343131 -0.000122063 4.44947e-05 0.000484821 5.90311e-07 0.000345438 -0.000566758 0.000133195
internal_weight=1645 1006 639 667 519 459 193 339 334 244 120 120 266 253 163 90 333 162 206 163 133 171 81 86 60 132 90 111 90 60
internal_count=1645 1006 639 667 519 459 193 339 334 244 120 120 266 253 163 90 333 162 206 163 133 171 81 86 60 132 90 111 90 60
is_linear=0
shrinkage=0.05


Tree=5
num_leaves=31
num_cat=0
split_feature=6 0 1 10 13 6 3 3 13 6 1 1 9 6 0 0 0 0 0 5 0 5 0 0 3 0 3 8 0 1
split_gain=0.040883 0.00659957 0.00565517 0.0033231 0.00262402 0.00111782 0.000854226 0.000662703 0.000606559 0.000721494 0.000589759 0.000262994 0.000256074 0.00022694 0.000187902 0.000229942 0.000175352 0.000150874 0.00012548 9.86667e-05 9.16951e-05 6.4907e-05 4.90429e-05 3.39223e-05 3.34627e-05 2.97318e-05 2.70507e-05 2.4632e-05 1.99396e-05 1.76046e-05
threshold=0.0081976983130216518 -1.0000000180025095e-35 -0.008864240980542698 39.166184476999526 -0.36670852679825289 0.011639787850372101 -0.026806949240610146 -0.048586856964560693 -0.22836966988874988 0.0094476346556811013 -0.0040032187963474491 0.0055179735003143002 -403002.97456300008 0.0091945870319144526 -0.0036392535374765497 0.0015589889456557502 -0.0041764287475157995 -0.0056037909273994992 -0.00047970463249884997 0.0056973418742509007 0.0020886390401929004 0.0055343889112757011 -0.0032452425051676995 0.0015236675841051501 -0.06405582917929524 -0.0019067212504120497 -0.06081325559413809 0.38952905890790473 -0.0013486994273826998 -0.0062151437896279492
decision_type=2 2 2 2 2 2 2 2 2 2 2 2 2 2 2 2 2 2 2 2 2 2 2 2 2 2 2 2 2 2
left_child=2 3 7 13 6 8 23 14 9 -6 12 -12 28 -2 19 24 -9 -13 29 -1 -8 -18 -15 -3 -16 -5 -21 -10 -4 -14
right_child=1 4 10 25 5 -7 20 16 27 -11 11 17 18 22 15 -17 21 -19 -20 26 -22 -23 -24 -25 -26 -27 -28 -29 -30 -31
leaf_value=0.00040774876251816752 -0.000707451393827796 -0.00027817091904580593 0.00010054005542770028 -0.00016916652675718071 -0.00015906757447695316 -0.00031401433678733749 -0.00040296511724591255 0.00014790624845772982 -9.1378612993393355e-05 7.653634713374471e-05 -2.4758616503580319e-05 4.5637931179953744e-06 0.00015191921847872438 -0.00052179086487740283 0.00042900410480797293 0.00030241550412029032 0.00021730524022132159 0.0001418926171027124 0.00028539814520627259 0.00028760826680809262 -0.00052658761851489546 0.0003214568025074326 -0.00058014974929392342 -0.00021642168623741805 0.00047585172406225293 -0.00023012944729998709 0.00034318810277101069 -0.00013738199292371672 4.2892291094176475e-05 0.00019022133783437313
leaf_weight=60 30 30 30 30 43 43 30 30 43 133 90 30 60 60 72 30 21 60 30 30 30 52 90 86 81 60 81 90 30 60
leaf_count=60 30 30 30 30 43 43 30 30 43 133 90 30 60 60 72 30 21 60 30 30 30 52 90 86 81 60 81 90 30 60
internal_value=-6.62798e-13 -0.000256802 0.000241946 -0.000457879 -0.000153979 -7.51615e-05 -0.000311613 0.000361297 -4.19231e-05 1.8974e-05 0.000102091 3.56789e-05 0.000159016 -0.000581914 0.000393774 0.000428988 0.000249673 9.61163e-05 0.000193936 0.00035609 -0.000464776 0.000291495 -0.000556806 -0.000232391 0.000453806 -0.000209808 0.000328167 -0.000122509 7.17162e-05 0.00017107
internal_weight=1645 798 847 270 528 352 176 457 309 176 390 180 210 180 354 183 103 90 150 171 60 73 150 116 153 90 111 133 60 120
internal_count=1645 798 847 270 528 352 176 457 309 176 390 180 210 180 354 183 103 90 150 171 60 73 150 116 153 90 111 133 60 120
is_linear=0
shrinkage=0.05


Tree=6
num_leaves=31
num_cat=0
split_feature=7 13 10 1 0 10 0 8 1 3 0 0 10 0 1 3 3 12 13 5 0 0 0 1 0 3 3 0 0 0
split_gain=0.0379616 0.00613613 0.00369846 0.00250551 0.00215772 0.00133222 0.00176882 0.00075866 0.000542874 0.000281929 0.000240155 0.000232893 0.000247306 0.00023248 0.000213964 0.000210365 0.00020898 0.000186405 0.000124598 9.11171e-05 6.54013e-05 6.34979e-05 5.68907e-05 4.28096e-05 3.21993e-05 3.02001e-05 2.0645e-05 1.76503e-05 1.24678e-05 8.59943e-06
threshold=0.54685326298162384 -0.62192883750136407 25.723055584095402 -0.011566540522699948 0.0060890578474062504 39.166184476999526 0.0025544119552895505 0.46268667479193887 -0.0020813621612574998 -0.050717537274098994 -0.0036392535374765497 -0.00047970463249884997 30.828791521318909 -0.0011860804375990498 -0.0099940316534379483 -0.031297145444406142 -0.038782752615185392 -3.1598369458166347 -0.38042711967859133 0.0056973418742509007 -0.0024334063799262497 0.0083192319646373022 0.0065972975720116006 -0.0091776035789242483 -0.0039605010214170998 -0.06405582917929524 -0.013210457631607499 -0.0019652427413076995 0.0054699711770441013 -0.0013486994273826998
decision_type=2 2 2 2 2 2 2 2 2 2 2 2 2 2 2 2 2 2 2 2 2 2 2 2 2 2 2 2 2 2
left_child=2 3 13 9 5 6 14 21 11 10 19 12 -5 27 -4 18 24 23 -7 -2 -11 -3 -6 -18 -9 -12 -19 -1 -8 -26
right_child=1 7 4 8 22 15 28 16 -10 20 25 -13 -14 -15 -16 -17 17 26 -20 -21 -22 -23 -24 -25 29 -27 -28 -29 -30 -31
leaf_value=-0.00049570130649954078 0.00038736133137717843 -4.481015348574147e-05 -0.00038281686138361696 0.00014768184143273781 8.7130401516333231e-05 -0.00020302347663817997 -0.00016906561985135425 -4.1623585275374353e-05 -3.1828013015910982e-05 0.00030896278331056238 0.00040755391625377045 0.00027921148575842379 0.00032527046278119087 -0.00067207883112132551 -0.00053700416659315431 -0.00012544539058580994 9.6205924637615692e-05 0.00017717279667078063 -0.00028431994732061068 0.00030606677755713464 0.00020643996540457011 -0.00013835863792337479 -1.024408411467448e-05 2.3054011398926379e-05 2.8895423383801248e-06 0.00045205913311629386 0.00012312920298427344 -0.00054267244413495062 -0.00021106381900608541 4.0747676393948495e-05
leaf_weight=60 60 26 30 180 30 133 43 30 30 60 72 60 22 30 90 60 30 43 73 81 21 60 30 60 30 81 30 30 30 30
leaf_count=60 60 26 30 180 30 133 43 30 30 60 72 60 22 30 90 60 30 43 73 81 21 60 30 60 30 81 30 30 30 30
internal_value=1.59518e-12 0.00019143 -0.000301375 0.000279465 -0.000243534 -0.000280394 -0.000380397 1.8217e-05 0.000169646 0.000364978 0.000387734 0.000192715 0.000167023 -0.000551538 -0.000498457 -0.000207835 6.18266e-05 9.55934e-05 -0.000231832 0.00034066 0.000282383 -0.000110077 3.84432e-05 4.7438e-05 6.71211e-07 0.000431116 0.000154963 -0.000511358 -0.000186325 2.18186e-05
internal_weight=1645 1006 639 667 519 459 193 339 292 375 294 262 202 120 120 266 253 163 206 141 81 86 60 90 90 153 73 90 73 60
internal_count=1645 1006 639 667 519 459 193 339 292 375 294 262 202 120 120 266 253 163 206 141 81 86 60 90 90 153 73 90 73 60
is_linear=0
shrinkage=0.05


Tree=7
num_leaves=31
num_cat=0
split_feature=7 13 0 1 1 1 0 8 0 3 8 2 0 1 3 12 6 0 1 12 5 0 0 0 0 1 0 0 3 0
split_gain=0.0342603 0.00553785 0.0030199 0.00226123 0.00206665 0.00158187 0.00069659 0.00068469 0.000551465 0.000542279 0.000498585 0.000255391 0.000250296 0.000204953 0.000188605 0.000168231 0.000154137 0.000121904 0.000113502 8.25539e-05 7.98163e-05 7.22467e-05 5.73069e-05 5.13439e-05 4.3078e-05 3.86357e-05 3.10212e-05 2.90599e-05 2.72556e-05 2.6833e-05
threshold=0.54685326298162384 -0.62192883750136407 -1.0000000180025095e-35 -0.011566540522699948 -0.0054549567215894492 -0.0095557289828367472 -0.0028355604536896496 0.46268667479193887 0.0060890578474062504 -0.026806949240610146 0.81845290147711547 -0.0060875416361930992 -0.0036392535374765497 -0.0020813621612574998 -0.038782752615185392 -3.1598369458166347 0.0093916084153818514 -0.0022968283032751995 -0.0062151437896279492 -15.442283372954048 0.0056973418742509007 0.0020886390401929004 0.0083192319646373022 0.0065972975720116006 0.0043615465826864512 -0.0091776035789242483 -0.0024334063799262497 -0.0039605010214170998 -0.06405582917929524 -0.0019067212504120497
decision_type=2 2 2 2 2 2 2 2 2 2 2 2 2 2 2 2 2 2 2 2 2 2 2 2 2 2 2 2 2 2
left_child=2 3 4 11 6 9 -1 22 24 19 17 12 20 -12 27 25 -6 -5 -19 -4 -2 -11 -3 -10 -7 -16 -13 -9 -14 -8
right_child=1 7 5 10 16 8 29 14 23 21 13 26 28 -15 15 -17 -18 18 -20 -21 -22 -23 -24 -25 -26 -27 -28 -29 -30 -31
leaf_value=-0.00046737333759665494 0.00036799326771870257 -4.2569646029733125e-05 -0.00018002990644078615 0.00015822522691451014 -0.00063847484998404982 -0.00011917311931028963 -0.00015055702533572912 -3.9542405284009879e-05 8.2773884059861302e-05 -0.00036367601715028288 0.00012066909694112838 0.00027535238768905401 0.00038717621258304766 -3.0236612656153741e-05 9.1395626077428468e-05 0.00014721494557157363 -0.00051176296547055249 0.00027699033536652965 0.00016332874074578287 -0.00026487961092010832 0.00029641572209830223 -0.00047340802848339081 -0.00013144070398993791 -9.7318792541045699e-06 -0.00017908837180584671 2.1901310719840695e-05 0.00019611797761172057 2.072767856589053e-05 0.00042945616706101985 -0.00020847179694101215
leaf_weight=30 60 26 43 60 30 60 30 30 30 30 90 30 72 30 30 73 120 82 30 86 111 30 60 30 60 60 21 60 81 60
leaf_count=30 60 26 43 60 30 60 30 30 30 30 90 30 72 30 30 73 120 82 30 86 111 30 60 30 60 60 21 60 81 60
internal_value=9.72634e-13 0.000181859 -0.000286307 0.000265492 -0.000413378 -0.000193328 -0.000258718 1.73061e-05 -8.72468e-05 -0.000294357 0.000161163 0.000346729 0.0003631 8.29427e-05 5.87353e-05 9.08137e-05 -0.000537105 0.000215736 0.000246545 -0.000236596 0.000321531 -0.000418542 -0.000104573 3.6521e-05 -0.000149131 4.50661e-05 0.000242726 6.37651e-07 0.00040956 -0.000189167
internal_weight=1645 1006 639 667 270 369 120 339 180 189 292 375 324 120 253 163 150 172 112 129 171 60 86 60 120 90 51 90 153 90
internal_count=1645 1006 639 667 270 369 120 339 180 189 292 375 324 120 253 163 150 172 112 129 171 60 86 60 120 90 51 90 153 90
is_linear=0
shrinkage=0.05


Tree=8
num_leaves=31
num_cat=0
split_feature=13 2 10 1 5 3 9 0 3 10 1 0 1 0 2 0 0 10 12 0 9 5 0 1 1 0 3 3 2 3
split_gain=0.0285472 0.0055362 0.00250186 0.00204076 0.00183033 0.0014874 0.00142804 0.000767491 0.00075258 0.000704921 0.000442175 0.000416703 0.000288811 0.000257597 0.00023049 0.000225893 0.000186851 0.000205476 0.00011434 8.26189e-05 8.05181e-05 7.20342e-05 6.41231e-05 3.68743e-05 3.48687e-05 2.79966e-05 2.45981e-05 2.43636e-05 2.39256e-05 1.83904e-05
threshold=-0.65094720199704048 -0.035034873037086543 31.885722664841897 -0.011566540522699948 0.0054483703609439016 -0.014278269994733349 -166214888.28588453 0.0083192319646373022 -0.025993130202789348 26.567655888303644 -0.0020813621612574998 0.0065972975720116006 -0.0042147377244153494 0.00070974303507925004 -0.0060875416361930992 -0.0036392535374765497 -0.00047970463249884997 30.828791521318909 -3.1598369458166347 -0.0011860804375990498 -559076.69793499995 0.0056973418742509007 0.0016334309378130503 -0.0062151437896279492 -0.0091776035789242483 -0.0024334063799262497 -0.06405582917929524 -0.06081325559413809 -0.015906052814716746 -0.013986519881818099
decision_type=2 2 2 2 2 2 2 2 2 2 2 2 2 2 2 2 2 2 2 2 2 2 2 2 2 2 2 2 2 2
left_child=3 2 12 14 5 6 13 18 11 -8 16 20 22 -3 15 21 17 23 24 -14 -4 -1 -2 -5 -6 -16 28 -23 -17 -20
right_child=1 4 8 10 7 -7 9 -9 -10 -11 -12 -13 19 -15 25 26 -18 -19 29 -21 -22 27 -24 -25 -26 -27 -28 -29 -30 -31
leaf_value=0.00034959359327331186 -0.0004488710314035416 -0.00044400468468666079 -0.00027085363561677378 0.00011728062818292529 8.6825847392901789e-05 -0.0004859733395278454 2.0113123491682929e-05 -0.0001248686749022454 -0.0004497376270592213 -0.00013956633257891047 -2.8724782168865204e-05 -9.245285764336587e-06 -0.00050492745358496902 -0.00023680238518863916 0.00026158478576689961 0.00041273441165685655 0.00025140139041468501 0.00029515740461647514 0.00010031355229520435 -0.00060655111446976666 -0.00019075000439850809 0.00024310373701155188 -0.00034549222327768804 0.00016528732376173139 2.0806244629056893e-05 0.00018631207058206201 0.00040798336095004172 0.00029585093294304834 0.00034932217232006441 0.00014655663859272422
leaf_weight=60 30 30 43 120 30 30 120 60 30 163 30 30 60 30 30 21 60 22 43 30 116 30 30 60 60 21 81 81 51 43
leaf_count=60 30 30 43 120 30 30 120 60 30 163 30 30 60 30 30 21 60 22 43 30 116 30 30 60 60 21 81 81 51 43
internal_value=-4.29481e-13 -0.000172013 -0.000324841 0.000252217 -7.94133e-05 -0.000148362 -0.000118834 2.95612e-05 -0.000217092 -7.18577e-05 0.000153105 -0.000180164 -0.000482154 -0.000340404 0.000329393 0.000344945 0.000173925 0.000150913 8.22078e-05 -0.000538802 -0.000212413 0.000305454 -0.000397182 0.000133283 4.28128e-05 0.00023059 0.000389082 0.000281595 0.000367817 0.000123435
internal_weight=1645 978 369 667 609 373 343 236 219 283 292 189 150 60 375 324 262 202 176 90 159 171 60 180 90 51 153 111 72 86
internal_count=1645 978 369 667 609 373 343 236 219 283 292 189 150 60 375 324 262 202 176 90 159 171 60 180 90 51 153 111 72 86
is_linear=0
shrinkage=0.05


Tree=9
num_leaves=31
num_cat=0
split_feature=7 13 0 1 1 1 0 8 0 3 8 3 0 1 8 6 3 0 1 3 11 5 0 0 0 0 0 3 0 0
split_gain=0.0278816 0.00451893 0.00246874 0.00184178 0.00168027 0.0012926 0.000566017 0.000558783 0.000457621 0.000442603 0.000407242 0.000208018 0.000203868 0.000166611 0.000161291 0.000125545 0.000110834 9.78346e-05 9.33631e-05 7.6027e-05 6.94084e-05 6.50109e-05 5.88454e-05 4.54733e-05 4.48028e-05 3.98114e-05 2.52669e-05 2.21998e-05 2.20163e-05 2.00943e-05
threshold=0.54685326298162384 -0.62192883750136407 -1.0000000180025095e-35 -0.011566540522699948 -0.0054549567215894492 -0.0095557289828367472 -0.0028355604536896496 0.46268667479193887 0.0060890578474062504 -0.026806949240610146 0.81845290147711547 -0.048586856964560693 -0.0036392535374765497 -0.0020813621612574998 1.7573635761785023 0.0093916084153818514 -0.038782752615185392 -0.0022968283032751995 -0.0062151437896279492 -0.013827990040443197 -17.669989041860045 0.0056973418742509007 0.0020886390401929004 0.0083192319646373022 0.0065972975720116006 0.0054699711770441013 -0.0024334063799262497 -0.06405582917929524 -0.0019067212504120497 -0.0032452425051676995
decision_type=2 2 2 2 2 2 2 2 2 2 2 2 2 2 2 2 2 2 2 2 2 2 2 2 2 2 2 2 2 2
left_child=2 3 4 11 6 9 -1 23 25 20 17 12 21 -12 16 -6 -9 -5 -19 -18 -4 -2 -11 -3 -10 -7 -13 -14 -8 -17
right_child=1 7 5 10 15 8 28 14 24 22 13 26 27 -15 -16 29 19 18 -20 -21 -22 -23 -24 -25 -26 -27 -28 -29 -30 -31
leaf_value=-0.00042180442251265053 0.0003321139141917229 -3.945984499296174e-05 -0.00016149091426023219 0.00014324976364150644 -0.00057622357271611688 -0.00011806855715500813 -0.00013605086132884026 1.8685637928683719e-05 7.7629531733691703e-05 -0.00032821760978549722 0.00010877161015135546 0.00024850554764270781 0.00034942652855534111 -2.7288543060421946e-05 -1.8761708815873135e-05 -0.00042642746120691299 0.00015523871244472822 0.00024998377065923885 0.00014689794043079021 7.4417686361509067e-05 -0.00023929230424813753 0.00026751518992052691 -0.00042725075036287308 -0.00011862523970194161 -8.7830216216389093e-06 -0.00018457788974046707 0.00017699646996334196 0.00038758419212643749 -0.00018851070781238379 -0.00047367893469830351
leaf_weight=30 60 26 43 60 30 90 30 60 30 30 90 30 72 30 60 30 43 82 30 90 86 111 30 60 30 30 21 81 60 90
leaf_count=30 60 26 43 60 30 90 30 60 30 30 90 30 72 30 60 30 43 82 30 90 86 111 30 60 30 30 21 81 60 90
internal_value=3.39747e-13 0.000164058 -0.000258282 0.000239606 -0.000373174 -0.000174215 -0.000233719 1.54125e-05 -7.83228e-05 -0.000265541 0.00014545 0.000312923 0.000327698 7.47566e-05 5.28391e-05 -0.000484738 7.50984e-05 0.000194771 0.000222371 0.000100548 -0.000213359 0.000290181 -0.000377734 -9.46915e-05 3.44233e-05 -0.000134696 0.000219061 0.000369628 -0.000171024 -0.000461866
internal_weight=1645 1006 639 667 270 369 120 339 180 189 292 375 324 120 253 150 193 172 112 133 129 171 60 86 60 120 51 153 90 120
internal_count=1645 1006 639 667 270 369 120 339 180 189 292 375 324 120 253 150 193 172 112 133 129 171 60 86 60 120 51 153 90 120
is_linear=0
shrinkage=0.05


Tree=10
num_leaves=31
num_cat=0
split_feature=6 0 2 10 2 6 11 8 10 6 5 10 6 0 0 2 0 8 5 6 13 6 5 0 0 5 5 0 2 0
split_gain=0.0243961 0.00397944 0.00299646 0.00199153 0.00181292 0.000758782 0.000597477 0.000475234 0.000452776 0.000379117 0.000334656 0.00018068 0.000135144 0.000113992 0.000146644 0.00010066 9.95409e-05 9.34114e-05 8.51158e-05 7.50486e-05 7.33269e-05 6.47642e-05 5.86723e-05 5.3108e-05 3.19246e-05 2.87122e-05 2.19882e-05 1.98697e-05 9.9617e-06 9.57583e-06
threshold=0.0081976983130216518 -1.0000000180025095e-35 -0.0044491477960333491 39.166184476999526 -0.038662244452370292 0.0094476346556811013 -0.0097028683149897477 1.7573635761785023 19.420604127732222 0.0088351841388678524 0.0054911153293406012 20.177393142312841 0.0091945870319144526 -0.0036392535374765497 0.0015589889456557502 0.0077323254073608507 -0.0041764287475157995 0.55418824729904514 0.0064790690883837505 0.0075967065639819505 -0.36670852679825289 0.010116854952058702 0.0056973418742509007 0.0020886390401929004 -0.0032452425051676995 0.0071480024045094508 0.0070919673694813511 -0.0019067212504120497 -0.031551325339075141 -0.0022968283032751995
decision_type=2 2 2 2 2 2 2 2 2 2 2 2 2 2 2 2 2 2 2 2 2 2 2 2 2 2 2 2 2 2
left_child=2 3 8 12 9 20 17 10 13 23 -4 -10 -2 22 25 16 -12 -7 -13 -9 -6 -11 -1 -3 -14 -15 -24 -5 -8 -20
right_child=1 4 7 27 5 6 28 19 11 21 15 18 24 14 -16 -17 -18 -19 29 -21 -22 -23 26 -25 -26 -27 -28 -29 -30 -31
leaf_value=0.0003155082231387496 -0.00054741241037845609 -0.00031180672813206915 1.7751357222550724e-05 -0.00012924831826239825 -0.00019417331786826254 3.273335982846476e-05 -8.1691180821508172e-05 -2.0523786891620453e-05 0.00012988405651412905 -0.00015341636269938113 0.00013608727604150773 0.00016814664704725148 -0.00040291014593094591 0.00036952702246387215 0.00023441538214683533 0.00011167472306018074 0.00022716457024216652 0.00012047252114212446 0.00031510356348007917 7.0792890619486576e-05 -0.00011956444574673088 -0.00023500449398332942 0.00026768263067222304 -0.00040588821284472945 -0.00044999501357475923 0.00031388155184686184 0.00021757278591394424 -0.00017908517038449647 -0.00011697874870151282 0.00026790036354213954
leaf_weight=60 30 30 60 30 60 103 30 90 60 43 60 21 60 102 30 90 60 43 21 30 73 56 81 30 90 30 30 60 60 22
leaf_count=60 30 30 60 30 60 103 30 90 60 43 60 21 60 102 30 90 60 43 21 30 73 56 81 30 90 30 30 60 60 22
internal_value=-1.02123e-12 -0.000198375 0.000186899 -0.000354515 -0.000118531 -5.77133e-05 -3.88816e-06 8.50963e-05 0.000273776 -0.000259673 0.000121892 0.000192219 -0.000450536 0.000304146 0.000334202 0.000151647 0.000181626 5.85743e-05 0.000250657 2.30538e-06 -0.000153223 -0.000199567 0.000275672 -0.000358847 -0.000431161 0.00035688 0.000254139 -0.000162473 -0.000105216 0.000290953
internal_weight=1645 798 847 270 528 369 236 390 457 159 270 124 180 333 162 210 120 146 64 120 133 99 171 60 150 132 111 90 90 43
internal_count=1645 798 847 270 528 369 236 390 457 159 270 124 180 333 162 210 120 146 64 120 133 99 171 60 150 132 111 90 90 43
is_linear=0
shrinkage=0.05


Tree=11
num_leaves=31
num_cat=0
split_feature=7 1 8 1 5 7 8 3 1 8 1 3 1 1 1 7 9 1 9 1 2 1 5 1 1 1 1 1 1 1
split_gain=0.0227181 0.0035911 0.0014361 0.00117324 0.00157341 0.000732695 0.000533841 0.000452898 0.000367613 0.000262454 0.000209187 0.000156986 0.000123457 0.000112247 0.000111961 8.86516e-05 0.000155136 7.39395e-05 4.36086e-05 3.35166e-05 1.97445e-05 1.29554e-05 1.11949e-05 7.55632e-06 6.75764e-06 6.39404e-06 4.67372e-06 1.32981e-07 1.20992e-07 1.77424e-08
threshold=0.54685326298162384 -0.0091776035789242483 0.56630699443335886 0.0051885512758009008 0.0033836482071365006 0.7307053264035851 0.24877639594194687 -0.014278269994733349 -0.0035395958458845499 1.9550912541098542 0.0059272173857267008 -0.050717537274098994 -0.0020813621612574998 -0.014830020492152499 -0.0027245060146296497 1.0660943880136287 -72377.498630499977 -0.0078973048064577989 -1614851.8074644995 -0.0040032187963474491 0.0077323254073608507 -0.0083008016996600469 0.0062419606229773003 -0.0015964735684347998 -0.0042147377244153494 -0.011566540522699948 0.0088684001363770523 0.0069183747347000514 -0.016303083073906845 -0.0073153214312201486
decision_type=2 2 2 2 2 2 2 2 2 2 2 2 2 2 2 2 2 2 2 2 2 2 2 2 2 2 2 2 2 2
left_child=3 2 13 4 14 10 -6 8 -8 17 19 15 21 -2 24 16 -4 -7 -13 29 -19 -11 -20 -21 -1 -15 -14 -12 -17 -3
right_child=1 5 11 -5 6 9 7 -9 -10 12 27 18 26 25 -16 28 -18 20 22 23 -22 -23 -24 -25 -26 -27 -28 -29 -30 -31
leaf_value=-0.00038496057968586685 -3.5316073626745494e-05 3.3126788912341e-05 0.00030590489150199578 7.2111387271434066e-05 -9.9805380159523352e-06 0.00020689065568149092 -0.00023706978228609494 -0.0004154909867793322 -0.000124366224432985 0.00011372087756171823 -0.00010913430014625192 0.00015973931876942516 -2.4897925322875383e-05 7.2740041650831708e-05 -0.0005200417712330818 0.00035120162647217512 0.00022339348388076934 0.00014311998384073377 0.00022048284407964974 -1.1188245480298065e-06 0.00010609098438483974 6.7253242013975986e-05 0.0002549659120492064 -3.6606666981242597e-05 -0.00041852057911455636 0.00010538470232859255 3.0117998903733678e-06 -0.00010442648781463505 0.0003561499994248152 3.4846403286792339e-05
leaf_weight=30 26 30 192 30 30 30 369 30 90 30 30 21 30 30 30 30 81 60 43 30 90 30 52 30 30 30 30 30 21 30
leaf_count=30 26 30 192 30 30 30 369 30 90 30 30 21 30 30 30 30 81 60 43 30 90 30 52 30 30 30 30 30 21 30
internal_value=1.5671e-12 0.00014809 0.000238332 -0.000233143 -0.00024818 4.91987e-05 -0.000214713 -0.000227273 -0.000214971 9.70492e-05 -3.05522e-05 0.000274858 3.9772e-05 5.14596e-05 -0.000441174 0.000292728 0.000281423 0.000135234 0.000224944 7.56193e-06 0.000120903 9.04871e-05 0.000239358 -1.88627e-05 -0.000401741 8.90624e-05 -1.09431e-05 -0.00010678 0.000353239 3.39866e-05
internal_weight=1645 1006 526 639 609 480 519 489 459 300 180 440 120 86 90 324 273 180 116 120 150 60 95 60 60 60 60 60 51 60
internal_count=1645 1006 526 639 609 480 519 489 459 300 180 440 120 86 90 324 273 180 116 120 150 60 95 60 60 60 60 60 51 60
is_linear=0
shrinkage=0.05


Tree=12
num_leaves=31
num_cat=0
split_feature=7 13 10 10 0 10 0 0 0 9 3 5 3 0 10 0 0 3 13 5 3 5 5 3 0 5 3 0 0 0
split_gain=0.0205031 0.00332225 0.00202329 0.00126832 0.00117651 0.000805579 0.000997855 0.000383471 0.000374656 0.000168401 0.000156507 0.000123896 0.000123661 0.000122568 0.000104199 9.68324e-05 0.000121128 9.61249e-05 7.74796e-05 4.83621e-05 4.77509e-05 5.91488e-05 5.08628e-05 3.87652e-05 3.64921e-05 2.47656e-05 1.81221e-05 1.16923e-05 9.41807e-06 7.38388e-06
threshold=0.54685326298162384 -0.62192883750136407 25.723055584095402 18.960353767612727 0.0060890578474062504 39.166184476999526 0.0025544119552895505 0.0083192319646373022 -0.0091557479743336976 -52964712.076135106 -0.047272831922308141 0.0046188755614056014 -0.031297145444406142 -0.0011860804375990498 30.828791521318909 -0.0036392535374765497 0.0015589889456557502 -0.040592574775798543 -0.38042711967859133 0.0056973418742509007 -0.013986519881818099 0.0057783797440750006 0.0055816528475288009 -0.049871408721219194 0.0065972975720116006 0.0071480024045094508 -0.06081325559413809 -0.011066569572725898 0.0054699711770441013 -0.0019652427413076995
decision_type=2 2 2 2 2 2 2 2 2 2 2 2 2 2 2 2 2 2 2 2 2 2 2 2 2 2 2 2 2 2
left_child=2 3 13 15 5 6 11 9 17 -3 23 -4 18 29 -12 19 25 27 -7 -2 21 -11 -22 -10 -6 -17 -21 -5 -8 -1
right_child=1 7 4 8 24 12 28 -9 10 20 14 -13 -14 -15 -16 16 -18 -19 -20 26 22 -23 -24 -25 -26 -27 -28 -29 -30 -31
leaf_value=-0.00036721389042213562 0.00028443756746128203 -5.3111219448362328e-05 -0.00028436291031539443 0.00010803482728078962 6.8505818489938974e-05 -0.00014517993860548937 -0.00012291995185795566 -0.00010144137777388096 0.00028405312914401296 1.1634136171778664e-05 0.00012476019477075401 -0.00040169247270872193 -8.6330072372220462e-05 -0.00049403966404497628 0.0002417570445686579 0.00033457206685424728 0.0002115249400958419 -2.3653030802961441e-05 -0.00020928763886530924 0.0001955244690179825 0.00012153575283496878 8.2921621397809064e-05 5.0286744954064492e-05 0.00020512199262157083 -9.4815113698132336e-06 0.00028289223555475477 0.0002410161696995298 6.3890579622238877e-05 -0.00015942201716825368 -0.00039759455248713496
leaf_weight=60 60 43 30 30 30 133 43 60 21 90 141 90 60 30 22 102 30 30 73 30 43 43 60 60 30 30 81 30 30 30
leaf_count=60 60 43 30 30 30 133 43 60 21 90 141 90 60 30 22 102 30 30 73 30 43 43 60 60 30 30 81 30 30 30
internal_value=-5.65269e-13 0.000140685 -0.000221486 0.000205463 -0.000178704 -0.000205922 -0.000283686 1.32321e-05 0.000136618 3.78931e-05 0.00016878 -0.00037236 -0.000149499 -0.000406515 0.000140551 0.000274514 0.000302215 4.94241e-05 -0.000167898 0.000248271 5.44743e-05 3.4682e-05 8.00315e-05 0.000225586 2.95122e-05 0.000322827 0.000228721 8.59627e-05 -0.000137921 -0.000377341
internal_weight=1645 1006 639 667 519 459 193 339 334 279 244 120 266 120 163 333 162 90 206 171 236 133 103 81 60 132 111 60 73 90
internal_count=1645 1006 639 667 519 459 193 339 334 279 244 120 266 120 163 333 162 90 206 171 236 133 103 81 60 132 111 60 73 90
is_linear=0
shrinkage=0.05


Tree=13
num_leaves=31
num_cat=0
split_feature=7 13 10 1 0 10 0 0 1 9 2 0 1 10 0 0 1 13 5 5 12 0 1 0 5 0 0 0 1 0
split_gain=0.0185041 0.00299833 0.00182602 0.00122735 0.0010618 0.000727035 0.000900564 0.000346083 0.000265126 0.000151982 0.000134413 0.00013973 0.000111816 0.000111604 0.000110617 0.000109736 0.00011865 6.99254e-05 4.36468e-05 4.24331e-05 7.32033e-05 3.29342e-05 2.62942e-05 1.65806e-05 1.61392e-05 8.49981e-06 7.00429e-06 6.66395e-06 5.35815e-06 1.20016e-07
threshold=0.54685326298162384 -0.62192883750136407 25.723055584095402 -0.011566540522699948 0.0060890578474062504 39.166184476999526 0.0025544119552895505 0.0083192319646373022 -0.0020813621612574998 -52964712.076135106 -0.0060875416361930992 -0.0036392535374765497 -0.0099940316534379483 48.0438335095645 -0.0011860804375990498 -0.0022968283032751995 -0.0078973048064577989 -0.38042711967859133 0.0056973418742509007 0.0054483703609439016 -3.1598369458166347 0.0065972975720116006 -0.0047990408924723496 -0.0024334063799262497 0.0071480024045094508 0.0054699711770441013 -0.0013486994273826998 -0.0019652427413076995 -0.0035395958458845499 0.0093788507389773509
decision_type=2 2 2 2 2 2 2 2 2 2 2 2 2 2 2 2 2 2 2 2 2 2 2 2 2 2 2 2 2 2
left_child=2 3 14 10 5 6 12 9 15 -3 11 18 -4 17 27 22 -17 -7 -2 26 -21 -6 -5 -12 -13 -8 -11 -1 -15 -9
right_child=1 7 4 8 21 13 25 29 -10 19 23 24 -14 28 -16 16 -18 -19 -20 20 -22 -23 -24 -25 -26 -27 -28 -29 -30 -31
leaf_value=-0.00034885319182649256 0.00027021568967029453 -5.0455657900635938e-05 -0.0002701447578147054 8.5735530592501174e-05 6.5080530475825071e-05 -0.00013792094270369615 -0.00011677394816002183 -9.8605523817241192e-05 -2.2470379190053794e-05 -1.6445901565020904e-06 0.00020344178192317487 0.00030964954086102367 -0.00038160784946133695 -9.6955330809578308e-05 -0.00046933768317103386 0.00020329126912146443 0.00011076483060605824 -0.000198823251850801 0.00021728505569233283 3.2608105539111423e-05 9.7117251882378316e-05 -9.0074354375246912e-06 0.00013978711795061826 0.00014551433268934489 0.00026874761097133159 -0.00015145092038437724 3.2522375113330783e-05 -0.00037771482020616532 -6.7071808734908708e-05 -9.4133091624826204e-05
leaf_weight=60 60 43 30 90 30 133 43 30 30 30 30 123 90 30 30 82 60 73 111 90 86 30 30 21 30 30 30 30 30 30
leaf_count=60 60 43 30 90 30 133 43 30 30 30 30 123 90 30 30 82 60 73 111 90 86 30 30 21 30 30 30 30 30 30
internal_value=2.18058e-13 0.000133651 -0.000210411 0.00019519 -0.000169769 -0.000195626 -0.000269502 1.25705e-05 0.000118327 3.59984e-05 0.00025504 0.000266916 -0.000353742 -0.000142024 -0.00038619 0.000134449 0.000164196 -0.000159503 0.000235857 5.17506e-05 6.41296e-05 2.80365e-05 9.92484e-05 0.000179589 0.00030163 -0.000131025 1.54389e-05 -0.000358474 -8.20136e-05 -9.63693e-05
internal_weight=1645 1006 639 667 519 459 193 339 292 279 375 324 120 266 120 262 142 206 171 236 176 60 120 51 153 73 60 90 60 60
internal_count=1645 1006 639 667 519 459 193 339 292 279 375 324 120 266 120 262 142 206 171 236 176 60 120 51 153 73 60 90 60 60
is_linear=0
shrinkage=0.05


Tree=14
num_leaves=31
num_cat=0
split_feature=7 1 0 8 1 1 7 0 3 0 8 0 3 1 0 6 0 0 1 11 5 0 9 0 0 0 5 0 2 0
split_gain=0.0166999 0.00265222 0.00150196 0.00107035 0.00104586 0.000783107 0.000532511 0.000376644 0.000286107 0.000268212 0.000194133 0.000154657 0.000108312 9.23516e-05 9.2218e-05 7.00709e-05 6.69483e-05 9.2008e-05 5.27234e-05 4.7826e-05 4.19801e-05 3.64458e-05 3.25767e-05 2.98211e-05 2.97231e-05 2.39676e-05 2.19269e-05 1.79324e-05 1.59163e-05 1.05523e-05
threshold=0.54685326298162384 -0.0091776035789242483 -1.0000000180025095e-35 0.56630699443335886 -0.0054549567215894492 -0.0095557289828367472 0.7307053264035851 -0.0028355604536896496 -0.026806949240610146 0.0060890578474062504 1.9550912541098542 0.0083192319646373022 -0.050717537274098994 -0.0020813621612574998 0.0035995701375608007 0.0093916084153818514 -0.0036392535374765497 0.0015589889456557502 -0.0078973048064577989 -17.669989041860045 0.0056973418742509007 0.0020886390401929004 -1614851.8074644995 0.0043615465826864512 0.0065972975720116006 -0.0013486994273826998 0.0049580988349445512 -0.0019067212504120497 0.0077323254073608507 -0.011066569572725898
decision_type=2 2 2 2 2 2 2 2 2 2 2 2 2 2 2 2 2 2 2 2 2 2 2 2 2 2 2 2 2 2
left_child=2 3 4 14 7 8 11 -1 19 23 18 25 16 29 -2 -6 20 -18 -8 -4 -5 -10 -14 -7 -11 -3 -17 -9 -20 -12
right_child=1 6 5 12 15 9 10 27 21 24 13 -13 22 -15 -16 26 17 -19 28 -21 -22 -23 -24 -25 -26 -27 -28 -29 -30 -31
leaf_value=-0.00033291187137365343 7.727449119556696e-05 -1.5580175477225568e-05 -0.000120393164336768 0.00025670489994809035 -0.00044587082229554655 -7.7912892447784546e-05 0.00017612545052543284 -9.6777372527867561e-05 -0.00025663753040134908 6.1826501041650769e-05 9.8346313461661342e-05 -9.1550842626020312e-05 0.00013823861954733729 -1.034888077811047e-05 -3.5462067899061367e-05 -0.00034809657372534278 0.0002865480802332362 0.00019078413024544718 0.00012346217408776283 -0.00018497544481570639 0.00020152469234610044 -0.00033457528334110979 0.0002070533131298266 -0.00012776354560628533 -8.557063847547398e-06 2.9110981267876925e-05 -0.00039745569229125981 -0.00014412237796932459 9.0216156483317411e-05 5.6409277021884918e-05
leaf_weight=30 60 60 43 60 30 60 30 30 30 30 30 60 21 60 26 90 153 30 60 86 81 30 95 60 30 60 30 60 90 30
leaf_count=30 60 60 43 60 30 60 30 30 30 30 30 60 21 60 26 90 153 30 60 86 81 30 95 60 30 60 30 60 90 30
internal_value=-1.54531e-12 0.000126968 -0.000199891 0.000204522 -0.000289506 -0.000134319 4.19823e-05 -0.000179483 -0.000205403 -5.96806e-05 8.27756e-05 -2.60067e-05 0.000236055 3.35145e-05 4.31913e-05 -0.000377523 0.000250899 0.000270849 0.000115616 -0.000163448 0.000225006 -0.000295606 0.000194595 -0.000102838 2.66347e-05 6.7654e-06 -0.000360436 -0.000128341 0.000103515 7.73778e-05
internal_weight=1645 1006 639 526 270 369 480 120 189 180 300 180 440 120 86 150 324 183 180 129 141 60 116 120 60 120 120 90 150 60
internal_count=1645 1006 639 526 270 369 480 120 189 180 300 180 440 120 86 150 324 183 180 129 141 60 116 120 60 120 120 90 150 60
is_linear=0
shrinkage=0.05


Tree=15
num_leaves=31
num_cat=0
split_feature=7 1 0 8 1 1 7 0 6 0 8 0 1 0 1 0 6 1 11 0 0 5 0 0 5 0 5 6 0 2
split_gain=0.0150717 0.00239363 0.00135552 0.000965993 0.000943888 0.000706754 0.000480592 0.000339921 0.000258212 0.000242061 0.000175205 0.000139578 8.62012e-05 9.8135e-05 8.33473e-05 8.32267e-05 6.3239e-05 4.75829e-05 4.31629e-05 3.28923e-05 3.14104e-05 2.94321e-05 2.69135e-05 2.68251e-05 2.25097e-05 2.16308e-05 1.9789e-05 1.71972e-05 1.6184e-05 1.43644e-05
threshold=0.54685326298162384 -0.0091776035789242483 -1.0000000180025095e-35 0.56630699443335886 -0.0054549567215894492 -0.0095557289828367472 0.7307053264035851 -0.0028355604536896496 0.0088351841388678524 0.0060890578474062504 1.9550912541098542 0.0083192319646373022 -0.014368533954472448 -0.0036392535374765497 -0.0020813621612574998 0.0035995701375608007 0.0093916084153818514 -0.0078973048064577989 -17.669989041860045 0.0020886390401929004 -0.0041764287475157995 0.0056973418742509007 0.0043615465826864512 0.0065972975720116006 0.0055343889112757011 -0.0013486994273826998 0.0049580988349445512 0.006710355752158401 -0.0019067212504120497 0.0077323254073608507
decision_type=2 2 2 2 2 2 2 2 2 2 2 2 2 2 2 2 2 2 2 2 2 2 2 2 2 2 2 2 2 2
left_child=2 3 4 15 7 8 11 -1 19 22 17 25 13 21 -12 -2 -6 -8 -10 -4 -14 -5 -7 -11 -22 -3 -18 -15 -9 -19
right_child=1 6 5 12 16 9 10 28 18 23 14 -13 20 27 -16 -17 26 29 -20 -21 24 -23 -24 -25 -26 -27 -28 -29 -30 -31
leaf_value=-0.00031626627314835788 7.3410765617154544e-05 -1.4801165752942326e-05 -0.00024380565155297519 0.00025208704173564913 -0.00042357728816568854 -7.4017245788127189e-05 0.0001673191785812378 -9.1938499826937922e-05 -0.00011437350618761294 5.8735179482027892e-05 7.350890373345465e-05 -8.697330194991083e-05 0.00023565227165818216 0.00028903875363004561 -9.8314373190078189e-06 -3.3688966504996641e-05 -0.00033069174581517777 0.00011728906538337469 -0.00017572667065271459 -0.00031784651800990108 0.00013132669264450669 0.00019626985996256809 -0.00012137537123635411 -8.1292106187902388e-06 0.00018934392336210826 2.7655431767925621e-05 -0.00037758289836347107 0.0002541553602634889 -0.00013691625790670514 8.5705347980062171e-05
leaf_weight=30 60 60 30 30 30 60 30 30 43 30 60 60 30 51 60 26 90 60 86 30 21 111 60 30 82 60 30 115 60 90
leaf_count=30 60 60 30 30 30 60 30 30 43 30 60 60 30 51 60 26 90 60 86 30 21 111 60 30 82 60 30 115 60 90
internal_value=-3.93875e-13 0.00012062 -0.000189896 0.000194296 -0.00027503 -0.000127603 3.98831e-05 -0.000170509 -0.000195133 -5.66965e-05 7.86368e-05 -2.47063e-05 0.000224252 0.000238819 3.18387e-05 4.10318e-05 -0.000358647 0.000109836 -0.000155276 -0.000280826 0.000190629 0.000208146 -9.76963e-05 2.5303e-05 0.000177515 6.42713e-06 -0.000342415 0.000264873 -0.000121924 9.83388e-05
internal_weight=1645 1006 639 526 270 369 480 120 189 180 300 180 440 307 120 86 150 180 129 60 133 141 120 60 103 120 120 166 90 150
internal_count=1645 1006 639 526 270 369 480 120 189 180 300 180 440 307 120 86 150 180 129 60 133 141 120 60 103 120 120 166 90 150
is_linear=0
shrinkage=0.05


Tree=16
num_leaves=31
num_cat=0
split_feature=7 13 0 0 0 3 5 3 11 0 9 3 3 3 0 0 3 5 5 2 3 12 0 0 0 2 0 0 0 0
split_gain=0.0136022 0.00221437 0.00122335 0.000678607 0.000604749 0.000535968 0.000658562 0.000496402 0.000290834 0.000253082 0.000118679 0.000105152 8.68872e-05 6.50469e-05 6.33311e-05 7.62069e-05 4.55376e-05 4.62176e-05 3.25992e-05 3.09911e-05 2.99012e-05 5.3804e-05 2.92681e-05 2.42096e-05 1.46061e-05 1.02129e-05 9.52344e-06 8.25478e-06 5.69385e-06 4.73807e-06
threshold=0.54685326298162384 -0.62192883750136407 -1.0000000180025095e-35 -0.0099287967774296468 0.0060890578474062504 -0.03532628642736544 0.0042777611798016507 -0.049871408721219194 -557.54760737482127 0.0083192319646373022 -52964712.076135106 -0.031297145444406142 -0.025993130202789348 -0.040592574775798543 -0.0036392535374765497 0.0015589889456557502 -0.047272831922308141 0.0066350005371799007 0.0070919673694813511 -0.035852111293599991 -0.038782752615185392 -3.1598369458166347 0.00070974303507925004 0.0065972975720116006 -0.0019067212504120497 -0.031551325339075141 -0.011066569572725898 -0.00095808097234684989 -0.0019652427413076995 -0.0013486994273826998
decision_type=2 2 2 2 2 2 2 2 2 2 2 2 2 2 2 2 2 2 2 2 2 2 2 2 2 2 2 2 2 2
left_child=2 3 5 13 8 6 28 14 12 10 -3 22 -4 26 18 -16 -9 -18 -5 -7 29 -22 -10 -6 -8 -13 -2 -21 -1 -12
right_child=1 9 4 7 23 19 24 16 11 -11 20 25 -14 -15 15 -17 17 -19 -20 27 21 -23 -24 -25 -26 -27 -28 -29 -30 -31
leaf_value=-0.00029821137432008984 8.9753553038462999e-05 -4.5827755753254134e-05 -0.0001910841092467308 0.00021239289979232436 5.5798416724428535e-05 -0.00040239840745925903 -8.734157891012729e-05 0.00016620153328403831 -0.00018330197131564453 -8.2624636706896137e-05 -4.3293593421367408e-08 -5.6121713714674119e-05 -0.0003019541967660189 -2.0337844034656882e-05 0.00025893152536203464 0.00017177773406729102 9.7029246515720281e-05 0.0001541513573521605 0.00015499427681788804 -0.00035870375577360395 2.7856511587742718e-05 8.316136577483376e-05 -0.00013418959914842277 -7.7227501606103029e-06 -0.00013007044908590616 -9.1851418255828326e-05 4.9913366092368966e-05 -0.00032161201816052201 -0.00032488966826349497 2.8057934832759203e-05
leaf_weight=60 30 43 43 141 30 30 30 60 43 60 30 30 30 30 153 30 111 52 30 30 90 86 103 30 60 60 30 30 30 30
leaf_count=60 30 43 43 141 30 30 30 60 43 60 30 30 30 30 153 30 111 52 30 30 90 86 103 30 60 60 30 30 30 30
internal_value=-2.47036e-14 0.000114589 -0.000180401 0.000167474 -0.000121223 -0.000261279 -0.000211466 0.000187392 -0.000149429 1.05349e-05 3.05692e-05 -0.00012245 -0.000236647 3.97764e-05 0.000224201 0.000244644 0.000128961 0.000115252 0.000202323 -0.000360905 4.4489e-05 5.48805e-05 -0.000148654 2.40378e-05 -0.000115827 -7.99415e-05 6.98335e-05 -0.000340158 -0.000307104 1.40073e-05
internal_weight=1645 1006 639 667 369 270 180 577 309 339 279 236 73 90 354 183 223 163 171 90 236 176 146 60 90 90 60 60 90 60
internal_count=1645 1006 639 667 369 270 180 577 309 339 279 236 73 90 354 183 223 163 171 90 236 176 146 60 90 90 60 60 90 60
is_linear=0
shrinkage=0.05


Tree=17
num_leaves=31
num_cat=0
split_feature=7 13 10 10 0 10 0 0 0 9 3 3 0 2 10 0 0 3 13 7 3 2 2 0 2 10 3 0 0 0
split_gain=0.012276 0.00199847 0.0012085 0.000769994 0.000704768 0.000482786 0.000608047 0.000228407 0.000225668 0.000107108 8.60387e-05 7.46719e-05 7.37604e-05 7.12746e-05 6.92194e-05 6.0222e-05 7.54151e-05 5.87048e-05 4.83311e-05 3.07728e-05 2.8509e-05 5.15057e-05 2.89721e-05 2.18492e-05 1.98592e-05 1.97738e-05 1.41828e-05 8.59491e-06 7.28753e-06 5.1387e-06
threshold=0.54685326298162384 -0.62192883750136407 25.723055584095402 18.960353767612727 0.0060890578474062504 39.166184476999526 0.0025544119552895505 0.0083192319646373022 -0.0091557479743336976 -52964712.076135106 -0.047272831922308141 -0.031297145444406142 -0.0011860804375990498 -0.043737198045175639 30.828791521318909 -0.0036392535374765497 0.0015589889456557502 -0.040592574775798543 -0.38042711967859133 0.81954111194994717 -0.013986519881818099 0.020436395031689553 -0.026751804866155349 0.0065972975720116006 -0.00352852120037095 17.798555406873955 -0.06081325559413809 -0.011066569572725898 0.0054699711770441013 -0.0019652427413076995
decision_type=2 2 2 2 2 2 2 2 2 2 2 2 2 2 2 2 2 2 2 2 2 2 2 2 2 2 2 2 2 2
left_child=2 3 12 15 5 6 13 9 17 -3 24 18 29 -4 -12 19 25 27 -7 -2 21 -11 -22 -6 -10 -17 -21 -5 -8 -1
right_child=1 7 4 8 23 11 28 -9 10 20 14 -13 -14 -15 -16 16 -18 -19 -20 26 22 -23 -24 -25 -26 -27 -28 -29 -30 -31
leaf_value=-0.00028330080676823853 0.00022105653770267966 -4.3536368676266353e-05 -0.00022206115536391736 8.5265876259654766e-05 5.3008500253781682e-05 -0.00011205852269790227 -9.2602958956863304e-05 -7.8493403270840653e-05 0.00021438624244183302 1.0178926757393112e-05 9.661923989931003e-05 -6.6617055563256147e-05 -0.0003822784870862961 -0.00031105215506007278 0.00019197718938812613 0.00021532848477363588 0.00016318884445354342 -1.9320951832924041e-05 -0.00016269104663690884 0.00014724456705152991 3.956288637709804e-05 8.4625388262793427e-05 9.3336478363029488e-05 -7.3366129072383048e-06 0.00015789145836606622 0.00026150715660632531 0.00018748934553177268 4.7417698078788822e-05 -0.00012471195077523589 -0.00030864519067108631
leaf_weight=60 60 43 30 30 30 133 43 60 21 103 141 60 30 90 22 30 30 30 73 30 60 30 43 30 60 102 81 30 30 30
leaf_count=60 60 43 30 30 30 133 43 60 21 103 141 60 30 90 22 30 30 30 73 30 60 30 43 30 60 102 81 30 30 30
internal_value=-3.46665e-13 0.00010886 -0.000171381 0.0001591 -0.000138318 -0.000159384 -0.000219585 1.00082e-05 0.000105459 2.90407e-05 0.00013042 -0.000115704 -0.000314381 -0.000288804 0.00010949 0.000212903 0.000234748 3.77875e-05 -0.000130001 0.000192207 4.22645e-05 2.69714e-05 6.20121e-05 2.28359e-05 0.000172538 0.000251012 0.000176612 6.63418e-05 -0.000105798 -0.000291749
internal_weight=1645 1006 639 667 519 459 193 339 334 279 244 266 120 120 163 333 162 90 206 171 236 133 103 60 81 132 111 60 73 90
internal_count=1645 1006 639 667 519 459 193 339 334 279 244 266 120 120 163 333 162 90 206 171 236 133 103 60 81 132 111 60 73 90
is_linear=0
shrinkage=0.05


Tree=18
num_leaves=31
num_cat=0
split_feature=7 13 10 1 5 10 8 3 8 3 3 3 1 1 8 1 13 3 3 1 1 10 13 5 1 1 5 1 1 1
split_gain=0.0110791 0.00180362 0.00109067 0.000740435 0.000591934 0.000681382 0.000233918 0.00023329 0.000165451 0.000120502 7.87433e-05 6.73913e-05 6.70614e-05 6.65688e-05 6.55635e-05 6.43253e-05 4.36188e-05 4.29487e-05 4.01696e-05 3.70804e-05 4.59172e-05 3.65328e-05 4.85774e-05 3.23262e-05 1.97189e-05 1.30841e-05 9.45506e-06 8.7858e-06 4.63768e-06 4.27611e-06
threshold=0.54685326298162384 -0.62192883750136407 25.723055584095402 -0.011566540522699948 0.0042777611798016507 39.166184476999526 0.46268667479193887 -0.03532628642736544 0.81845290147711547 -0.027181217910191947 -0.048586856964560693 -0.031297145444406142 -0.0020813621612574998 -0.0027245060146296497 1.7573635761785023 -0.0099940316534379483 -0.38042711967859133 -0.038782752615185392 -0.013827990040443197 -0.0093029459489308488 -0.0062151437896279492 17.400592226302141 -0.88443434744865035 0.0070919673694813511 0.0051885512758009008 0.0059272173857267008 0.0065856209501232504 -0.013811566170492997 -0.0042147377244153494 -0.0040032187963474491
decision_type=2 2 2 2 2 2 2 2 2 2 2 2 2 2 2 2 2 2 2 2 2 2 2 2 2 2 2 2 2 2
left_child=2 3 13 10 9 7 25 -6 19 24 21 16 26 28 17 -9 -7 29 -19 -5 -21 23 -23 -2 -4 -3 -10 -12 -1 -8
right_child=1 6 4 8 5 11 14 15 12 -11 27 -13 -14 -15 -16 -17 -18 18 -20 20 -22 22 -24 -25 -26 -27 -28 -29 -30 -31
leaf_value=-0.00026913576293736697 0.00019981396617367865 -3.2103922421811149e-05 -6.9697824073955423e-06 7.2373991133645174e-05 -0.00011847635032609106 -0.00010645559689562238 2.6146092568524183e-05 -0.00021095811389386656 4.5046812738291925e-05 -8.7972813107203263e-05 0.00015724519034847619 -6.3286203658208248e-05 -1.835490402299911e-05 -0.00036316455807536844 -1.1927187506444171e-05 -0.00029549954148630302 -0.00015455649381069698 0.00010351109870731137 4.4763620826415719e-05 0.00015787393416891377 0.00010031413694377989 0.00017733863102929558 0.00023368570186636027 0.00013988233404234053 5.0358072621747857e-05 -7.4568731361068788e-05 7.9425334115512675e-05 0.00011507793096825481 -0.00029321291949599985 -5.5007526498229711e-07
leaf_weight=60 90 26 30 30 30 133 30 30 30 43 30 60 30 30 60 90 73 43 90 82 60 51 153 30 30 60 60 21 30 30
leaf_count=60 90 26 30 30 30 133 30 30 30 43 30 60 30 30 60 90 73 43 90 82 60 51 153 30 30 60 60 21 30 30
internal_value=3.12324e-13 0.000103417 -0.000162812 0.000151145 -0.000131402 -0.000157972 9.50775e-06 -0.000243187 9.14452e-05 -2.40891e-05 0.000197632 -0.000109919 4.63856e-05 -0.000298662 3.37231e-05 -0.000274364 -0.000123501 4.79149e-05 6.37572e-05 0.000122882 0.000133553 0.000206722 0.000219599 0.000184831 2.16941e-05 -6.17305e-05 6.79658e-05 0.000139882 -0.000277161 1.2798e-05
internal_weight=1645 1006 639 667 519 416 339 150 292 103 375 266 120 120 253 120 206 193 133 172 142 324 204 120 60 86 90 51 90 60
internal_count=1645 1006 639 667 519 416 339 150 292 103 375 266 120 120 253 120 206 193 133 172 142 324 204 120 60 86 90 51 90 60
is_linear=0
shrinkage=0.05


Tree=19
num_leaves=31
num_cat=0
split_feature=7 13 10 1 0 10 0 8 8 2 0 10 1 0 8 1 13 10 0 1 2 7 0 10 0 6 0 0 0 1
split_gain=0.00999885 0.00162776 0.000984331 0.000668243 0.000574038 0.000393232 0.000495258 0.000211111 0.00014932 7.10658e-05 7.60866e-05 6.08207e-05 6.05229e-05 6.00783e-05 5.91711e-05 5.80536e-05 3.9366e-05 3.87612e-05 3.48675e-05 3.44174e-05 2.78179e-05 2.60552e-05 1.77963e-05 1.26607e-05 1.18084e-05 8.53319e-06 7.92918e-06 7.12109e-06 5.93574e-06 4.24627e-06
threshold=0.54685326298162384 -0.62192883750136407 25.723055584095402 -0.011566540522699948 0.0060890578474062504 39.166184476999526 0.0025544119552895505 0.46268667479193887 0.81845290147711547 -0.0060875416361930992 -0.0036392535374765497 48.0438335095645 -0.0020813621612574998 -0.0011860804375990498 1.7573635761785023 -0.0099940316534379483 -0.38042711967859133 32.267696312164475 -0.0022968283032751995 -0.0062151437896279492 -0.026751804866155349 0.81954111194994717 0.0065972975720116006 17.798555406873955 0.0083192319646373022 0.0075967065639819505 -0.0024334063799262497 -0.0066933300347722996 0.0054699711770441013 -0.0035395958458845499
decision_type=2 2 2 2 2 2 2 2 2 2 2 2 2 2 2 2 2 2 2 2 2 2 2 2 2 2 2 2 2 2
left_child=2 3 13 9 5 6 15 24 18 10 21 16 25 -1 17 -4 -7 -9 27 -20 -19 -2 -6 -12 -3 -10 -11 -5 -8 -13
right_child=1 7 4 8 22 11 28 14 12 26 23 29 -14 -15 -16 -17 -18 20 19 -21 -22 -23 -24 -25 -26 -27 -28 -29 -30 -31
leaf_value=-0.00026330340964098774 0.00020001300144940616 -3.0498725391225892e-05 -0.00020041021052747966 0.00010320596629753709 4.7840169281698769e-05 -0.00010113281668759043 -8.3574170766528261e-05 1.2158108870607976e-05 7.5454066973179579e-05 0.00014938293024897576 0.0001928777783177793 -7.3423323919996625e-05 -1.7437158385291698e-05 -0.0003450063290074468 -1.1330828158406803e-05 -0.00028072456674029433 -0.00014682866741380055 3.5346558433957398e-05 0.00014998023880918214 8.7390892440453177e-05 8.1300334079982073e-05 0.00015911727363394728 -6.621293141506613e-06 0.00022910474089723901 -7.0840297848917547e-05 4.2794473120011393e-05 0.00010932403383776546 6.8755290703848012e-05 -0.00011255253339186311 -4.682046419475228e-05
leaf_weight=90 60 26 30 30 30 133 43 60 60 30 30 30 30 30 60 90 73 60 82 30 73 111 30 123 60 30 21 30 30 30
leaf_count=90 60 26 30 30 30 133 43 60 60 30 30 30 30 30 60 90 73 60 82 30 73 111 30 123 60 30 21 30 30 30
internal_value=-9.20552e-15 9.82457e-05 -0.000154672 0.000143588 -0.000124832 -0.000143844 -0.000198175 9.03236e-06 8.6873e-05 0.00018775 0.000196386 -0.000104423 4.40664e-05 -0.000283729 3.2037e-05 -0.000260646 -0.000117326 4.55192e-05 0.000116738 0.000133215 6.05693e-05 0.000173467 2.06094e-05 0.000222001 -5.8644e-05 6.45675e-05 0.000132888 8.59806e-05 -9.54831e-05 -6.01219e-05
internal_weight=1645 1006 639 667 519 459 193 339 292 375 324 266 120 120 253 120 206 193 172 112 133 171 60 153 86 90 51 60 73 60
internal_count=1645 1006 639 667 519 459 193 339 292 375 324 266 120 120 253 120 206 193 172 112 133 171 60 153 86 90 51 60 73 60
is_linear=0
shrinkage=0.05


Tree=20
num_leaves=31
num_cat=0
split_feature=7 13 10 1 8 10 2 8 1 8 1 2 3 1 1 8 3 3 3 10 3 10 6 2 1 1 6 1 1 1
split_gain=0.00902397 0.00146906 0.000888359 0.000603089 0.000447668 0.000328831 0.000308439 0.000190528 0.000144046 0.000134761 9.74238e-05 6.41369e-05 5.99397e-05 5.46219e-05 5.42207e-05 5.34019e-05 3.4982e-05 3.42904e-05 3.33199e-05 3.17399e-05 3.7997e-05 3.0901e-05 4.70728e-05 3.03796e-05 1.60612e-05 1.06571e-05 7.70121e-06 7.15608e-06 4.18551e-06 3.91166e-06
threshold=0.54685326298162384 -0.62192883750136407 25.723055584095402 -0.011566540522699948 0.29248832487020154 39.166184476999526 -0.027161163881830448 0.46268667479193887 -0.0099940316534379483 0.81845290147711547 -0.0022978698534641497 -0.0060875416361930992 -0.031297145444406142 -0.0020813621612574998 -0.0027245060146296497 1.7573635761785023 -0.038782752615185392 -0.013827990040443197 -0.052409578968192143 30.828791521318909 -0.046458923184100644 17.798555406873955 0.0054449083784891003 -0.015621113490348247 0.0051885512758009008 0.0059272173857267008 0.0075967065639819505 -0.013811566170492997 -0.0042147377244153494 1.0000000180025095e-35
decision_type=2 2 2 2 2 2 2 2 2 2 2 2 2 2 2 2 2 2 2 2 2 2 2 2 2 2 2 2 2 2
left_child=2 3 14 11 10 6 8 25 -6 19 -4 21 18 26 28 16 -9 -18 -7 20 -5 23 -23 -2 -12 -3 -11 -13 -1 -8
right_child=1 7 4 9 5 12 29 15 -10 13 24 27 -14 -15 -16 -17 17 -19 -20 -21 -22 22 -24 -25 -26 -27 -28 -29 -30 -31
leaf_value=-0.00024251380236819389 0.00012493234826251864 -2.897378944908269e-05 -9.0774905402213335e-05 0.00013349627843126655 -0.00015544056916761017 -6.6992151550948628e-05 -0.00010692490031942725 1.1550203043952934e-05 -0.00026668834034353494 7.1681363624520597e-05 -6.2902283389121296e-06 0.00014191378140822054 -5.711579724447802e-05 -1.6565300757065416e-05 -0.00032775602303445342 -1.0764286253106548e-05 9.4270527763508789e-05 3.9992216625250879e-05 -0.00012484717881307007 0.00016698562540113927 8.2128182596837495e-05 0.00016051583019468716 0.00021764950048769029 0.00018118663574568928 4.5448160381056372e-05 -6.7298280191607781e-05 4.0654750773683193e-05 0.00010385783389210701 -0.00026538711972534657 -8.1391708226874479e-05
leaf_weight=60 30 26 30 60 43 30 30 60 90 60 30 30 60 30 30 60 43 90 146 22 90 51 123 120 30 60 30 21 30 30
leaf_count=60 30 26 30 60 43 30 30 60 90 60 30 30 60 30 30 60 43 90 146 22 90 51 123 120 30 60 30 21 30 30
internal_value=-4.9063e-13 9.33334e-05 -0.000146938 0.000136409 -0.00011859 -0.00013986 -0.000188266 8.58074e-06 -0.000230721 8.25293e-05 -1.72057e-05 0.000178363 -0.000100273 4.1863e-05 -0.000269543 3.04351e-05 4.32432e-05 5.75408e-05 -0.000114986 0.000110901 0.000102675 0.000186567 0.000200903 0.000169936 1.9579e-05 -5.57118e-05 6.13392e-05 0.000126244 -0.000250138 -9.41583e-05
internal_weight=1645 1006 639 667 519 429 193 339 133 292 90 375 236 120 120 253 193 133 176 172 150 324 174 150 60 86 90 51 90 60
internal_count=1645 1006 639 667 519 429 193 339 133 292 90 375 236 120 120 253 193 133 176 172 150 324 174 150 60 86 90 51 90 60
is_linear=0
shrinkage=0.05


Tree=21
num_leaves=31
num_cat=0
split_feature=7 13 10 10 0 10 0 8 0 3 0 0 10 8 2 0 0 3 3 3 2 5 0 5 0 2 3 0 0 0
split_gain=0.00814413 0.00132582 0.000801744 0.000518261 0.000467558 0.00032029 0.000409667 0.000171952 0.000147593 5.23214e-05 5.11019e-05 4.89342e-05 4.8703e-05 4.81952e-05 4.50326e-05 4.1559e-05 5.11163e-05 3.90717e-05 3.15712e-05 3.0947e-05 2.7821e-05 2.20435e-05 1.78116e-05 1.50114e-05 1.44952e-05 1.09214e-05 9.99315e-06 9.61803e-06 5.78556e-06 5.29595e-06
threshold=0.54685326298162384 -0.62192883750136407 25.723055584095402 18.960353767612727 0.0060890578474062504 39.166184476999526 0.0025544119552895505 0.46268667479193887 -0.0091557479743336976 -0.047272831922308141 1.0000000180025095e-35 -0.0011860804375990498 30.828791521318909 1.7573635761785023 -0.043737198045175639 -0.0036392535374765497 0.0015589889456557502 -0.040592574775798543 -0.038782752615185392 -0.013827990040443197 -0.035034873037086543 0.0056973418742509007 0.00070974303507925004 0.0071480024045094508 0.0065972975720116006 -0.00352852120037095 -0.06081325559413809 0.0083192319646373022 -0.011066569572725898 0.0054699711770441013
decision_type=2 2 2 2 2 2 2 2 2 2 2 2 2 2 2 2 2 2 2 2 2 2 2 2 2 2 2 2 2 2
left_child=2 3 11 15 5 6 14 27 17 25 20 -1 -11 18 -4 21 23 28 -9 -20 -7 -2 -12 -17 -6 -10 -23 -3 -5 -8
right_child=1 7 4 8 24 10 29 13 9 12 22 -13 -14 -15 -16 16 -18 -19 19 -21 -22 26 -24 -25 -26 -27 -28 -29 -30 -31
leaf_value=-0.00023763132436821857 0.00018095301929861308 -2.7525099721970039e-05 -0.00018261766526848078 6.967454100959003e-05 4.3175753671675923e-05 -0.00010134222102351487 -7.4206533987984758e-05 1.0972692871291656e-05 0.00016964494716376066 7.8649113469935486e-05 -0.00014469070755335133 -0.00031136821489781142 0.00015863634180277587 -1.0226071981378482e-05 -0.00025335392759492004 0.00021440980147899075 0.00013296187389642001 -1.5737036301288756e-05 8.9556999439590205e-05 3.7992604484315967e-05 -5.738751982183507e-05 0.00011868573492392898 -0.00010412540844935056 0.00017417456256225706 -5.9757170674856756e-06 0.0001277495699469 0.00015246728952560162 -6.3933368073776372e-05 3.8622011197730904e-05 -0.00010157865472137928
leaf_weight=90 60 26 30 30 30 60 43 60 21 141 43 30 22 60 90 102 30 30 43 90 90 30 73 30 30 60 81 60 30 30
leaf_count=90 60 26 30 30 30 60 43 60 21 141 43 30 22 60 90 102 30 30 43 90 90 30 73 30 30 60 81 60 30 30
internal_value=-8.10197e-13 8.86668e-05 -0.000139591 0.000129588 -0.000112661 -0.000129819 -0.000178853 8.1517e-06 8.55803e-05 0.000105767 -9.42416e-05 -0.000256066 8.94449e-05 2.89134e-05 -0.00023567 0.000173728 0.000191876 3.08532e-05 4.10811e-05 5.46638e-05 -7.49694e-05 0.000156536 -0.000119163 0.000205265 1.86e-05 0.000138611 0.000143337 -5.29262e-05 5.41483e-05 -8.54554e-05
internal_weight=1645 1006 639 667 519 459 193 339 334 244 266 120 163 253 120 333 162 90 193 133 150 171 116 132 60 81 111 86 60 73
internal_count=1645 1006 639 667 519 459 193 339 334 244 266 120 163 253 120 333 162 90 193 133 150 171 116 132 60 81 111 86 60 73
is_linear=0
shrinkage=0.05


Tree=22
num_leaves=31
num_cat=0
split_feature=6 0 1 10 2 6 6 1 2 0 6 1 9 0 6 0 0 0 0 1 5 5 12 3 2 0 3 0 3 0
split_gain=0.00711368 0.00118813 0.00101411 0.000629818 0.000540606 0.000215563 0.000194106 0.000114996 0.000111916 8.5834e-05 5.21428e-05 4.58772e-05 4.58466e-05 3.95241e-05 3.50894e-05 3.43092e-05 4.11505e-05 2.28739e-05 2.25056e-05 2.20688e-05 1.98943e-05 1.71763e-05 1.68723e-05 1.64049e-05 1.11263e-05 1.10959e-05 1.08966e-05 1.00831e-05 9.01882e-06 4.42105e-06
threshold=0.0081976983130216518 -1.0000000180025095e-35 -0.008864240980542698 39.166184476999526 -0.043392458466168647 0.0094476346556811013 0.010116854952058702 -0.0040032187963474491 -0.0060875416361930992 0.0016334309378130503 0.010758805525703902 0.0055179735003143002 -403002.97456300008 -0.0041764287475157995 0.0091945870319144526 -0.0036392535374765497 0.0015589889456557502 -0.0056037909273994992 0.0015236675841051501 -0.0091776035789242483 0.0056973418742509007 0.0049580988349445512 -3.0887801078807908 -0.027181217910191947 -0.0051473351875516993 0.0020886390401929004 -0.06405582917929524 -0.0019067212504120497 -0.06081325559413809 -0.0019652427413076995
decision_type=2 2 2 2 2 2 2 2 2 2 2 2 2 2 2 2 2 2 2 2 2 2 2 2 2 2 2 2 2 2
left_child=2 3 8 14 9 23 19 12 15 18 -8 -9 -4 -10 -2 20 26 -13 -3 -7 -1 29 -14 -6 -15 -11 -17 -5 -22 -16
right_child=1 4 7 27 5 6 10 11 13 25 -12 17 22 24 21 16 -18 -19 -20 -21 28 -23 -24 -25 -26 -27 -28 -29 -30 -31
leaf_value=0.00017190537182614209 -0.0002957998076453805 -0.00013745617051067393 2.9897824424551801e-05 -6.077316938899458e-05 -9.9132912654480702e-05 7.4046228736162527e-05 -6.2237707253780627e-05 -1.286836759391008e-05 5.7278666645288467e-05 -0.00017348678084090353 3.3150056308016268e-06 1.9687604435603134e-06 6.7920297927533596e-05 9.4732485013082634e-05 -0.00021850655321031809 0.00017620461488453051 0.00012631377903744579 5.5440556025132537e-05 -8.1029889406636365e-05 2.7114315889775754e-05 0.0001127514522522688 -0.0002704026410356164 0.00010215018701273948 -6.5612409595553202e-05 0.00013785419287160039 -0.00021649054251611234 0.00020293790019220776 -9.6275110263377431e-05 0.00014484392530802223 -0.00023770084371790292
leaf_weight=60 30 43 60 30 73 43 103 90 30 30 43 30 90 21 60 72 30 60 30 60 30 30 60 73 52 30 81 60 81 60
leaf_count=60 30 43 60 30 73 43 103 90 30 30 43 30 90 21 60 72 30 60 30 60 30 30 60 73 52 30 81 60 81 60
internal_value=-5.09538e-13 -0.000107121 0.000100924 -0.000192438 -6.34931e-05 -3.41354e-05 -5.85177e-06 4.17001e-05 0.000151465 -0.000150683 -4.29311e-05 1.23741e-05 6.68367e-05 0.000105594 -0.000246436 0.000164812 0.000179859 3.76166e-05 -0.000114267 4.67073e-05 0.000148709 -0.000236563 8.16123e-05 -8.23727e-05 0.000125449 -0.000194989 0.000190358 -8.44411e-05 0.00013617 -0.000228104
internal_weight=1645 798 847 270 528 395 249 390 457 133 146 180 210 103 180 354 183 90 73 103 171 150 150 146 73 60 153 90 111 120
internal_count=1645 798 847 270 528 395 249 390 457 133 146 180 210 103 180 354 183 90 73 103 171 150 150 146 73 60 153 90 111 120
is_linear=0
shrinkage=0.05


Tree=23
num_leaves=31
num_cat=0
split_feature=7 13 10 10 5 10 2 8 8 6 7 6 6 13 2 10 6 9 8 10 2 7 8 2 5 8 2 6 2 2
split_gain=0.00663625 0.00107952 0.000653089 0.000422908 0.000358302 0.000409527 0.000140826 0.000137976 0.000119846 7.09074e-05 4.2855e-05 4.07767e-05 3.98066e-05 3.88784e-05 3.66308e-05 3.41897e-05 3.20573e-05 3.14847e-05 4.25655e-05 2.80471e-05 2.50375e-05 2.1714e-05 2.00442e-05 1.24236e-05 9.28458e-06 8.74904e-06 6.38787e-06 4.98248e-06 4.69183e-06 4.57016e-06
threshold=0.54685326298162384 -0.62192883750136407 25.723055584095402 18.960353767612727 0.0042777611798016507 39.166184476999526 -0.014400688891271798 0.46268667479193887 2.1498979282386066 0.0096473154930124521 0.45325673232959413 0.0094546766022143517 0.0091945870319144526 -0.78649392376838356 -0.043737198045175639 30.828791521318909 0.0066506017873913508 -72377.498630499977 2.1177121558885532 17.798555406873955 0.020436395031689553 0.47297856842888547 0.73240920644235719 -0.033025758048475941 0.0045732224772240511 0.37286552212996465 -0.018638025212453845 0.0078177742446283015 -1.0000000180025095e-35 -0.0040783463810598998
decision_type=2 2 2 2 2 2 2 2 2 2 2 2 2 2 2 2 2 2 2 2 2 2 2 2 2 2 2 2 2 2
left_child=2 3 12 17 9 6 14 25 13 -4 24 20 -1 28 -6 -15 -10 19 26 27 22 -12 -9 -11 -7 -3 -19 -2 -5 -18
right_child=1 7 4 8 5 10 -8 11 16 23 21 -13 -14 15 -16 -17 29 18 -20 -21 -22 -23 -24 -25 -26 -27 -28 -29 -30 -31
leaf_value=-0.00028100982308387756 0.00016109193675220015 -3.137795178782801e-05 -6.7215590185464125e-05 0.00015235246391966941 -0.00016481244238093496 -9.7726048024501225e-05 -9.1543077724054461e-05 2.6537570374784994e-05 -1.430676638847217e-05 -5.8426812756806612e-06 -4.6688447764609012e-05 7.0343916791729461e-05 -0.00021450452816983067 7.7592147403935858e-05 -0.00022860965691506863 0.00014381181681528689 6.2794797122478493e-05 0.00013762448010418344 0.00019173980690538885 0.00019468337074310209 5.9190142201259734e-05 -8.3527607785072178e-05 -6.8325870112554796e-06 3.9661247865296903e-05 -0.00013058335915597718 -6.3273562849390998e-05 0.00011355598689988256 0.00013756304979324342 0.00012153791030868889 3.5196018870919943e-05
leaf_weight=30 90 43 43 21 30 43 30 90 30 30 60 43 90 171 90 22 30 51 30 72 30 120 90 30 43 43 60 30 30 30
leaf_count=30 90 43 43 21 30 43 30 90 30 30 60 43 90 171 90 22 30 51 30 72 30 120 90 30 43 43 60 30 30 30
internal_value=-2.81971e-13 8.00386e-05 -0.000126008 0.000116964 -0.000101702 -0.000122374 -0.000188437 7.38621e-06 7.72101e-05 -1.82108e-05 -8.512e-05 2.5984e-05 -0.000231131 9.54002e-05 -0.00021266 8.51405e-05 2.78947e-05 0.000156837 0.000138896 0.000170012 1.69007e-05 -7.12479e-05 9.85249e-06 1.69093e-05 -0.000114155 -4.73258e-05 0.000124614 0.00015521 0.000134226 4.89954e-05
internal_weight=1645 1006 639 667 519 416 150 339 334 103 266 253 120 244 120 193 90 333 141 192 210 180 180 60 86 86 111 120 51 60
internal_count=1645 1006 639 667 519 416 150 339 334 103 266 253 120 244 120 193 90 333 141 192 210 180 180 60 86 86 111 120 51 60
is_linear=0
shrinkage=0.05


Tree=24
num_leaves=31
num_cat=0
split_feature=7 1 10 10 3 7 6 7 13 9 1 2 1 6 7 1 1 9 3 13 10 1 1 3 10 2 2 1 6 3
split_gain=0.00598921 0.000977956 0.000589412 0.000284072 0.000268225 0.000234652 0.000202644 0.000196501 0.000180877 0.000103257 5.7429e-05 5.7292e-05 5.2819e-05 4.14223e-05 3.79216e-05 3.59254e-05 3.40233e-05 2.64272e-05 2.73091e-05 2.45055e-05 1.69267e-05 1.45641e-05 1.12123e-05 1.10854e-05 1.0517e-05 9.1584e-06 8.77592e-06 8.26776e-06 6.78403e-06 6.59568e-06
threshold=0.54685326298162384 -0.0091776035789242483 25.723055584095402 23.270911054388481 -0.037155007641972694 0.46085589323153064 0.010720073744438802 0.7307053264035851 -0.34547756194177309 -1620273.0469409993 -0.0020813621612574998 -0.043392458466168647 0.0059272173857267008 0.0071427415343444508 0.87847080605494277 -0.0027245060146296497 -0.0039385590985523489 -72377.498630499977 -0.051483623479231841 -0.69043509040387618 17.798555406873955 -0.015539333090603397 0.0051885512758009008 -0.052409578968192143 20.177393142312841 -0.026751804866155349 -0.0051473351875516993 -0.0040032187963474491 0.0075967065639819505 -0.027181217910191947
decision_type=2 2 2 2 2 2 2 2 2 2 2 2 2 2 2 2 2 2 2 2 2 2 2 2 2 2 2 2 2 2
left_child=2 3 15 17 8 11 16 12 23 -5 19 -6 27 26 -12 -1 -7 20 -19 28 -2 -20 -10 -4 -22 -15 -11 -3 -9 -13
right_child=1 7 4 9 5 6 -8 10 22 13 14 29 -14 25 -16 -17 -18 18 21 -21 24 -23 -24 -25 -26 -27 -28 -29 -30 -31
leaf_value=-0.00020377930486574771 0.00014744922809768469 1.5406020247610288e-05 -5.5400084238499407e-05 -2.1387108427006753e-05 -0.00012405419418978138 -0.00017540368135087194 -5.6738726561889054e-05 6.0891297956307735e-05 -5.5505472118966283e-06 8.6116255261003971e-05 5.0525333790574223e-05 -3.3307966077700257e-05 -5.5174157023429873e-05 3.8928809226490563e-05 -5.689738009095891e-06 -0.00026695933192968371 -0.00022865098435431719 0.00011301305990114256 0.00018215281888842583 9.3163072597235449e-05 0.00018494920223020018 0.00013288466725498439 3.767818561755121e-05 -8.8472836336658052e-05 0.0001447348389774561 7.4924149030689593e-05 0.00012441340771217186 -1.0842412302736193e-05 3.3436217927373944e-05 -6.3854807901174524e-05
leaf_weight=90 120 60 30 26 43 60 30 90 30 21 60 30 60 30 60 30 60 81 30 60 72 30 30 163 21 43 52 60 30 43
leaf_count=90 120 60 30 26 43 60 30 90 30 21 60 30 60 30 60 30 60 81 30 60 72 30 30 163 21 43 52 60 30 43
internal_value=1.30481e-14 7.60367e-05 -0.000119707 0.00012313 -9.66166e-05 -0.000131672 -0.00017297 2.44304e-05 -5.97599e-05 7.04156e-05 4.92107e-05 -7.82701e-05 -1.68702e-05 8.6764e-05 2.24178e-05 -0.000219574 -0.000202027 0.000148743 0.000131952 6.70727e-05 0.000159858 0.000157519 1.60638e-05 -8.3332e-05 0.000175869 6.01315e-05 0.000113396 2.2818e-06 5.40275e-05 -5.13013e-05
internal_weight=1645 1006 639 526 519 266 150 480 253 172 300 116 180 146 120 120 120 354 141 180 213 60 60 193 93 73 73 120 120 73
internal_count=1645 1006 639 526 519 266 150 480 253 172 300 116 180 146 120 120 120 354 141 180 213 60 60 193 93 73 73 120 120 73
is_linear=0
shrinkage=0.05


Tree=25
num_leaves=31
num_cat=0
split_feature=7 13 10 10 0 10 0 8 0 0 6 0 13 5 10 0 0 6 5 9 0 5 7 5 0 8 5 0 0 0
split_gain=0.00540526 0.000875451 0.000531945 0.000345853 0.000310964 0.000212069 0.000271432 0.000113033 9.76475e-05 3.60719e-05 3.43158e-05 3.24227e-05 3.14484e-05 3.11513e-05 2.8611e-05 2.78913e-05 3.35691e-05 2.64448e-05 2.06385e-05 1.913e-05 1.60812e-05 1.54199e-05 1.39798e-05 1.05259e-05 1.01191e-05 7.89601e-06 7.00323e-06 3.94553e-06 3.70397e-06 3.45112e-06
threshold=0.54685326298162384 -0.62192883750136407 25.723055584095402 18.960353767612727 0.0060890578474062504 39.166184476999526 0.0025544119552895505 0.46268667479193887 -0.0091557479743336976 1.0000000180025095e-35 0.0094546766022143517 -0.0011860804375990498 -0.78649392376838356 0.0046188755614056014 30.828791521318909 -0.0036392535374765497 0.0015589889456557502 0.0066506017873913508 0.0057783797440750006 -559076.69793499995 -0.0013486994273826998 0.0056973418742509007 0.48509850290447948 0.0071480024045094508 0.0065972975720116006 0.37286552212996465 0.0070919673694813511 -0.0030722710352985498 -0.011066569572725898 -0.0019652427413076995
decision_type=2 2 2 2 2 2 2 2 2 2 2 2 2 2 2 2 2 2 2 2 2 2 2 2 2 2 2 2 2 2
left_child=2 3 11 15 5 6 13 25 17 19 18 29 27 -4 -14 21 23 -5 20 -7 -9 -2 -11 -17 -6 -3 -23 -10 -19 -1
right_child=1 7 4 8 24 9 -8 10 12 22 -12 -13 14 -15 -16 16 -18 28 -20 -21 -22 26 -24 -25 -26 -27 -28 -29 -30 -31
leaf_value=-0.00018666702671907843 0.00014788304688408973 -2.7561080466067893e-05 -0.00014780163764953615 -1.3306940672919154e-05 3.5794277209788561e-05 -4.6058145623343691e-05 -6.9653939803398845e-05 -6.0347146245476327e-06 0.00010924034286290407 -0.00010801895838339143 6.4336167253164011e-05 -0.00025361136067658663 6.9823817006851494e-05 -0.00020663408019269507 0.0001304005621932447 0.00017492040163179972 0.0001086696400307119 5.6610495084896685e-05 5.3704367019236088e-05 -8.2506370381452151e-05 2.3855069593992086e-05 0.00012406529082606237 -6.8378372816368937e-05 0.00014122854918241501 -5.2730199968209497e-06 -5.7861911333274355e-05 9.5785420853644609e-05 0.00013749810168519616 3.1764409504830839e-05 -0.00020743694622069598
leaf_weight=60 60 43 30 30 30 90 73 90 30 86 43 30 171 90 22 102 30 30 30 60 90 81 30 30 30 43 30 21 30 30
leaf_count=60 60 43 30 30 30 90 73 90 30 86 43 30 171 90 22 102 30 30 30 60 90 81 30 30 30 43 30 21 30 30
internal_value=3.49755e-13 7.22349e-05 -0.000113722 0.000105487 -9.17858e-05 -0.000105779 -0.000145678 6.80894e-06 6.95371e-05 -7.68293e-05 2.3642e-05 -0.000208596 8.59564e-05 -0.000191926 7.67289e-05 0.000141546 0.000156413 2.50227e-05 1.53093e-05 -6.06374e-05 8.91018e-06 0.000127461 -9.77671e-05 0.000167263 1.52606e-05 -4.27115e-05 0.000116422 0.000120876 4.41875e-05 -0.00019359
internal_weight=1645 1006 639 667 519 459 193 339 334 266 253 120 244 120 193 333 162 90 210 150 180 171 116 132 60 86 111 51 60 90
internal_count=1645 1006 639 667 519 459 193 339 334 266 253 120 244 120 193 333 162 90 210 150 180 171 116 132 60 86 111 51 60 90
is_linear=0
shrinkage=0.05


Tree=26
num_leaves=31
num_cat=0
split_feature=7 1 10 8 0 0 7 7 0 8 0 1 0 1 0 1 0 1 5 10 0 1 0 7 0 0 0 0 5 0
split_gain=0.00487825 0.00079706 0.00048008 0.000331274 0.000280645 0.000194869 0.000163258 0.000143985 8.5781e-05 5.44658e-05 4.32675e-05 4.05309e-05 2.92615e-05 2.81075e-05 3.52283e-05 2.63951e-05 2.3338e-05 1.77827e-05 1.34227e-05 1.02032e-05 9.13252e-06 8.66844e-06 7.25331e-06 5.79188e-06 5.03492e-06 3.34283e-06 3.20269e-06 3.11463e-06 1.62467e-06 1.43032e-06
threshold=0.54685326298162384 -0.0091776035789242483 25.723055584095402 0.56630699443335886 0.0060890578474062504 -0.0028355604536896496 0.7307053264035851 0.50675357375845309 0.0054699711770441013 1.9550912541098542 0.0083192319646373022 -0.015343941147350899 -0.0011860804375990498 -0.014368533954472448 -0.0036392535374765497 -0.0020813621612574998 0.0035995701375608007 -0.0078973048064577989 0.0056973418742509007 20.177393142312841 0.0065972975720116006 -0.013308888643256097 -0.0039605010214170998 1.0103516981396228 0.0015589889456557502 -0.011066569572725898 -0.0024334063799262497 -0.0019652427413076995 0.0050199667563941008 -0.0075994359345684494
decision_type=2 2 2 2 2 2 2 2 2 2 2 2 2 2 2 2 2 2 2 2 2 2 2 2 2 2 2 2 2 2
left_child=2 3 12 16 5 -4 10 11 -9 17 22 -7 27 14 18 25 -2 -8 -5 -16 -6 26 -3 -19 -23 -11 -15 -1 -24 -17
right_child=1 6 4 13 20 7 9 8 -10 15 -12 -13 -14 21 19 29 -18 23 -20 -21 -22 24 28 -25 -26 -27 -28 -29 -30 -31
leaf_value=-0.00017733367858454587 3.8531642348971222e-05 -1.95693937712349e-05 -0.0002236877800896764 0.0001482954015955329 3.4004563349299137e-05 -9.9007951009065601e-05 9.7157113486900926e-05 -0.00018260967917740347 -7.905958918854595e-05 5.3779972949996592e-05 -5.0279876450076703e-05 -6.3399052929266216e-05 -0.00024093079846352339 0.00010377832222729921 0.00015890000345693394 -1.2641593639273197e-05 -1.8182178610004485e-05 4.6965460448215412e-05 0.0001106009793442649 0.00012818390250151211 -5.0093687605112793e-06 0.0001289585202287596 1.8319913942832502e-05 6.7020722781307995e-05 0.000103236164432019 3.0176187283359469e-05 7.8319251770153642e-05 -0.00019706510938704015 4.0691496224098957e-06 2.7981743187410759e-06
leaf_weight=60 60 30 30 30 30 129 30 60 30 30 60 210 30 30 132 30 26 90 111 34 30 52 30 60 30 30 21 30 60 30
leaf_count=60 60 30 30 30 30 129 30 60 30 30 60 210 30 30 132 30 26 90 111 34 30 52 30 60 30 30 21 30 60 30
internal_value=-3.46603e-13 6.86231e-05 -0.000108036 0.000111138 -8.71965e-05 -0.00010049 2.20335e-05 -9.18746e-05 -0.000148093 4.46208e-05 -1.56118e-05 -7.69493e-05 -0.000198166 0.000128681 0.000136999 1.85282e-05 2.13856e-05 6.20158e-05 0.000118621 0.000152609 1.44976e-05 0.000109481 1.7222e-06 5.49876e-05 0.000119548 4.19781e-05 9.32952e-05 -0.000183911 8.8194e-06 -4.92171e-06
internal_weight=1645 1006 639 526 519 459 480 429 90 300 180 339 120 440 307 120 86 180 141 166 60 133 120 150 82 60 51 90 90 60
internal_count=1645 1006 639 526 519 459 480 429 90 300 180 339 120 440 307 120 86 180 141 166 60 133 120 150 82 60 51 90 90 60
is_linear=0
shrinkage=0.05


Tree=27
num_leaves=30
num_cat=0
split_feature=7 13 10 10 0 0 3 0 0 0 9 9 3 7 0 0 0 0 5 2 5 5 0 5 3 0 0 0 0
split_gain=0.00440262 0.000713946 0.000433272 0.000281667 0.000253282 0.00017587 0.000151026 9.67487e-05 8.46389e-05 7.96912e-05 5.04765e-05 3.80927e-05 3.46749e-05 3.41828e-05 2.64085e-05 2.53341e-05 2.26609e-05 2.73422e-05 1.2751e-05 1.07133e-05 1.06274e-05 9.49959e-06 8.2421e-06 7.67251e-06 6.21149e-06 2.81096e-06 7.78684e-07 1.20593e-07 1.02607e-08
threshold=0.54685326298162384 -0.62192883750136407 25.723055584095402 18.960353767612727 0.0060890578474062504 -0.0028355604536896496 -0.026806949240610146 0.0043615465826864512 0.0083192319646373022 -0.0041764287475157995 -52964712.076135106 -7568.4122525000021 -0.031297145444406142 1.1145267846134042 -0.0011860804375990498 0.004656263828338651 -0.0036392535374765497 0.0015589889456557502 0.0070919673694813511 0.020436395031689553 0.0064790690883837505 0.0071480024045094508 0.0065972975720116006 0.0066746072725925006 -0.06081325559413809 -0.0019652427413076995 -0.00080855106979714996 -0.0044385424890815992 0.0093788507389773509
decision_type=2 2 2 2 2 2 2 2 2 2 2 2 2 2 2 2 2 2 2 2 2 2 2 2 2 2 2 2 2
left_child=2 3 14 16 5 -4 12 -8 10 13 -3 20 -7 23 25 19 18 21 24 -12 -11 -18 -6 -5 -2 27 -13 -1 -10
right_child=1 8 4 9 22 6 7 -9 28 11 15 26 -14 -15 -16 -17 17 -19 -20 -21 -22 -23 -24 -25 -26 -27 -28 -29 -30
leaf_value=-0.00016622541006654503 0.00013355754199437798 -3.2129218980540024e-05 -0.00021250338759273293 3.5019259667024019e-05 3.2304335036315024e-05 -7.8108816006086708e-05 -0.00016080650966614486 -5.712500424124301e-05 -4.8419740051031115e-05 8.9989247714617748e-05 1.6397547733504327e-05 4.6427943743765354e-05 -3.8677646080031992e-05 -1.2009513739030808e-05 -0.00022888425737619401 7.3329801671206959e-05 0.00015822938054471333 9.8074355628341442e-05 8.5466104792430997e-05 4.8670877004042271e-05 0.00012074444729964747 0.00012622211361303925 -4.7589004680048678e-06 6.0305139049887659e-05 0.00011233197680364054 -0.00018721185624599458 5.7820073561742905e-05 -0.00017070857575163245 -4.711202345788479e-05
leaf_weight=30 60 43 30 60 30 236 90 30 30 81 180 30 73 30 30 26 102 30 30 30 43 30 30 60 81 30 30 30 30
leaf_count=30 60 43 30 60 30 236 90 30 30 81 180 30 73 30 30 26 102 30 30 30 43 30 30 60 81 30 30 30 30
internal_value=7.16538e-14 6.5192e-05 -0.000102634 9.5221e-05 -8.28367e-05 -9.54653e-05 -8.72809e-05 -0.000134886 6.10841e-06 6.27777e-05 1.76943e-05 8.48292e-05 -6.87934e-05 3.57279e-05 -0.000188258 2.67723e-05 0.000127762 0.000141162 0.000115066 2.1008e-05 0.000100654 0.000150955 1.37727e-05 4.76622e-05 0.000121364 -0.000174715 5.2124e-05 -0.000168467 -4.77659e-05
internal_weight=1645 1006 639 667 519 459 429 120 339 334 279 184 309 150 120 236 333 162 171 210 124 132 60 120 141 90 60 60 60
internal_count=1645 1006 639 667 519 459 429 120 339 334 279 184 309 150 120 236 333 162 171 210 124 132 60 120 141 90 60 60 60
is_linear=0
shrinkage=0.05


Tree=28
num_leaves=31
num_cat=0
split_feature=7 1 10 0 10 0 3 7 0 6 1 0 3 0 0 0 0 0 13 5 0 0 3 2 3 0 5 0 0 0
split_gain=0.00397337 0.000649784 0.000391028 0.000228587 0.000188513 0.000158722 0.000136301 0.000133516 8.73157e-05 6.20413e-05 3.74743e-05 3.50444e-05 3.12941e-05 2.6362e-05 2.38337e-05 2.04442e-05 1.86458e-05 2.19494e-05 1.81118e-05 1.15078e-05 9.49564e-06 7.4385e-06 6.04344e-06 5.94007e-06 5.60587e-06 5.43463e-06 4.40393e-06 2.72105e-06 2.53689e-06 1.52043e-06
threshold=0.54685326298162384 -0.0091776035789242483 25.723055584095402 0.0060890578474062504 23.270911054388481 -0.0028355604536896496 -0.026806949240610146 0.7307053264035851 0.0043615465826864512 0.0071427415343444508 -0.0020813621612574998 0.0083192319646373022 -0.031297145444406142 -0.0056037909273994992 -0.0011860804375990498 0.004656263828338651 -0.0036392535374765497 0.0015589889456557502 -0.69043509040387618 0.0070919673694813511 0.0010474508147223002 0.0065972975720116006 -0.06405582917929524 -0.0051473351875516993 -0.06081325559413809 -0.0013486994273826998 0.0058086533192371007 -0.00047970463249884997 -0.0019652427413076995 -0.0022968283032751995
decision_type=2 2 2 2 2 2 2 2 2 2 2 2 2 2 2 2 2 2 2 2 2 2 2 2 2 2 2 2 2 2
left_child=2 4 14 5 16 -4 12 11 -8 23 18 25 -7 -12 28 20 19 22 26 24 -11 -5 -18 -6 -2 -3 -9 -20 -1 -25
right_child=1 7 3 21 9 6 8 10 -10 15 13 -13 -14 -15 -16 -17 17 -19 27 -21 -22 -23 -24 29 -26 -27 -28 -29 -30 -31
leaf_value=-0.00016004364588297906 0.00012687966809608043 -9.217757678925409e-06 -0.00020187820773571731 3.0689119012095037e-05 6.9903826806694275e-05 -7.4203375586845243e-05 -0.0001527661884513994 2.6916415663436055e-05 -5.4268754320219165e-05 3.9620179450139403e-05 -4.7853250180196483e-06 -4.5377587957773359e-05 -3.674376348499209e-05 4.2085100722033532e-05 -0.00021744004916399718 6.9663311296608296e-05 0.00012940419837832452 9.3170633772388103e-05 6.6504051210358747e-05 8.1192801008000981e-05 2.9681012207685517e-06 -4.5209555537439884e-06 0.00014931318022448709 9.4089942285791048e-05 0.00010671537990371387 1.2063361282343976e-05 4.9037109905232991e-05 8.7799795437604189e-05 -0.00017785126110538842 0.00011139537673443556
leaf_weight=60 60 60 30 30 21 236 90 30 30 30 60 60 73 60 30 26 72 30 30 30 43 30 81 30 81 60 90 30 30 22
leaf_count=60 60 60 30 30 21 236 90 30 30 30 60 60 73 60 30 26 72 30 30 30 43 30 81 30 81 60 90 30 30 22
internal_value=2.56207e-13 6.19324e-05 -9.75023e-05 -7.86948e-05 0.000100319 -9.06921e-05 -8.29168e-05 1.98667e-05 -0.000128142 5.73771e-05 4.02931e-05 -1.41773e-05 -6.53537e-05 1.86499e-05 -0.000178845 3.15907e-05 0.000121184 0.000132276 5.47219e-05 0.000109313 1.80306e-05 1.30841e-05 0.000139944 9.23476e-05 0.000115296 1.4228e-06 4.35069e-05 7.71519e-05 -0.00016598 0.000101411
internal_weight=1645 1006 639 519 526 459 429 480 120 172 300 180 309 120 120 99 354 183 180 171 73 60 153 73 141 120 120 60 90 52
internal_count=1645 1006 639 519 526 459 429 480 120 172 300 180 309 120 120 99 354 183 180 171 73 60 153 73 141 120 120 60 90 52
is_linear=0
shrinkage=0.05


Tree=29
num_leaves=31
num_cat=0
split_feature=7 1 10 8 0 0 3 7 0 8 0 6 0 1 0 0 1 1 3 10 0 1 0 2 0 0 0 0 3 0
split_gain=0.00358596 0.00058643 0.000352903 0.000246916 0.0002063 0.000143247 0.000123011 0.000120498 7.88024e-05 4.14155e-05 3.16276e-05 3.04537e-05 2.15099e-05 2.15048e-05 2.62684e-05 2.14519e-05 1.93378e-05 1.29278e-05 1.03077e-05 6.76464e-06 6.71324e-06 6.23757e-06 5.11239e-06 4.30441e-06 3.54227e-06 2.60862e-06 2.4128e-06 2.28954e-06 1.35329e-06 1.05297e-06
threshold=0.54685326298162384 -0.0091776035789242483 25.723055584095402 0.56630699443335886 0.0060890578474062504 -0.0028355604536896496 -0.026806949240610146 0.7307053264035851 0.0043615465826864512 1.9550912541098542 0.0083192319646373022 0.011639787850372101 -0.0011860804375990498 -0.014368533954472448 -0.0036392535374765497 0.0035995701375608007 -0.0020813621612574998 -0.0078973048064577989 -0.072140291311528229 20.177393142312841 0.0065972975720116006 -0.013308888643256097 -0.0039605010214170998 0.0077323254073608507 0.0015589889456557502 -0.0024334063799262497 -0.011066569572725898 -0.0019652427413076995 -0.039934698615967747 -0.0075994359345684494
decision_type=2 2 2 2 2 2 2 2 2 2 2 2 2 2 2 2 2 2 2 2 2 2 2 2 2 2 2 2 2 2
left_child=2 3 12 15 5 -4 11 10 -8 17 22 -7 27 14 18 -2 26 -9 -5 -16 -6 25 -3 -19 -23 -15 -11 -1 -24 -18
right_child=1 7 4 13 20 6 8 9 -10 16 -12 -13 -14 21 19 -17 29 23 -20 -21 -22 24 28 -25 -26 -27 -28 -29 -30 -31
leaf_value=-0.00015204146038740876 3.4254933416377754e-05 -1.6523574595339598e-05 -0.0001917843008413911 0.00012785877333953977 2.9154663207009437e-05 -5.5774919911028643e-05 -0.00014512787650649745 8.3409802755340934e-05 -5.1555316895246511e-05 4.5623860205523674e-05 -4.3108708632644271e-05 -0.00010112669687111711 -0.0002065680455416441 8.9385447790846231e-05 0.00013632620102725925 -2.0118868269491942e-05 -1.1169772187713534e-05 5.7828027638606731e-05 9.4826513511204238e-05 0.00011131583802018535 -4.2949075577780603e-06 0.00011008733462613936 1.5980872558429837e-05 4.0538793352122113e-05 8.8512100046500566e-05 6.6408631391823297e-05 2.557059342507273e-05 -0.00016895869048312307 2.9746745440206723e-06 2.0776546080014668e-06
leaf_weight=60 60 30 30 30 30 266 90 30 30 30 60 43 30 30 132 26 30 60 111 34 30 52 30 90 30 21 30 30 60 30
leaf_count=60 60 30 30 30 30 266 90 30 30 30 60 43 30 30 132 26 30 60 111 34 30 52 30 90 30 21 30 30 60 30
internal_value=4.6011e-13 5.88358e-05 -9.26272e-05 9.53033e-05 -7.47601e-05 -8.61575e-05 -7.8771e-05 1.88734e-05 -0.000121735 3.82785e-05 -1.34685e-05 -6.2086e-05 -0.000169902 0.000110449 0.000117724 1.78163e-05 1.55256e-05 5.3447e-05 0.000101855 0.000131204 1.24299e-05 9.36545e-05 1.35166e-06 4.74545e-05 0.000102194 7.99244e-05 3.55972e-05 -0.000157681 7.31007e-06 -4.54606e-06
internal_weight=1645 1006 639 526 519 459 429 480 120 300 180 309 120 440 307 86 120 180 141 166 60 133 120 150 82 51 60 90 90 60
internal_count=1645 1006 639 526 519 459 429 480 120 300 180 309 120 440 307 86 120 180 141 166 60 133 120 150 82 51 60 90 90 60
is_linear=0
shrinkage=0.05


Tree=30
num_leaves=31
num_cat=0
split_feature=7 10 10 5 10 8 8 8 2 8 7 3 7 2 2 3 2 6 9 8 7 5 6 2 2 8 2 5 2 2
split_gain=0.00323633 0.000508348 0.000318495 0.000177588 0.000203128 0.000131894 9.21839e-05 7.27647e-05 6.81416e-05 4.8247e-05 3.34707e-05 3.32559e-05 2.82964e-05 2.80748e-05 2.14822e-05 1.94127e-05 1.93893e-05 1.70407e-05 1.52437e-05 1.83524e-05 1.42348e-05 1.21867e-05 9.45e-06 7.82908e-06 6.0587e-06 5.87541e-06 5.27598e-06 2.06631e-06 1.83088e-06 1.08835e-07
threshold=0.54685326298162384 20.820525549451094 25.723055584095402 0.0042777611798016507 39.166184476999526 0.53191043004755512 0.57472658153460798 1.7573635761785023 -0.014400688891271798 2.6891331215464223 0.77616381179870431 -0.027181217910191947 0.45325673232959413 1.0000000180025095e-35 -0.035852111293599991 -0.027479782591102699 -0.00045174484029319995 0.0094546766022143517 -93002.432864000017 2.1177121558885532 0.47297856842888547 0.0065186495587935501 0.0075967065639819505 -0.057778590658261249 -0.033025758048475941 0.37286552212996465 -0.00352852120037095 0.0032539237709999004 0.019427852591607352 -0.030728613891327347
decision_type=2 2 2 2 2 2 2 2 2 2 2 2 2 2 2 2 2 2 2 2 2 2 2 2 2 2 2 2 2 2
left_child=2 6 15 11 8 25 16 10 14 18 17 24 23 -12 -5 27 26 -7 21 -20 -14 -8 28 -6 -4 -3 -2 -1 -9 -29
right_child=1 5 3 4 12 7 9 22 -10 -11 13 -13 20 -15 -16 -17 -18 -19 19 -21 -22 -23 -24 -25 -26 -27 -28 29 -30 -31
leaf_value=-0.00016051075654104354 4.9585808301344518e-05 -2.1281455701682717e-05 -4.0801623981678858e-06 -0.0001277971314266324 -7.3000587872229519e-05 1.3859434936118002e-05 0.00011139229543253103 -1.3154340194887482e-05 -6.4702250529080627e-05 4.3342667049728339e-05 8.3279519019750504e-05 -4.5803673754901041e-05 -2.8181379457237201e-05 4.3955751607427374e-05 -0.00017010763986036181 -0.00019623963162302972 1.5181828348431737e-05 5.2122878002782552e-05 9.1093776628692105e-05 0.00013416071888059378 -5.8008843188872562e-05 0.00014017071739277418 2.4292065063491464e-05 -0.00010584883857518436 2.7696930919773878e-05 -4.7419299940080491e-05 7.9239311162382364e-05 -0.00014230988454073669 1.9737717593670823e-06 -0.00014656889252364638
leaf_weight=30 30 43 30 60 60 90 132 60 30 30 73 43 60 120 60 30 30 43 141 30 120 51 30 26 30 43 30 30 30 30
leaf_count=30 30 43 30 60 60 90 132 60 30 30 73 43 60 120 60 30 30 43 141 30 120 51 30 26 30 43 30 30 30 30
internal_value=-2.4924e-13 5.5894e-05 -8.79958e-05 -7.10221e-05 -8.55755e-05 2.23446e-05 9.35486e-05 3.32768e-05 -0.000132102 0.000104223 4.55298e-05 -1.22433e-05 -5.93385e-05 5.88295e-05 -0.000148952 -0.000161407 4.80023e-05 2.62303e-05 0.000109383 9.86494e-05 -4.80664e-05 0.000119413 -1.07109e-08 -8.29315e-05 1.18084e-05 -3.43504e-05 6.44126e-05 -0.000149797 -8.11164e-06 -0.000144439
internal_weight=1645 1006 639 519 416 532 474 446 150 384 326 103 266 193 120 120 90 133 354 171 180 183 120 86 60 86 60 90 90 60
internal_count=1645 1006 639 519 416 532 474 446 150 384 326 103 266 193 120 120 90 133 354 171 180 183 120 86 60 86 60 90 90 60
is_linear=0
shrinkage=0.05


end of trees

feature_importances:
returns_1h=261
returns_6h=152
momentum_5d=97
rsi=67
volatility_6h=66
returns_24h=63
volume_ratio=56
volatility_ratio=50
volatility_24h=42
bb_position=41
obv=18
macd_signal=10
macd=6

parameters:
[boosting: gbdt]
[objective: regression]
[metric: l2]
[tree_learner: serial]
[device_type: cpu]
[data_sample_strategy: bagging]
[data: ]
[valid: ]
[num_iterations: 200]
[learning_rate: 0.05]
[num_leaves: 31]
[num_threads: 1]
[seed: 42]
[deterministic: 0]
[force_col_wise: 0]
[force_row_wise: 0]
[histogram_pool_size: -1]
[max_depth: 6]
[min_data_in_leaf: 20]
[min_sum_hessian_in_leaf: 0.001]
[bagging_fraction: 0.8]
[pos_bagging_fraction: 1]
[neg_bagging_fraction: 1]
[bagging_freq: 0]
[bagging_seed: 400]
[bagging_by_query: 0]
[feature_fraction: 0.8]
[feature_fraction_bynode: 1]
[feature_fraction_seed: 30056]
[extra_trees: 0]
[extra_seed: 12879]
[early_stopping_round: 0]
[early_stopping_min_delta: 0]
[first_metric_only: 0]
[max_delta_step: 0]
[lambda_l1: 0]
[lambda_l2: 0]
[linear_lambda: 0]
[min_gain_to_split: 0]
[drop_rate: 0.1]
[max_drop: 50]
[skip_drop: 0.5]
[xgboost_dart_mode: 0]
[uniform_drop: 0]
[drop_seed: 17869]
[top_rate: 0.2]
[other_rate: 0.1]
[min_data_per_group: 100]
[max_cat_threshold: 32]
[cat_l2: 10]
[cat_smooth: 10]
[max_cat_to_onehot: 4]
[top_k: 20]
[monotone_constraints: ]
[monotone_constraints_method: basic]
[monotone_penalty: 0]
[feature_contri: ]
[forcedsplits_filename: ]
[refit_decay_rate: 0.9]
[cegb_tradeoff: 1]
[cegb_penalty_split: 0]
[cegb_penalty_feature_lazy: ]
[cegb_penalty_feature_coupled: ]
[path_smooth: 0]
[interaction_constraints: ]
[verbosity: -1]
[saved_feature_importance_type: 0]
[use_quantized_grad: 0]
[num_grad_quant_bins: 4]
[quant_train_renew_leaf: 0]
[stochastic_rounding: 1]
[linear_tree: 0]
[max_bin: 255]
[max_bin_by_feature: ]
[min_data_in_bin: 3]
[bin_construct_sample_cnt: 200000]
[data_random_seed: 175]
[is_enable_sparse: 1]
[enable_bundle: 1]
[use_missing: 1]
[zero_as_missing: 0]
[feature_pre_filter: 1]
[pre_partition: 0]
[two_round: 0]
[header: 0]
[label_column: ]
[weight_column: ]
[group_column: ]
[ignore_column: ]
[categorical_feature: ]
[forcedbins_filename: ]
[precise_float_parser: 0]
[parser_config_file: ]
[objective_seed: 16083]
[num_class: 1]
[is_unbalance: 0]
[scale_pos_weight: 1]
[sigmoid: 1]
[boost_from_average: 1]
[reg_sqrt: 0]
[alpha: 0.9]
[fair_c: 1]
[poisson_max_delta_step: 0.7]
[tweedie_variance_power: 1.5]
[lambdarank_truncation_level: 30]
[lambdarank_norm: 1]
[label_gain: ]
[lambdarank_position_bias_regularization: 0]
[eval_at: ]
[multi_error_top_k: 1]
[auc_mu_weights: ]
[num_machines: 1]
[local_listen_port: 12400]
[time_out: 120]
[machine_list_filename: ]
[machines: ]
[gpu_platform_id: -1]
[gpu_device_id: -1]
[gpu_use_dp: 0]
[num_gpu: 1]

end of parameters

pandas_categorical:[]
