tree
version=v4
num_class=1
num_tree_per_iteration=1
label_index=0
max_feature_idx=14
objective=regression
feature_names=returns_1h returns_6h returns_24h momentum_5d momentum_20d volatility_6h volatility_24h volatility_ratio volume_ratio obv rsi macd macd_signal bb_position price_position
feature_infos=[-0.0145885754055355:0.0100620493040415] [-0.0301580698835274:0.0097939885173926999] [-0.063651591289782095:0.0209171359613835] [-0.073924050632911395:-0.00082946250829459998] none [0.0021252421661412:0.0071511509792581999] [0.0052460504526583001:0.0117617807832114] [0.21263239966093869:1.1561684178924745] [0.2377191907499539:2.7167041709440376] [-215205274.46923321:-722.24404718000665] [15.191740412979229:48.514851485148462] [-737.93017439475079:-0.00054809781749879998] [-624.15101149742827:-0.00035811543063439999] [-0.9107630900008884:0.094021578712230006] none
tree_sizes=2950 3031 3034 3054 3036 3055 3037 3051 3044 3055 3045 2937 2854 3042 3044 3052 3050 3036 3044 3046 3044 3044 3057 3041 3051 2948 2945 3043 3046 2862 2849 3042 3053 3050 3054 3044 3050 3055 2856 3044 3038 3036 3041 3049 3059 3037 3044 3048 2957 2858 3031 3043 3043 2826 2927 3036 3038 3048 3033 3037 3046 3045 3050 3047 3046 3047 3043 3040 2864 3051 3052 3053 3027 3038 3050 3067 3054 3043 2666 3058 3063 3046 3048 3033 3056 2941 3037 3053 3049 3043 2757 2866 3046 3053 3027 3037 2764 3048 2951 3051 2860 2858 3044 2955 2958 3057 2863 2763 3059 3058 2766 3057 3066 2479 3054 3067 2858 3056 3054 2866 2480 1936 3047 2299 2019 2206 1833 1920 2210 1925 1925 1929 1917 1924 2029 2305 2035 2118 2031 2288 1926 2214 2119 2135 2126 1737 1938 2409 1832 2020 1925 2126 2038 1831 2123 1835 2327 2034 2309 2033 1849 2325 1935 2328 2112 2408 1920 1657 1938 2384 2029 2209 1656 1651 1557 2404 2483 1942 2213 1845 2311 2410 2219 1934 1942 1648 2398 1828 2040 1750 1931 2215 2121 1550 1746 1661 2123 2132 1574

Tree=0
num_leaves=31
num_cat=0
split_feature=7 13 13 1 5 1 1 8 8 1 1 2 1 3 3 13 3 12 3 3 13 1 1 1 6 1 1 1 3 1
split_gain=0.0620667 0.00962537 0.00603138 0.00441502 0.00305192 0.00253069 0.00176565 0.00139794 0.00107326 0.00153993 0.000917427 0.000638333 0.000471091 0.000414633 0.000406498 0.000394566 0.000382742 0.000334237 0.000234236 0.000226503 0.000183782 0.000127272 0.000104828 9.50179e-05 8.21208e-05 6.72243e-05 5.11603e-05 3.46897e-05 2.44284e-05 1.76758e-05
threshold=0.54685326298162384 -0.62192883750136407 -0.47379514982674564 -0.011566540522699948 0.0042777611798016507 -0.012930543198402148 -0.0020152262359882998 0.46268667479193887 0.30777182954804666 -0.0039385590985523489 -0.0020813621612574998 -0.027161163881830448 -0.0027245060146296497 -0.026806949240610146 -0.031297145444406142 -0.69043509040387618 -0.038782752615185392 -3.1598369458166347 -0.050717537274098994 -0.058225569697308494 -0.76975126202334498 -0.0047990408924723496 0.0059272173857267008 0.0051885512758009008 0.0064917249973333513 -0.0091776035789242483 -0.0015964735684347998 -0.0042147377244153494 -0.013210457631607499 -0.014368533954472448
decision_type=2 2 2 2 2 2 2 2 2 2 2 2 2 2 2 2 2 2 2 2 2 2 2 2 2 2 2 2 2 2
left_child=2 3 5 18 11 13 8 22 9 -6 15 23 27 -1 -10 24 26 25 19 20 -2 -17 -3 -4 -5 -18 -9 -7 -19 -20
right_child=1 7 4 10 6 12 -8 16 14 -11 -12 -13 -14 -15 -16 21 17 28 29 -21 -22 -23 -24 -25 -26 -27 -28 -29 -30 -31
leaf_value=-0.011295566353485463 -0.010592525252819255 -0.011082991237912012 -0.01102528234825857 -0.01074672905196029 -0.011283899506655672 -0.011694224524723826 -0.011750936171141603 -0.010989607895884348 -0.01133868975875567 -0.011790511513230541 -0.011059721912009792 -0.011244835169621893 -0.011931267555904726 -0.011537763139334658 -0.011187986308344789 -0.010641501553458312 -0.01089117478170354 -0.010784145635524416 -0.010575585894388296 -0.010414735756625106 -0.010482845891752777 -0.010767632641931214 -0.011203188496277819 -0.010899439897024223 -0.010834758289842086 -0.010982842885117663 -0.011069576841531472 -0.011756308412281015 -0.010842933052321115 -0.010628614802777155
leaf_weight=43 63 26 30 34 30 90 30 60 176 30 30 30 30 30 60 60 30 43 30 64 97 30 60 30 120 60 30 30 30 33
leaf_count=43 63 26 30 34 30 90 30 60 176 30 30 30 30 30 60 60 30 43 30 64 97 30 60 30 120 60 30 30 30 33
internal_value=-0.0110499 -0.0107824 -0.0114267 -0.0106552 -0.0113143 -0.0116365 -0.0113854 -0.0109927 -0.0113484 -0.0115372 -0.0107988 -0.0110565 -0.011754 -0.0113951 -0.0113004 -0.0107667 -0.0109335 -0.0108878 -0.0105182 -0.0104942 -0.010526 -0.0106835 -0.0111668 -0.0109624 -0.0108153 -0.0109523 -0.0110163 -0.0117097 -0.0108083 -0.0106034
internal_weight=1539 900 639 561 416 223 326 339 296 60 274 90 150 73 236 244 253 163 287 224 160 90 86 60 154 90 90 120 73 63
internal_count=1539 900 639 561 416 223 326 339 296 60 274 90 150 73 236 244 253 163 287 224 160 90 86 60 154 90 90 120 73 63
is_linear=0
shrinkage=1


Tree=1
num_leaves=31
num_cat=0
split_feature=7 13 13 1 5 1 1 8 8 1 1 2 1 6 13 13 5 12 1 13 13 1 1 1 6 1 1 1 13 1
split_gain=0.0560152 0.0086869 0.00544332 0.00398456 0.00275436 0.00228395 0.0015935 0.00126164 0.000968619 0.00138979 0.000827978 0.000576095 0.00042516 0.000374206 0.000366864 0.000356095 0.000345425 0.000301649 0.000213895 0.000225432 0.000164561 0.000114863 9.46068e-05 8.57537e-05 7.41141e-05 6.067e-05 4.61721e-05 4.40055e-05 3.31804e-05 3.13074e-05
threshold=0.54685326298162384 -0.62192883750136407 -0.47379514982674564 -0.011566540522699948 0.0042777611798016507 -0.012930543198402148 -0.0020152262359882998 0.46268667479193887 0.30777182954804666 -0.0039385590985523489 -0.0020813621612574998 -0.027161163881830448 -0.0027245060146296497 0.0088351841388678524 -0.22836966988874988 -0.69043509040387618 0.0054483703609439016 -3.1598369458166347 -0.017076827582606598 -0.739429567868922 -0.88443434744865035 -0.0047990408924723496 0.0059272173857267008 0.0051885512758009008 0.0064917249973333513 -0.0091776035789242483 -0.0015964735684347998 -0.017700452723838446 -0.79944154537260304 -0.0042147377244153494
decision_type=2 2 2 2 2 2 2 2 2 2 2 2 2 2 2 2 2 2 2 2 2 2 2 2 2 2 2 2 2 2
left_child=2 3 5 18 11 13 8 22 9 -6 15 23 29 -1 -10 24 26 25 20 28 -2 -17 -3 -4 -5 -18 -9 -22 -20 -7
right_child=1 7 4 10 6 12 -8 16 14 -11 -12 -13 -14 -15 -16 21 17 -19 19 -21 27 -23 -24 -25 -26 -27 -28 -29 -30 -31
leaf_value=-0.00046346695162355903 0.0004609042504692779 -3.1433661933988337e-05 2.338978374609724e-05 0.00028801542323301821 -0.0002222965005785227 -0.00061210527395208676 -0.00066598132252693176 5.7280511828139428e-05 -0.00027434724404222586 -0.00070357793010771279 -9.3278016720432792e-06 -0.00018518540309742093 -0.0008372962474822998 -0.00023338001351370371 -0.00013117898488417269 0.00038798153400421143 0.00015079197473824026 0.00022951840799403925 0.00045897261747582393 0.00053786592794332038 0.00061474370304495098 0.00026815701276063921 -0.00014562106225639583 0.00014294011052697896 0.00020438764186110349 6.3707272056490188e-05 -1.868998515419662e-05 0.00054057706147432334 0.0003970828228851869 -0.00067108497023582458
leaf_weight=30 34 26 30 34 30 90 30 60 176 30 30 30 30 43 60 60 30 73 33 67 60 30 60 30 120 60 30 30 63 30
leaf_count=30 34 26 30 34 30 90 30 60 176 30 30 30 30 43 60 60 30 73 33 67 60 30 60 30 120 60 30 30 63 30
internal_value=-6.13658e-13 0.000254175 -0.000357993 0.000374928 -0.000251147 -0.000557311 -0.000318747 5.4344e-05 -0.000283554 -0.000462937 0.00023855 -6.28517e-06 -0.000668939 -0.000327936 -0.000237949 0.000269027 0.000110582 0.000153994 0.000505129 0.000467481 0.000554618 0.00034804 -0.000111099 8.31649e-05 0.000222851 9.27355e-05 3.1957e-05 0.000590021 0.000418357 -0.00062685
internal_weight=1539 900 639 561 416 223 326 339 296 60 274 90 150 73 236 244 253 163 287 163 124 90 86 60 154 90 90 90 96 120
internal_count=1539 900 639 561 416 223 326 339 296 60 274 90 150 73 236 244 253 163 287 163 124 90 86 60 154 90 90 90 96 120
is_linear=0
shrinkage=0.05


Tree=2
num_leaves=31
num_cat=0
split_feature=7 13 13 1 5 1 1 8 8 1 1 2 1 3 3 13 3 1 13 1 13 2 1 1 1 6 1 1 13 1
split_gain=0.0505537 0.00783992 0.0049126 0.00359606 0.00248581 0.00206126 0.00143813 0.00113863 0.000874178 0.00125429 0.00074725 0.000519926 0.000383707 0.000337721 0.000331095 0.000321376 0.000311746 0.00019304 0.000203453 0.000178049 0.000148517 0.000142551 0.000103664 8.53827e-05 7.73927e-05 6.68879e-05 4.38791e-05 3.9715e-05 2.99453e-05 2.8255e-05
threshold=0.54685326298162384 -0.62192883750136407 -0.47379514982674564 -0.011566540522699948 0.0042777611798016507 -0.012930543198402148 -0.0020152262359882998 0.46268667479193887 0.30777182954804666 -0.0039385590985523489 -0.0020813621612574998 -0.027161163881830448 -0.0027245060146296497 -0.026806949240610146 -0.031297145444406142 -0.69043509040387618 -0.038782752615185392 -0.017076827582606598 -0.739429567868922 0.0088684001363770523 -0.88443434744865035 -0.026751804866155349 -0.0047990408924723496 0.0059272173857267008 0.0051885512758009008 0.0064917249973333513 -0.0040032187963474491 -0.017700452723838446 -0.79944154537260304 -0.0042147377244153494
decision_type=2 2 2 2 2 2 2 2 2 2 2 2 2 2 2 2 2 2 2 2 2 2 2 2 2 2 2 2 2 2
left_child=2 3 5 17 11 13 8 23 9 -6 15 24 29 -1 -10 25 26 20 28 21 -2 -18 -17 -3 -4 -5 -9 -22 -19 -7
right_child=1 7 4 10 6 12 -8 16 14 -11 -12 -13 -14 -15 -16 22 19 18 -20 -21 27 -23 -24 -25 -26 -27 -28 -29 -30 -31
leaf_value=-0.00022171100731505907 0.00043785900480168712 -2.9861982329748572e-05 2.2220294340513647e-05 0.0002736146411146311 -0.00021118167787790299 -0.00058150001180668669 -0.0006326822564005852 7.973253377713263e-05 -0.00026062988697297192 -0.00066839903593063354 -8.8614120613783595e-06 -0.00017592612421140076 -0.00079543143510818481 -0.00044029359705746176 -0.00012462002923712136 0.00036858246894553307 0.00011401595256756992 0.00043602399104698136 0.00051097263609851474 3.6264283698983492e-05 0.00058400651905685661 0.00021804249303236808 0.00025474915746599437 -0.00013834000565111638 0.00013579310616478326 0.00019416825962252917 5.6724755268078304e-06 0.00051354821771383292 0.0003772286908878457 -0.00063753072172403338
leaf_weight=43 34 26 30 34 30 90 30 30 176 30 30 30 30 30 60 60 60 33 67 30 60 73 30 60 30 120 60 30 63 30
leaf_count=43 34 26 30 34 30 90 30 30 176 30 30 30 30 30 60 60 60 33 67 30 60 73 30 60 30 120 60 30 63 30
internal_value=-1.38049e-13 0.000241466 -0.000340093 0.000356182 -0.00023859 -0.000529445 -0.00030281 5.16268e-05 -0.000269377 -0.00043979 0.000226623 -5.97091e-06 -0.000635492 -0.000311539 -0.000226051 0.000255576 0.000105053 0.000479873 0.000444107 0.000146294 0.000526887 0.000171113 0.000330638 -0.000105544 7.90067e-05 0.000211708 3.03592e-05 0.00056052 0.00039744 -0.000595508
internal_weight=1539 900 639 561 416 223 326 339 296 60 274 90 150 73 236 244 253 287 163 163 124 133 90 86 60 154 90 90 96 120
internal_count=1539 900 639 561 416 223 326 339 296 60 274 90 150 73 236 244 253 287 163 163 124 133 90 86 60 154 90 90 96 120
is_linear=0
shrinkage=0.05


Tree=3
num_leaves=31
num_cat=0
split_feature=7 13 0 1 1 1 0 8 0 3 1 0 0 3 12 6 5 11 0 0 6 0 0 1 1 0 0 0 13 3
split_gain=0.0456247 0.00707553 0.00454382 0.00324545 0.00308811 0.00240921 0.00105111 0.00102762 0.000844699 0.000835185 0.000674393 0.000366807 0.000292852 0.000281351 0.000245695 0.000236093 0.000135555 0.000118165 0.000116114 7.70578e-05 7.51095e-05 6.98469e-05 6.33308e-05 6.17117e-05 5.22119e-05 3.96009e-05 3.29438e-05 3.26409e-05 2.79572e-05 2.20467e-05
threshold=0.54685326298162384 -0.62192883750136407 -1.0000000180025095e-35 -0.011566540522699948 -0.0054549567215894492 -0.0095557289828367472 -0.0028355604536896496 0.46268667479193887 0.0060890578474062504 -0.026806949240610146 -0.0020813621612574998 -0.00047970463249884997 -0.0036392535374765497 -0.038782752615185392 -3.1598369458166347 0.0093916084153818514 0.0055343889112757011 -17.669989041860045 0.0020886390401929004 0.0083192319646373022 0.0075967065639819505 0.0065972975720116006 0.0043615465826864512 -0.015979603159052096 -0.0091776035789242483 -0.0013486994273826998 -0.0019067212504120497 -0.0032452425051676995 -0.79944154537260304 -0.013210457631607499
decision_type=2 2 2 2 2 2 2 2 2 2 2 2 2 2 2 2 2 2 2 2 2 2 2 2 2 2 2 2 2 2
left_child=2 3 4 12 6 9 -1 19 22 17 11 20 16 25 24 -6 -2 -4 -11 -3 -5 -10 -7 -14 -15 -9 -8 -17 -18 -16
right_child=1 7 5 10 15 8 26 13 21 18 -12 -13 23 14 29 27 28 -19 -20 -21 -22 -23 -24 -25 -26 -27 -28 -29 -30 -31
leaf_value=-0.00054621240124106405 0.00047978556249290706 -2.8368878702167422e-05 -0.00019436033935351082 0.00022188926375676672 -0.00075565981678664689 -0.00011838902719318867 -0.00016168515430763365 5.3888521506451075e-06 0.00012900345027446746 -0.00041827894747257236 -8.4183411672711372e-06 0.00035015334142372015 0.00055236280260776934 0.00013755157124251127 0.00023009163154245812 -0.00055367117747664454 0.00041122489928966391 -0.00029587423548015746 -0.00055739143863320351 -0.00013142300304025412 0.00013541134539991618 2.1109280351083728e-05 -0.00019103589002043009 0.00047169510476492552 5.6764902547001844e-05 7.5745908543467524e-05 -0.00022585664410144091 -0.00061389381686846427 0.00036371742608025674 0.00017424357356503607
leaf_weight=30 60 26 43 154 30 60 30 60 30 30 30 60 66 30 43 30 64 86 30 60 30 30 60 37 60 30 60 90 60 30
leaf_count=30 60 26 43 154 30 60 30 60 30 30 30 60 66 30 43 30 64 86 30 60 30 30 60 37 60 30 60 90 60 30
internal_value=-1.45614e-12 0.000229393 -0.000323089 0.000338373 -0.000478958 -0.000209038 -0.000289903 4.90455e-05 -7.81229e-05 -0.000333718 0.000215292 0.000242797 0.000455879 9.98e-05 0.00013898 -0.000630202 0.00041809 -0.000262036 -0.000487835 -0.000100267 0.00020779 7.50564e-05 -0.000154712 0.000523385 8.36938e-05 2.88412e-05 -0.000204466 -0.000598838 0.000388237 0.00020714
internal_weight=1539 900 639 561 270 369 120 339 180 189 274 244 287 253 163 150 184 129 60 86 184 60 120 103 90 90 90 120 124 73
internal_count=1539 900 639 561 270 369 120 339 180 189 274 244 287 253 163 150 184 129 60 86 184 60 120 103 90 90 90 120 124 73
is_linear=0
shrinkage=0.05


Tree=4
num_leaves=31
num_cat=0
split_feature=7 10 10 0 8 10 0 2 8 13 0 2 3 8 0 0 5 13 6 0 5 0 0 5 0 0 2 0 0 0
split_gain=0.0411763 0.00665837 0.00455085 0.00267693 0.00174129 0.00163296 0.00217234 0.00134809 0.000630817 0.000464245 0.000284923 0.00026221 0.000256783 0.000242368 0.000242111 0.000232335 0.000225167 0.000153289 0.000144868 0.000116733 9.9337e-05 6.95447e-05 6.30368e-05 3.75543e-05 2.20624e-05 1.36839e-05 8.34016e-06 3.45247e-06 3.01254e-07 2.83899e-07
threshold=0.54685326298162384 19.420604127732222 25.723055584095402 0.0060890578474062504 0.51102409188886921 39.166184476999526 0.0025544119552895505 -0.00045174484029319995 1.7573635761785023 -0.71602625066404102 -0.0011860804375990498 -0.043737198045175639 -0.031297145444406142 0.61382018295469198 -0.0036392535374765497 -0.013326444836034098 0.0054483703609439016 -0.38042711967859133 0.0075967065639819505 -0.00080855106979714996 0.0056973418742509007 0.0083192319646373022 0.0065972975720116006 0.0071480024045094508 -0.0019652427413076995 0.0054699711770441013 -0.031551325339075141 0.0015589889456557502 -0.0044385424890815992 0.0093788507389773509
decision_type=2 2 2 2 2 2 2 2 2 2 2 2 2 2 2 2 2 2 2 2 2 2 2 2 2 2 2 2 2 2
left_child=2 7 10 5 21 6 11 13 9 19 24 -4 17 27 20 -10 -11 -7 -17 -6 -15 -3 -5 -16 28 -8 -14 -2 -1 -23
right_child=1 4 3 22 8 12 25 -9 15 16 -12 -13 26 14 23 18 -18 -19 -20 -21 -22 29 -24 -25 -26 -27 -28 -29 -30 -31
leaf_value=-0.00052598761394619944 0.00032065180130302906 -2.6950438041239977e-05 -0.00039736498147249224 0.00012255327310413123 0.00035855944792274387 -0.00019805516988123046 -0.00016139124325195025 7.1958615444600588e-05 0.00018905539764091372 2.8547371039167049e-05 -0.00071787680499255666 -0.00056805323498944447 -9.3828042736276984e-05 0.00045579627621918919 0.00052719879200431835 1.7689497326500714e-06 0.00017445208452591848 -0.00028822710769480631 0.00012864078162238003 0.00022808529902249575 0.00037344954561125093 -0.00012829120969399811 2.0053815387655052e-05 0.0004598875530064106 -0.00057495948858559136 -0.00020539015531539917 -0.00013111111475154759 0.00034463952761143446 -0.00051890178583562378 -0.0001214125077240169
leaf_weight=30 30 26 30 30 40 133 43 30 30 30 30 90 30 60 67 90 223 73 30 30 94 30 30 30 30 30 30 30 30 30
leaf_count=30 30 26 30 30 40 133 43 30 30 30 30 90 30 60 67 90 223 73 30 30 94 30 30 30 30 30 30 30 30 30
internal_value=4.0091e-13 0.000217923 -0.000306934 -0.000242773 0.000111704 -0.000283829 -0.000394545 0.000392048 0.000149332 0.000188682 -0.000584431 -0.000525381 -0.000203497 0.000422925 0.000444506 6.46006e-05 0.000157151 -0.000230009 3.34869e-05 0.000302642 0.000405533 -9.52538e-05 7.13035e-05 0.000506381 -0.00053995 -0.000179473 -0.00011247 0.000332646 -0.000522445 -0.000124852
internal_weight=1539 900 639 519 559 459 193 341 473 323 120 120 266 311 251 150 253 206 120 70 154 86 60 97 90 73 60 60 60 60
internal_count=1539 900 639 519 559 459 193 341 473 323 120 120 266 311 251 150 253 206 120 70 154 86 60 97 90 73 60 60 60 60
is_linear=0
shrinkage=0.05


Tree=5
num_leaves=31
num_cat=0
split_feature=6 0 1 10 13 6 1 3 13 6 0 1 0 6 6 0 5 0 1 0 0 0 0 8 6 0 0 3 0 0
split_gain=0.0355545 0.00658325 0.00491752 0.0033231 0.00260641 0.00111183 0.000871411 0.000855946 0.000595618 0.000716227 0.000391564 0.000270616 0.000238564 0.00022694 0.000193632 0.000150049 0.000110547 9.16951e-05 5.13788e-05 4.9043e-05 3.42696e-05 2.97318e-05 2.4977e-05 2.44424e-05 2.19946e-05 1.73977e-05 1.30324e-05 8.09922e-06 8.09021e-06 3.26785e-06
threshold=0.0081976983130216518 -1.0000000180025095e-35 -0.011566540522699948 39.166184476999526 -0.36670852679825289 0.011639787850372101 -0.0040032187963474491 -0.026806949240610146 -0.22836966988874988 0.0094476346556811013 -0.00047970463249884997 0.0055179735003143002 -0.0036392535374765497 0.0091945870319144526 0.0072727247265862013 -0.0056037909273994992 0.0055343889112757011 0.0020886390401929004 -0.015979603159052096 -0.0032452425051676995 0.0015236675841051501 -0.0019067212504120497 -0.0063133560247083491 0.38952905890790473 0.0064917249973333513 -0.0013486994273826998 -0.0039605010214170998 -0.040409458272684343 -0.0019652427413076995 0.00065365142917655009
decision_type=2 2 2 2 2 2 2 2 2 2 2 2 2 2 2 2 2 2 2 2 2 2 2 2 2 2 2 2 2 2
left_child=2 3 12 13 7 8 10 20 9 -6 14 26 16 -2 24 -13 -1 -9 -14 -15 -3 -5 -18 -10 -4 -16 -8 -22 -21 -17
right_child=1 4 6 21 5 -7 11 17 23 -11 -12 15 18 19 25 29 22 -19 -20 28 27 -23 -24 -25 -26 -27 -28 -29 -30 -31
leaf_value=0.00043300648685544734 -0.00068198298104107382 -0.00025270250625908375 0.00023666770635720564 -0.00014369813725352288 -0.00013422993943095209 -0.0002885459240006153 -1.3241435590316542e-05 -0.00037749672774225476 -6.6030201661876993e-05 0.00010051248869526067 0.00031601338414475325 3.1524378573521976e-05 0.00049876798875629906 -0.00049632245209068064 0.00012220874195918442 0.0001801463426090777 0.00037350944476202132 -0.00050111920572817328 0.00042516292777617233 -0.00057588173076510434 -0.00020598204600689717 -0.00020466105779632927 0.0003286054423369933 -0.00011185628051559131 0.00019111033179797232 6.836068350821734e-05 2.7120002778247001e-05 -0.00017529378217363427 -0.00054408116266131408 0.00015680879587307573
leaf_weight=60 30 30 34 30 43 43 60 30 43 133 60 30 66 60 30 30 60 30 37 30 43 60 64 90 120 30 30 43 60 30
leaf_count=60 30 30 34 30 43 43 60 30 43 133 60 30 66 60 30 30 60 30 37 30 43 60 64 90 120 30 30 43 60 30
internal_value=1.44195e-12 -0.000231582 0.000249396 -0.00043241 -0.000128886 -5.0334e-05 0.000146985 -0.000285991 -1.71848e-05 4.31606e-05 0.000203131 6.15194e-05 0.000411399 -0.000556445 0.000171481 0.000122827 0.000377292 -0.000439308 0.000472327 -0.000531338 -0.000206689 -0.00018434 0.000350333 -9.70403e-05 0.000201168 9.52847e-05 2.12377e-07 -0.000190638 -0.000554681 0.000168478
internal_weight=1539 798 741 270 528 352 454 176 309 176 274 180 287 180 214 90 184 60 103 150 116 90 124 133 154 60 90 86 90 60
internal_count=1539 798 741 270 528 352 454 176 309 176 274 180 287 180 214 90 184 60 103 150 116 90 124 133 154 60 90 86 90 60
is_linear=0
shrinkage=0.05


Tree=6
num_leaves=31
num_cat=0
split_feature=7 10 10 0 8 10 0 1 1 5 1 0 7 1 3 1 0 0 13 5 0 0 5 0 0 0 1 0 0 0
split_gain=0.0335786 0.00542071 0.00370256 0.00215827 0.00141904 0.00132907 0.00176939 0.00109864 0.000679841 0.000295456 0.000244231 0.000231969 0.000215838 0.000213473 0.000210617 0.00019784 0.00019929 0.00013542 0.000124282 8.1182e-05 6.35213e-05 5.68907e-05 3.03237e-05 1.80508e-05 1.17617e-05 1.06588e-05 7.527e-06 3.11585e-06 2.71883e-07 1.08042e-07
threshold=0.54685326298162384 19.420604127732222 25.723055584095402 0.0060890578474062504 0.51102409188886921 39.166184476999526 0.0025544119552895505 -0.0073153214312201486 -0.0040032187963474491 0.0055439299396294007 0.0055179735003143002 -0.0011860804375990498 0.76393353251675544 -0.0099940316534379483 -0.031297145444406142 -0.0093029459489308488 -0.0036392535374765497 -0.0056037909273994992 -0.38042711967859133 0.0056973418742509007 0.0083192319646373022 0.0065972975720116006 0.0071480024045094508 -0.0019652427413076995 -0.0039605010214170998 0.0054699711770441013 -0.0035395958458845499 0.0015589889456557502 -0.0044385424890815992 0.0093788507389773509
decision_type=2 2 2 2 2 2 2 2 2 2 2 2 2 2 2 2 2 2 2 2 2 2 2 2 2 2 2 2 2 2
left_child=2 7 11 5 20 6 13 15 9 -6 24 23 -11 -4 18 16 19 -12 -7 -2 -3 -5 -18 28 -10 -8 -16 -17 -1 -22
right_child=1 4 3 21 8 14 25 -9 10 12 17 -13 -14 -15 26 27 22 -19 -20 -21 29 -23 -24 -25 -26 -27 -28 -29 -30 -31
leaf_value=-0.00047487211413681511 0.00041135617066174747 -2.0596411195583643e-05 -0.00035862189251929523 0.00011139998678117992 0.00029825190431438388 -0.00017893166452842324 -0.00014598944311051867 6.4942648168653247e-05 -1.257936419278849e-05 9.8505443505321938e-05 2.994815877173096e-05 -0.00064788381569087512 0.00019562607853536963 -0.00051263252583642796 -0.00011896274518221618 0.00028881854377686976 0.00047612016770377086 0.0001600536925252527 -0.00026012497845628901 0.00033691370453527001 -0.00011628383072093129 1.4025501150172205e-05 0.00041563501581549646 -0.00051900744438171387 2.5764002930372954e-05 -0.00018482154700905085 -8.3543825894594193e-05 0.00031160688959062103 -0.00046814056113362316 -0.00011204036418348551
leaf_weight=30 60 26 30 30 46 133 43 30 60 90 30 30 157 90 30 30 67 60 73 94 30 30 30 30 30 30 30 30 30 30
leaf_count=30 60 26 30 30 46 133 43 30 60 90 30 30 157 90 30 30 67 60 73 94 30 30 30 30 30 30 30 30 30 30
internal_value=2.95671e-12 0.000196794 -0.000277174 -0.000219301 0.000100953 -0.000256166 -0.000356051 0.000353904 0.000134922 0.000181906 5.84435e-05 -0.000527476 0.000160238 -0.00047413 -0.000183693 0.000381779 0.000401276 0.000116685 -0.000207704 0.000365917 -8.58748e-05 6.27127e-05 0.000457413 -0.00048734 2.01758e-07 -0.000161948 -0.000101253 0.000300213 -0.000471506 -0.000114162
internal_weight=1539 900 639 519 559 459 193 341 473 293 180 120 247 120 266 311 251 90 206 154 86 60 97 90 90 73 60 60 60 60
internal_count=1539 900 639 519 559 459 193 341 473 293 180 120 247 120 266 311 251 90 206 154 86 60 97 90 90 73 60 60 60 60
is_linear=0
shrinkage=0.05


Tree=7
num_leaves=31
num_cat=0
split_feature=7 13 0 1 1 1 0 8 0 3 1 0 0 3 12 6 5 12 0 0 0 6 1 0 1 0 0 0 0 3
split_gain=0.0303047 0.00471295 0.00302005 0.00214671 0.00206437 0.00158792 0.000698346 0.000678712 0.000550219 0.000540702 0.000449262 0.00024065 0.000194315 0.000187911 0.000177762 0.000154352 8.94077e-05 8.0331e-05 7.22582e-05 5.7328e-05 5.13439e-05 4.94322e-05 4.30673e-05 4.22667e-05 3.80788e-05 2.89842e-05 2.6833e-05 2.25728e-05 2.15942e-05 1.83877e-05
threshold=0.54685326298162384 -0.62192883750136407 -1.0000000180025095e-35 -0.011566540522699948 -0.0054549567215894492 -0.0095557289828367472 -0.0028355604536896496 0.46268667479193887 0.0060890578474062504 -0.026806949240610146 -0.0020813621612574998 -0.00047970463249884997 -0.0036392535374765497 -0.038782752615185392 -3.1598369458166347 0.0093916084153818514 0.0055343889112757011 -15.442283372954048 0.0020886390401929004 0.0083192319646373022 0.0065972975720116006 0.0075967065639819505 -0.015979603159052096 0.0043615465826864512 -0.0091776035789242483 -0.0039605010214170998 -0.0019067212504120497 -0.0032452425051676995 -0.0063133560247083491 -0.013210457631607499
decision_type=2 2 2 2 2 2 2 2 2 2 2 2 2 2 2 2 2 2 2 2 2 2 2 2 2 2 2 2 2 2
left_child=2 3 4 12 6 9 -1 19 23 17 11 21 16 25 24 -6 -2 -4 -11 -3 -10 -5 -14 -7 -15 -9 -8 -17 -18 -16
right_child=1 7 5 10 15 8 26 13 20 18 -12 -13 22 14 29 27 28 -19 -20 -21 -22 -23 -24 -25 -26 -27 -28 -29 -30 -31
leaf_value=-0.00044473353773355484 0.0003907883423380554 -1.9566589617170394e-05 -0.00015808048273631653 0.00018132872586199022 -0.00061548966914415359 -9.6190621843561533e-05 -0.00012756665237247943 -1.7105959705077113e-05 0.00010582999093458057 -0.00034069081302732232 -6.7948320065625019e-06 0.0002852020785212517 0.00045066107572479681 0.00011200049193575979 0.0001919691613333863 -0.0004511285107582808 0.00033798828953877095 -0.00024178002441171991 -0.00045043160207569599 -0.00010845399810932577 1.3324225437827409e-05 0.00011117302346974611 0.00038327196002560293 -0.00015553897828795017 4.3008869397453964e-05 4.3085659854114056e-05 -0.0001854814123362303 -0.0005012093887974818 0.00029623562586493794 0.00014096567174419762
leaf_weight=30 60 26 43 154 30 60 30 30 30 30 30 60 66 30 43 30 60 86 30 60 30 30 37 60 60 60 60 90 64 30
leaf_count=30 60 26 43 154 30 60 30 30 30 30 30 60 66 30 43 30 60 86 30 60 30 30 37 60 60 60 60 90 64 30
internal_value=4.29277e-13 0.000186954 -0.000263316 0.000275897 -0.00039039 -0.000170334 -0.000235816 3.97645e-05 -6.40508e-05 -0.000271557 0.000175796 0.000198246 0.000371465 8.10125e-05 0.000113032 -0.000514049 0.000340683 -0.00021388 -0.000395561 -8.15811e-05 5.95771e-05 0.00016989 0.000426453 -0.000125865 6.60061e-05 2.30218e-05 -0.000166176 -0.000488689 0.000316439 0.000171009
internal_weight=1539 900 639 561 270 369 120 339 180 189 274 244 287 253 163 150 184 129 60 86 60 184 103 120 90 90 90 120 124 73
internal_count=1539 900 639 561 270 369 120 339 180 189 274 244 287 253 163 150 184 129 60 86 60 184 103 120 90 90 90 120 124 73
is_linear=0
shrinkage=0.05


Tree=8
num_leaves=31
num_cat=0
split_feature=13 2 10 1 5 3 9 0 3 10 0 1 1 0 0 0 12 0 5 9 0 3 1 1 13 2 3 1 0 0
split_gain=0.0242586 0.00552843 0.00249825 0.0019374 0.00182135 0.0014861 0.00142918 0.000762488 0.000751726 0.000699536 0.000417819 0.000405459 0.000283269 0.000258399 0.000217187 0.00017537 0.000121821 8.40813e-05 8.06904e-05 7.99715e-05 6.6044e-05 4.23307e-05 3.88683e-05 3.43661e-05 1.9554e-05 1.90429e-05 1.7817e-05 1.7603e-05 4.83899e-06 2.81205e-06
threshold=-0.65094720199704048 -0.035034873037086543 31.885722664841897 -0.011566540522699948 0.0054483703609439016 -0.014278269994733349 -166214888.28588453 0.0083192319646373022 -0.025993130202789348 26.567655888303644 0.0065972975720116006 -0.0020813621612574998 -0.0042147377244153494 0.00070974303507925004 -0.00047970463249884997 -0.0036392535374765497 -3.1598369458166347 -0.0011860804375990498 0.0055343889112757011 -559076.69793499995 0.0016334309378130503 -0.043030301342358142 -0.015979603159052096 -0.0091776035789242483 -0.79944154537260304 0.0077323254073608507 -0.013986519881818099 -0.0083008016996600469 -0.0019652427413076995 0.0015589889456557502
decision_type=2 2 2 2 2 2 2 2 2 2 2 2 2 2 2 2 2 2 2 2 2 2 2 2 2 2 2 2 2 2
left_child=3 2 12 15 5 6 13 16 10 -8 19 14 20 -3 21 18 23 28 -1 -4 -2 27 -17 -6 -20 -23 -18 -5 -14 -16
right_child=1 4 8 11 7 -7 9 -9 -10 -11 -12 -13 17 -15 29 22 26 -19 24 -21 -22 25 -24 -25 -26 -27 -28 -29 -30 -31
leaf_value=0.00037124892696738243 -0.00042857211083173756 -0.00042249686084687714 -0.00024902338790165824 0.00015252248267643155 0.00010640047257766129 -0.00046405466273427012 4.1537643846822908e-05 -0.00010303129674866797 -0.0004279100336134434 -0.00011753077019560237 1.2658014020416887e-05 -6.4550898969173435e-06 -0.00049639553762972357 -0.00021497213747352363 0.00026011751033365725 0.00042812802871181207 0.00012316557830524479 -0.00058471518568694594 0.00031984141605789773 -0.00016919212227141291 -0.00032365627121180298 0.00020027007303724531 0.00036410836823838388 4.085842665517703e-05 0.00028011014219373468 0.00015199196059256792 0.00016868198290467264 0.00010561437811702491 -0.00046799662522971634 0.0002817664295434952
leaf_weight=60 30 30 43 60 30 30 120 60 30 163 30 30 30 30 30 66 43 30 64 116 30 64 37 60 60 30 43 30 30 30
leaf_count=60 30 30 43 60 30 30 120 60 30 163 30 30 30 30 30 66 43 30 64 116 30 64 37 60 60 30 43 30 30 30
internal_value=-1.15924e-12 -0.000150347 -0.000303068 0.000262103 -5.78122e-05 -0.000126592 -9.7076e-05 5.08944e-05 -0.000195397 -5.00813e-05 -0.00015849 0.000167006 -0.000460267 -0.000318734 0.000188333 0.000352891 0.000103369 -0.000516369 0.000323649 -0.000190782 -0.000376114 0.000161396 0.000405131 6.27058e-05 0.000300617 0.000184862 0.000145924 0.000136886 -0.000482196 0.000270942
internal_weight=1539 978 369 561 609 373 343 236 219 283 189 274 150 60 244 287 176 90 184 159 60 184 103 90 124 94 86 90 60 60
internal_count=1539 978 369 561 609 373 343 236 219 283 189 274 150 60 244 287 176 90 184 159 60 184 103 90 124 94 86 90 60 60
is_linear=0
shrinkage=0.05


Tree=9
num_leaves=31
num_cat=0
split_feature=7 13 0 1 1 1 0 8 0 3 1 0 0 3 6 9 5 11 3 0 0 0 6 3 0 1 0 0 0 0
split_gain=0.0246604 0.00384625 0.00246882 0.00174851 0.00167848 0.00129769 0.000567474 0.000553975 0.000456643 0.000441282 0.000365927 0.000196011 0.000158271 0.00015785 0.000125721 9.6154e-05 7.28231e-05 6.74928e-05 6.00904e-05 5.88548e-05 4.54564e-05 4.48276e-05 4.02628e-05 3.91729e-05 3.81457e-05 3.50786e-05 2.61583e-05 2.19962e-05 1.83857e-05 1.77016e-05
threshold=0.54685326298162384 -0.62192883750136407 -1.0000000180025095e-35 -0.011566540522699948 -0.0054549567215894492 -0.0095557289828367472 -0.0028355604536896496 0.46268667479193887 0.0060890578474062504 -0.026806949240610146 -0.0020813621612574998 -0.00047970463249884997 -0.0036392535374765497 -0.038782752615185392 0.0093916084153818514 -4854.2911094999981 0.0055343889112757011 -17.669989041860045 -0.013210457631607499 0.0020886390401929004 0.0083192319646373022 0.0065972975720116006 0.0075967065639819505 -0.013827990040443197 0.0043615465826864512 -0.015979603159052096 -0.0039605010214170998 -0.0019067212504120497 -0.0032452425051676995 -0.0063133560247083491
decision_type=2 2 2 2 2 2 2 2 2 2 2 2 2 2 2 2 2 2 2 2 2 2 2 2 2 2 2 2 2 2
left_child=2 3 4 12 6 9 -1 20 24 17 11 22 16 26 -6 23 -2 -4 -17 -11 -3 -10 -5 -15 -7 -14 -9 -8 -16 -18
right_child=1 7 5 10 14 8 27 13 21 19 -12 -13 25 15 28 18 29 -19 -20 -21 -22 -23 -24 -25 -26 -27 -28 -29 -30 -31
leaf_value=-0.00040137204341590406 0.00035268648061901334 -1.8729132716543975e-05 -0.00014171684242048584 0.00016364917346554529 -0.00055547938682138926 -8.5504553862847391e-05 -0.00011531177442520858 -1.8327543511986735e-05 9.846161119639874e-05 -0.00030747344717383388 -6.1323356931097809e-06 0.0002573948819190264 0.00040672162590040401 0.00017552438495290834 -0.0004071434959769249 3.8815505831735209e-05 0.00030509680509567262 -0.00021843713867954564 0.00012548328377306461 -0.00040651452727615835 -9.7879735403694215e-05 1.2025113392155617e-05 0.00010033366270363332 0.00010108044371008873 -0.00014188549830578269 0.00034590294188190557 3.8854493323015052e-05 -0.0001677477383054793 -0.00045234148080150293 0.00026729417877504604
leaf_weight=30 60 26 43 154 30 60 30 30 30 30 30 60 66 43 30 60 60 86 30 30 60 30 30 30 60 37 60 60 90 64
leaf_count=30 60 26 43 154 30 60 30 30 30 30 30 60 66 43 30 60 60 86 30 30 60 30 30 30 60 37 60 60 90 64
internal_value=8.20732e-13 0.000168647 -0.000237532 0.000248997 -0.000352425 -0.000153463 -0.000213045 3.56787e-05 -5.73822e-05 -0.000244969 0.000158656 0.000178917 0.000335247 7.2944e-05 -0.000463929 0.000102291 0.000307466 -0.000192864 6.77048e-05 -0.000356994 -7.39505e-05 5.52434e-05 0.000153326 0.000144931 -0.000113695 0.000384874 1.97938e-05 -0.000150269 -0.000441042 0.000285586
internal_weight=1539 900 639 561 270 369 120 339 180 189 274 244 287 253 150 163 184 129 90 60 86 60 184 73 120 103 90 90 120 124
internal_count=1539 900 639 561 270 369 120 339 180 189 274 244 287 253 150 163 184 129 90 60 86 60 184 73 120 103 90 90 120 124
is_linear=0
shrinkage=0.05


Tree=10
num_leaves=31
num_cat=0
split_feature=6 0 2 10 2 6 11 10 8 6 5 6 9 8 2 6 5 0 5 13 6 0 8 0 5 0 2 0 0 2
split_gain=0.021229 0.00396503 0.00249825 0.00199166 0.00180698 0.00074371 0.000588671 0.000503659 0.000466383 0.000377683 0.000341208 0.000135147 0.000115355 8.86038e-05 8.59532e-05 8.22951e-05 7.43905e-05 0.000101074 7.86472e-05 7.34388e-05 6.30462e-05 5.31165e-05 3.16162e-05 3.00473e-05 2.65995e-05 1.98516e-05 9.2127e-06 8.87917e-06 8.31184e-06 8.25459e-06
threshold=0.0081976983130216518 -1.0000000180025095e-35 -0.0044491477960333491 39.166184476999526 -0.038662244452370292 0.0094476346556811013 -0.0097028683149897477 19.420604127732222 1.7573635761785023 0.0088351841388678524 0.0054911153293406012 0.0091945870319144526 -1488404.4483459997 0.55418824729904514 -0.0019386045234512999 0.0075967065639819505 0.0068820484127004007 -0.0036392535374765497 0.0071208786865949005 -0.36670852679825289 0.010116854952058702 0.0020886390401929004 0.83953469054019825 -0.0032452425051676995 0.0056973418742509007 -0.0019067212504120497 0.019427852591607352 0.0054699711770441013 -0.0013486994273826998 -0.031551325339075141
decision_type=2 2 2 2 2 2 2 2 2 2 2 2 2 2 2 2 2 2 2 2 2 2 2 2 2 2 2 2 2 2
left_child=2 3 7 11 9 19 13 16 10 21 28 -2 -12 -7 -14 26 17 24 -18 27 -11 -3 -9 -13 -1 -5 -10 -6 -4 -8
right_child=1 4 8 25 5 6 29 22 15 20 12 23 14 -15 -16 -17 18 -19 -20 -21 -22 -23 -24 -25 -26 -27 -28 -29 -30 -31
leaf_value=0.00033505216706544163 -0.00052770543843507769 -0.00029209977947175503 1.8301913223695012e-05 -0.00010954618919640781 -0.00019330168142914773 5.1591810682738768e-05 -6.4405333250761029e-05 0.00020121785283491419 -1.1618443022598513e-05 -0.00013463100266837796 0.00026288414373993875 -0.00038404485676437619 0.00023424190003424884 0.00013704330411328132 0.00014153096824884415 9.5316977240145217e-05 0.00024870203342288735 0.00038850404307595455 0.00034480142745782027 -9.9401426667424094e-05 -0.00021512971434276552 -0.00038618880789726974 0.00013390216574242169 -0.00042972440520922347 0.00028871262984466741 -0.00015936035197228193 2.2316610557027162e-05 -0.00015483270399272442 5.5521627655252817e-05 -9.6527353161945942e-05
leaf_weight=60 30 30 30 30 30 103 30 37 60 43 30 60 30 43 150 30 60 64 33 73 56 30 33 90 64 60 30 30 30 60
leaf_count=60 30 30 30 30 30 103 30 37 60 43 30 60 30 43 150 30 60 64 33 73 56 30 33 90 64 60 30 30 30 60
internal_value=7.63999e-13 -0.000178947 0.000192712 -0.000334804 -9.92469e-05 -3.85293e-05 1.47585e-05 0.000289485 0.000105615 -0.000240158 0.000142067 -0.000430828 0.000172112 7.6759e-05 0.000156983 2.35992e-05 0.000319379 0.000337473 0.000282802 -0.000133085 -0.000180166 -0.000339144 0.000169483 -0.000411453 0.000311135 -0.000142756 -3.06758e-07 -0.000174067 3.69118e-05 -8.582e-05
internal_weight=1539 798 741 270 528 369 236 351 390 159 270 180 210 146 180 120 281 188 93 133 99 60 70 150 124 90 90 60 60 90
internal_count=1539 798 741 270 528 369 236 351 390 159 270 180 210 146 180 120 281 188 93 133 99 60 70 150 124 90 90 60 60 90
is_linear=0
shrinkage=0.05


Tree=11
num_leaves=30
num_cat=0
split_feature=7 1 8 1 5 7 8 3 1 8 1 1 1 1 8 9 2 1 1 2 6 1 1 1 1 1 1 1 1
split_gain=0.0200927 0.00294163 0.00135662 0.00117411 0.00158465 0.000737457 0.000533715 0.000453417 0.000363489 0.000258809 0.000206575 0.000123981 0.000116412 0.000110039 8.60987e-05 9.08442e-05 7.9016e-05 6.84241e-05 3.06286e-05 2.17529e-05 1.54612e-05 1.19655e-05 1.04765e-05 8.73004e-06 7.02484e-06 6.49818e-06 4.19621e-06 1.04584e-07 9.08992e-08
threshold=0.54685326298162384 -0.0091776035789242483 0.56630699443335886 0.0051885512758009008 0.0033836482071365006 0.7307053264035851 0.24877639594194687 -0.014278269994733349 -0.0035395958458845499 1.9550912541098542 0.0059272173857267008 -0.0020813621612574998 -0.014830020492152499 -0.0027245060146296497 1.2980584764216905 -72377.498630499977 -0.0060875416361930992 -0.0078973048064577989 -0.0040032187963474491 0.0077323254073608507 0.0065999906513758014 -0.017700452723838446 -0.011566540522699948 -0.0083008016996600469 -0.0015964735684347998 -0.0042147377244153494 0.0088684001363770523 0.0069183747347000514 -0.0073153214312201486
decision_type=2 2 2 2 2 2 2 2 2 2 2 2 2 2 2 2 2 2 2 2 2 2 2 2 2 2 2 2 2
left_child=3 2 12 4 13 10 -6 8 -8 17 18 23 -2 25 15 16 -4 -7 28 -19 -17 -16 -14 -11 -20 -1 -13 -12 -3
right_child=1 5 14 -5 6 9 7 -9 -10 11 27 26 22 -15 21 20 -18 19 24 -21 -22 -23 -24 -25 -26 -27 -28 -29 -30
leaf_value=-0.0003675840562209487 -1.6597434296272695e-05 4.8853259067982441e-05 0.0003238821543681507 9.0958934742957359e-05 8.8442669948562983e-06 0.00022252979688346388 -0.00021808814064304275 -0.00039674863219261173 -0.00010601860121823848 0.0001286956830881536 -9.0175023069605237e-05 -5.2447965572355322e-06 8.9174258755519992e-05 -0.00050132018513977534 0.00037104187067598109 0.00027356077794377743 0.00023724730126559735 0.00016313096275553108 1.7386817489750683e-05 0.00012426425625259679 0.00023423297624167516 0.00032638476695865396 0.00013096046168357134 9.055112604983151e-05 -1.6830244567245246e-05 -0.00040049348026514057 2.1200781338848175e-05 -8.600002620369197e-05 5.2745541324838996e-05
leaf_weight=30 26 30 130 30 30 30 369 30 90 30 30 30 30 30 30 38 33 60 30 90 73 30 30 30 30 30 30 30 30
leaf_count=30 26 30 130 30 30 30 369 30 90 30 30 30 30 30 30 38 33 60 30 90 73 30 30 30 30 30 30 30 30
internal_value=6.44388e-13 0.000152229 0.000248865 -0.000214408 -0.00022945 6.7673e-05 -0.000195864 -0.000208423 -0.000196114 0.000115679 -1.23366e-05 5.88007e-05 7.17734e-05 -0.000423133 0.000294464 0.000282585 0.000306343 0.000153597 2.55388e-05 0.000139811 0.000247697 0.000348713 0.000110067 0.000109623 2.78286e-07 -0.000384039 7.97799e-06 -8.80875e-05 5.07994e-05
internal_weight=1539 900 420 639 609 480 519 489 459 300 180 120 86 90 334 274 163 180 120 150 111 60 60 60 60 60 60 60 60
internal_count=1539 900 420 639 609 480 519 489 459 300 180 120 86 90 334 274 163 180 120 150 111 60 60 60 60 60 60 60 60
is_linear=0
shrinkage=0.05


Tree=12
num_leaves=29
num_cat=0
split_feature=7 10 10 0 10 0 0 5 5 12 13 3 5 3 0 10 0 13 5 0 3 3 0 0 3 3 0 0
split_gain=0.0181336 0.0029494 0.00203565 0.00117612 0.000799549 0.000995064 0.000667836 0.000582457 0.000387822 0.000214035 0.000166655 0.000157935 0.000122278 0.000121731 0.000121029 8.96854e-05 0.000112341 7.64428e-05 4.54479e-05 3.65124e-05 1.84896e-05 1.65627e-05 9.76187e-06 7.32921e-06 5.95832e-06 4.19393e-06 9.43864e-08 2.38063e-08
threshold=0.54685326298162384 19.420604127732222 25.723055584095402 0.0060890578474062504 39.166184476999526 0.0025544119552895505 0.0083192319646373022 0.0043502292334931013 0.0054483703609439016 -3.1912636909498469 -0.78649392376838356 -0.040592574775798543 0.0046188755614056014 -0.031297145444406142 -0.0011860804375990498 18.445658812254695 -0.0036392535374765497 -0.38042711967859133 0.0056973418742509007 0.0065972975720116006 -0.039934698615967747 -0.06405582917929524 0.0054699711770441013 -0.0019652427413076995 -0.049871408721219194 -0.030187095688984544 0.0093788507389773509 -0.0044385424890815992
decision_type=2 2 2 2 2 2 2 2 2 2 2 2 2 2 2 2 2 2 2 2 2 2 2 2 2 2 2 2
left_child=2 7 14 4 5 12 8 -2 20 11 -11 -10 -4 17 23 16 18 -6 -9 -5 -3 -18 -7 27 -17 -15 -8 -1
right_child=1 6 3 19 13 22 26 15 9 10 -12 -13 -14 25 -16 24 21 -19 -20 -21 -22 -23 -24 -25 -26 -27 -28 -29
leaf_value=-0.00034920487087219954 5.0108268624171615e-05 -3.4627252661753016e-05 -0.00026659038849174976 8.6410989752039313e-05 -0.0001274666948510068 -0.00010462780131113737 -8.5666269296780231e-05 0.00030204288195818664 0.00013592370087280869 0.00024599218741059307 0.00012523858749773355 3.6571081363945271e-05 -0.0003831514079744617 -8.2322541857138276e-05 -0.00047625415027141571 0.00024219153194942261 0.00030675490852445365 -0.00019114401242504382 0.00024634383004555046 8.4020539361517876e-06 1.6517475887667388e-05 0.00035177942845621146 -0.00014179013669490814 -0.0003804688109084964 0.00021140330936759711 -5.5884139146655802e-05 -8.1700028385967019e-05 -0.00035119678359478716
leaf_weight=30 30 43 30 30 133 43 30 60 60 33 213 120 90 30 30 33 30 73 94 30 30 64 30 30 30 30 30 30
leaf_count=30 30 43 30 30 133 43 30 60 60 33 213 120 90 30 30 33 30 73 94 30 30 64 30 30 30 30 30 30
internal_value=-4.6048e-13 0.000144618 -0.000203687 -0.000160775 -0.000187989 -0.000265461 7.39232e-05 0.000260508 9.28739e-05 0.000111121 0.000141437 6.96886e-05 -0.000354011 -0.000131777 -0.000389281 0.000280803 0.000294336 -0.000150032 0.000268045 4.74065e-05 -1.36089e-05 0.00033741 -0.0001199 -0.00036029 0.00022753 -6.91033e-05 -8.36831e-05 -0.000350201
internal_weight=1539 900 639 519 459 193 559 341 499 426 246 180 120 266 120 311 248 206 154 60 73 94 73 90 63 60 60 60
internal_count=1539 900 639 519 459 193 559 341 499 426 246 180 120 266 120 311 248 206 154 60 73 94 73 90 63 60 60 60
is_linear=0
shrinkage=0.05


Tree=13
num_leaves=31
num_cat=0
split_feature=7 10 10 0 10 0 1 1 2 7 1 1 10 0 1 9 0 13 0 13 5 5 1 0 6 0 0 0 0 1
split_gain=0.0163656 0.00266184 0.00183717 0.00106145 0.000721592 0.000898045 0.000628973 0.000525668 0.000281646 0.000223784 0.000110356 0.000109929 0.000109862 0.000109229 9.98654e-05 9.06827e-05 8.6952e-05 6.89897e-05 6.63097e-05 4.76185e-05 4.4401e-05 5.15861e-05 3.3937e-05 3.29524e-05 1.44878e-05 1.18318e-05 8.81008e-06 6.61462e-06 5.50236e-06 3.78502e-06
threshold=0.54685326298162384 19.420604127732222 25.723055584095402 0.0060890578474062504 39.166184476999526 0.0025544119552895505 -0.0040032187963474491 -0.0073153214312201486 0.01505002554060955 0.76393353251675544 -0.0099940316534379483 -0.013811566170492997 48.0438335095645 -0.0011860804375990498 -0.017076827582606598 -474656.72025199974 0.0083192319646373022 -0.38042711967859133 -0.0056037909273994992 -0.88443434744865035 0.0071208786865949005 0.0056482333097462511 -0.0091776035789242483 0.0065972975720116006 0.0064917249973333513 -0.0036392535374765497 0.0054699711770441013 -0.0019652427413076995 -0.0039605010214170998 -0.0035395958458845499
decision_type=2 2 2 2 2 2 2 2 2 2 2 2 2 2 2 2 2 2 2 2 2 2 2 2 2 2 2 2 2 2
left_child=2 7 13 4 5 10 9 14 16 15 -4 -11 17 27 19 -3 28 -6 -10 -2 21 -16 -17 -5 -13 -21 -7 -1 -8 -14
right_child=1 6 3 23 12 26 8 -9 18 11 -12 24 29 -15 20 22 -18 -19 -20 25 -22 -23 -24 -25 -26 -27 -28 -29 -30 -31
leaf_value=-0.0003326907753944397 0.0002511460443629938 -1.8032845400739461e-05 -0.00025326085742563011 8.2090438809245825e-05 -0.00012109336229671439 -9.9396411069603848e-05 -1.0534240573178977e-05 4.7602853737771514e-05 1.8312186875846239e-05 0.00023369258269667625 -0.00036399383097887041 0.00016219024888842421 -7.8206410398706802e-05 -0.00045244144275784497 0.00028677875422598685 0.00012037080609737788 -7.9498993000015619e-05 -0.00018158681301578677 0.00010935456375591457 0.00029496338684111836 0.000296322980218313 0.00021700912038795652 6.2171842728275806e-05 7.9819510574452579e-06 0.00012531548130848423 0.0003334209090098739 -0.00013470062986016275 -0.00036144538316875698 1.5691602311562746e-05 -5.3089932771399623e-05
leaf_weight=60 34 26 30 30 133 43 60 30 30 33 90 34 30 30 34 43 60 73 60 30 33 120 60 30 123 60 30 30 30 30
leaf_count=60 34 26 30 30 133 43 60 30 30 33 90 34 30 30 34 43 60 73 60 30 33 120 60 30 123 60 30 30 30 30
internal_value=5.25722e-13 0.000137387 -0.000193503 -0.000152737 -0.000178589 -0.000252188 7.02271e-05 0.000247482 9.08081e-06 0.00011623 -0.000336311 0.000150738 -0.000125189 -0.000369817 0.000266763 6.54062e-05 -3.2875e-05 -0.00014253 7.90071e-05 0.000301557 0.000243691 0.000232413 8.64685e-05 4.50362e-05 0.000133301 0.000320602 -0.000113905 -0.000342276 -1.79229e-06 -6.56482e-05
internal_weight=1539 900 639 519 459 193 559 341 240 319 120 190 266 120 311 129 150 206 90 124 187 154 103 60 157 90 73 90 90 60
internal_count=1539 900 639 519 459 193 559 341 240 319 120 190 266 120 311 129 150 206 90 124 187 154 103 60 157 90 73 90 90 60
is_linear=0
shrinkage=0.05


Tree=14
num_leaves=31
num_cat=0
split_feature=7 1 0 1 8 1 7 0 3 0 8 0 1 0 6 8 9 2 1 11 0 0 0 0 5 0 2 7 0 0
split_gain=0.01477 0.00217688 0.00150175 0.0010449 0.0010124 0.000784253 0.000537514 0.000377181 0.000286156 0.00026844 0.000196193 0.000152076 9.1602e-05 9.02187e-05 7.01906e-05 6.23982e-05 6.36182e-05 6.03116e-05 4.87852e-05 4.5941e-05 3.65226e-05 2.97396e-05 2.85255e-05 2.19409e-05 1.94868e-05 1.79161e-05 1.78445e-05 1.31797e-05 9.72739e-06 8.67063e-06
threshold=0.54685326298162384 -0.0091776035789242483 -1.0000000180025095e-35 -0.0054549567215894492 0.56630699443335886 -0.0095557289828367472 0.7307053264035851 -0.0028355604536896496 -0.026806949240610146 0.0060890578474062504 1.9550912541098542 0.0083192319646373022 -0.0020813621612574998 0.0035995701375608007 0.0093916084153818514 1.2980584764216905 -72377.498630499977 -0.0060875416361930992 -0.0078973048064577989 -17.669989041860045 0.0020886390401929004 0.0065972975720116006 0.0043615465826864512 -0.0013486994273826998 0.0049580988349445512 -0.0019067212504120497 0.0077323254073608507 1.0714987024604368 0.00070974303507925004 -0.0036392535374765497
decision_type=2 2 2 2 2 2 2 2 2 2 2 2 2 2 2 2 2 2 2 2 2 2 2 2 2 2 2 2 2 2
left_child=2 4 3 7 13 8 11 -1 19 22 18 23 -12 -2 -5 16 17 -6 -8 -4 -10 -11 -7 -3 -16 -9 -20 -18 -21 -17
right_child=1 6 5 14 15 9 10 25 20 21 12 -13 -14 -15 24 29 27 -19 26 28 -22 -23 -24 -25 -26 -27 -28 -29 -30 -31
leaf_value=-0.00031700239051133397 9.4376588822342466e-05 5.8818259276449689e-07 -0.00010524026299610215 -0.00042981938458979134 0.00027813168815695323 -6.2365763005800553e-05 0.00018998269224539401 -8.0736470408737659e-05 -0.000240597827360034 7.7985919779166587e-05 9.2925992794334897e-05 -7.5524041312746712e-05 5.5560900364071136e-06 -1.713120291242376e-05 -0.00033267904072999956 0.00028021521866321563 0.00020228205641804192 0.00020244219869544559 0.00014125771122053266 -0.00018535292988946272 -0.00031861769966781142 7.5828538683708757e-06 -0.00011112156498711557 4.3348078907001768e-05 -0.00037921078037470582 -0.00012805992737412454 0.00010605537099763752 0.00023965862004415078 -0.00015172121537372816 0.00031822975724935535
leaf_weight=30 60 60 43 30 130 60 30 30 30 30 60 60 60 26 90 30 77 33 60 43 30 30 60 60 30 60 90 34 43 30
leaf_count=30 60 60 43 30 130 60 30 30 30 30 60 60 60 26 90 30 77 33 60 43 30 30 60 60 30 60 90 34 43 30
internal_value=-8.79356e-14 0.000130518 -0.000183828 -0.000273436 0.000213648 -0.000118261 5.77783e-05 -0.000163465 -0.000189397 -4.35676e-05 9.87628e-05 -1.05293e-05 4.9241e-05 6.06649e-05 -0.000361413 0.000253039 0.000242926 0.000262808 0.000131777 -0.000147438 -0.000279608 4.27844e-05 -8.67437e-05 2.19681e-05 -0.000344312 -0.000112285 0.000120136 0.000213731 -0.000168537 0.000299222
internal_weight=1539 900 639 270 420 369 480 120 189 180 300 180 120 86 150 334 274 163 180 129 60 60 120 120 120 90 150 111 86 60
internal_count=1539 900 639 270 420 369 480 120 189 180 300 180 120 86 150 334 274 163 180 129 60 60 120 120 120 90 150 111 86 60
is_linear=0
shrinkage=0.05


Tree=15
num_leaves=31
num_cat=0
split_feature=7 1 0 1 8 1 7 0 6 0 8 0 1 0 6 8 9 2 1 11 0 0 0 0 5 0 2 7 0 0
split_gain=0.0133299 0.00196463 0.00135533 0.000943022 0.000913688 0.000707789 0.000485107 0.000340406 0.000258256 0.000242267 0.000177064 0.000137248 8.26708e-05 8.14224e-05 6.3347e-05 5.63144e-05 5.74154e-05 5.44312e-05 4.40286e-05 4.14618e-05 3.29617e-05 2.68399e-05 2.57443e-05 1.98017e-05 1.75869e-05 1.61693e-05 1.61047e-05 1.18947e-05 8.77897e-06 7.82525e-06
threshold=0.54685326298162384 -0.0091776035789242483 -1.0000000180025095e-35 -0.0054549567215894492 0.56630699443335886 -0.0095557289828367472 0.7307053264035851 -0.0028355604536896496 0.0088351841388678524 0.0060890578474062504 1.9550912541098542 0.0083192319646373022 -0.0020813621612574998 0.0035995701375608007 0.0093916084153818514 1.2980584764216905 -72377.498630499977 -0.0060875416361930992 -0.0078973048064577989 -17.669989041860045 0.0020886390401929004 0.0065972975720116006 0.0043615465826864512 -0.0013486994273826998 0.0049580988349445512 -0.0019067212504120497 0.0077323254073608507 1.0714987024604368 0.00070974303507925004 -0.0036392535374765497
decision_type=2 2 2 2 2 2 2 2 2 2 2 2 2 2 2 2 2 2 2 2 2 2 2 2 2 2 2 2 2 2
left_child=2 4 3 7 13 8 11 -1 20 22 18 23 -12 -2 -5 16 17 -6 -8 -10 -4 -11 -7 -3 -16 -9 -20 -18 -21 -17
right_child=1 6 5 14 15 9 10 25 19 21 12 -13 -14 -15 24 29 27 -19 26 28 -22 -23 -24 -25 -26 -27 -28 -29 -30 -31
leaf_value=-0.00030115228146314625 8.9657760690897709e-05 5.5877317208796737e-07 -0.00022856793366372586 -0.00040832841768860821 0.00026422510299688347 -5.9247476747259499e-05 0.00018048355123028161 -7.6699646888300785e-05 -9.9978245643162465e-05 7.4086623499169946e-05 8.8279691408388319e-05 -7.1747839683666825e-05 5.2782852435484529e-06 -1.6274642257485541e-05 -0.00031604509179790818 0.00026620444841682914 0.00019216795464034207 0.00019232007431459024 0.00013419482856988907 -0.00017608527722227018 -0.00030268682166934013 7.2037109930533916e-06 -0.0001055654836818576 4.1180675907526165e-05 -0.00036025026347488167 -0.00012165693333372475 0.00010075260070152581 0.00022767568828866762 -0.00014413515414479514 0.00030231827404350045
leaf_weight=30 60 60 30 30 130 60 30 30 43 30 60 60 60 26 90 30 77 33 60 43 30 30 60 60 30 60 90 34 43 30
leaf_count=30 60 60 30 30 130 60 30 30 43 30 60 60 60 26 90 30 77 33 60 43 30 30 60 60 30 60 90 34 43 30
internal_value=-1.34173e-12 0.000123992 -0.000174636 -0.000259764 0.000202966 -0.000112348 5.48894e-05 -0.000155291 -0.000179927 -4.13893e-05 9.38247e-05 -1.00028e-05 4.6779e-05 5.76317e-05 -0.000343343 0.000240387 0.00023078 0.000249668 0.000125189 -0.000140066 -0.000265627 4.06452e-05 -8.24065e-05 2.08697e-05 -0.000327096 -0.000106671 0.000114129 0.000203044 -0.00016011 0.000284261
internal_weight=1539 900 639 270 420 369 480 120 189 180 300 180 120 86 150 334 274 163 180 129 60 60 120 120 120 90 150 111 86 60
internal_count=1539 900 639 270 420 369 480 120 189 180 300 180 120 86 150 334 274 163 180 129 60 60 120 120 120 90 150 111 86 60
is_linear=0
shrinkage=0.05


Tree=16
num_leaves=31
num_cat=0
split_feature=7 13 0 0 0 3 5 3 11 0 9 3 3 3 3 3 0 2 2 0 0 5 0 2 0 0 0 0 0 0
split_gain=0.0120302 0.00188316 0.00122318 0.000621372 0.000605436 0.000529036 0.000662844 0.00042957 0.00029275 0.000251737 0.000119071 0.000105342 8.63242e-05 6.58001e-05 5.87916e-05 6.56665e-05 3.29514e-05 3.66178e-05 3.19886e-05 2.74255e-05 2.4223e-05 1.94431e-05 1.45928e-05 7.92517e-06 7.40049e-06 7.08974e-06 6.35541e-06 5.64034e-06 3.62613e-06 8.85383e-08
threshold=0.54685326298162384 -0.62192883750136407 -1.0000000180025095e-35 -0.0099287967774296468 0.0060890578474062504 -0.03532628642736544 0.0042777611798016507 -0.047272831922308141 -557.54760737482127 0.0083192319646373022 -52964712.076135106 -0.031297145444406142 -0.025993130202789348 -0.040592574775798543 -0.050717537274098994 -0.058225569697308494 0.004656263828338651 0.020436395031689553 -0.035852111293599991 0.0015236675841051501 0.0065972975720116006 0.0066350005371799007 -0.0019067212504120497 -0.031551325339075141 -0.00095808097234684989 -0.00047970463249884997 -0.011066569572725898 -0.0019652427413076995 -0.00080855106979714996 -0.0016274220081153997
decision_type=2 2 2 2 2 2 2 2 2 2 2 2 2 2 2 2 2 2 2 2 2 2 2 2 2 2 2 2 2 2
left_child=2 3 5 13 8 6 27 14 12 10 -3 19 -4 26 15 -5 17 -12 -7 -10 -6 28 -8 -13 -20 -16 -2 -1 -9 -24
right_child=1 9 4 7 20 18 22 21 11 -11 16 23 -14 -15 25 -17 -18 -19 24 -21 -22 -23 29 -25 -26 -27 -28 -29 -30 -31
leaf_value=-0.00028438426088541748 0.00010013865539804101 -3.179086468366603e-05 -0.0001770421323842954 0.00022358000168184704 7.038228795863688e-05 -0.00038791198749095203 -7.2864664252847441e-05 9.9787769085239801e-05 -0.00015578313335163954 -6.8160449154675012e-05 4.3577309406828141e-05 -4.4354773126542572e-05 -0.00028755248058587313 -6.8261178967077285e-06 0.00020122878486290575 0.00028213878904352895 0.00011177248525200412 0.00010324356844648719 -0.00034223773982375863 -0.00011244191491517098 6.8435256252996624e-06 0.00015078569310443367 -0.00011365337995812298 -7.5829302659258246e-05 -0.00030711772851645949 0.00017145937308669091 6.7592767300084241e-05 -0.00031093689613044263 0.00012090818490833044 -0.00011749478289857507
leaf_weight=60 30 43 43 190 30 30 30 63 73 60 180 30 30 30 60 64 26 30 30 73 30 34 30 60 30 30 30 30 30 30
leaf_count=60 30 43 43 190 30 30 30 63 73 60 180 30 30 30 60 64 26 30 30 73 30 34 30 60 30 30 30 30 30 30
internal_value=-3.64034e-13 0.000117792 -0.000165905 0.000174015 -0.00010673 -0.000246776 -0.000197286 0.000197017 -0.000134952 2.47512e-05 4.47323e-05 -0.000107885 -0.000222457 5.36351e-05 0.000226031 0.000238335 5.8675e-05 5.21011e-05 -0.000345756 -0.000134113 3.86129e-05 0.00011843 -0.000101338 -6.53378e-05 -0.000324678 0.000191306 8.38657e-05 -0.000293235 0.000106601 -0.000115574
internal_weight=1539 900 639 561 369 270 180 471 309 339 279 236 73 90 344 254 236 210 90 146 60 127 90 90 60 90 60 90 93 60
internal_count=1539 900 639 561 369 270 180 471 309 339 279 236 73 90 344 254 236 210 90 146 60 127 90 90 60 90 60 90 93 60
is_linear=0
shrinkage=0.05


Tree=17
num_leaves=31
num_cat=0
split_feature=7 10 10 0 10 0 7 2 2 7 10 3 0 2 9 0 9 11 13 10 0 0 0 0 0 0 0 2 0 0
split_gain=0.0108573 0.00176322 0.00121612 0.000704509 0.00048012 0.000605054 0.000401452 0.000348254 0.000222919 0.000125715 9.83317e-05 7.33918e-05 7.28077e-05 7.03312e-05 5.97289e-05 5.77891e-05 5.55038e-05 7.56874e-05 4.59516e-05 3.43077e-05 3.2613e-05 2.18613e-05 1.55237e-05 1.09686e-05 7.72793e-06 5.0904e-06 3.71088e-06 2.98024e-06 1.42905e-06 1.99515e-07
threshold=0.54685326298162384 19.420604127732222 25.723055584095402 0.0060890578474062504 39.166184476999526 0.0025544119552895505 0.75015812479637378 -0.00045174484029319995 -0.016261009342197846 1.1145267846134042 37.631892241052533 -0.031297145444406142 -0.0011860804375990498 -0.043737198045175639 -1488404.4483459997 0.0035995701375608007 -534782.11548499973 -20.445945266073405 -0.38042711967859133 46.477005833775188 -0.0036392535374765497 0.0065972975720116006 -0.0019954371104266995 -0.0063133560247083491 0.0054699711770441013 -0.0019652427413076995 -0.0039605010214170998 -0.031551325339075141 -0.0060096432816185994 0.0093788507389773509
decision_type=2 2 2 2 2 2 2 2 2 2 2 2 2 2 2 2 2 2 2 2 2 2 2 2 2 2 2 2 2 2
left_child=2 7 12 4 5 13 8 16 19 10 14 18 25 -4 -8 26 22 20 -6 -3 -18 -5 28 -19 -7 -1 -10 -13 -2 -17
right_child=1 6 3 21 11 24 9 -9 15 -11 -12 27 -14 -15 -16 29 17 23 -20 -21 -22 -23 -24 -25 -26 -27 -28 -29 -30 -31
leaf_value=-0.00027016506064683201 0.00024171522818505764 9.8760121198760917e-05 -0.00020828742999583484 6.6863175015896564e-05 -9.8623590512355263e-05 -7.8444172449539915e-05 0.00017310373157008806 3.8817408494651318e-05 -1.2198462354717777e-05 -6.4848114561755215e-06 1.4675993588753046e-05 -4.2137035052292049e-05 -0.0003685163799673319 -0.00029668752104043965 0.00010148348986182498 -6.8181273554516743e-05 0.00019667786135173896 0.00020293248817324639 -0.00014799397043271424 3.5599432073446902e-05 0.00025744115312894189 6.5013489802367992e-06 0.00027628668227835614 0.00016802209817493957 -0.00011150914942845703 -0.00029539004899561407 1.2670809519477189e-05 -6.4423965523019436e-05 0.00022628230508416893 -6.2868458917364486e-05
leaf_weight=60 30 43 30 30 133 43 33 30 30 30 30 30 30 90 247 43 34 30 73 43 63 30 34 90 30 30 30 30 30 30
leaf_count=60 30 43 30 30 133 43 33 30 30 30 30 30 30 90 247 43 34 30 73 43 63 30 34 90 30 30 30 30 30 30
internal_value=1.72089e-13 0.000111903 -0.000157609 -0.000124442 -0.000145504 -0.000205538 5.72422e-05 0.000201507 4.4465e-06 9.12488e-05 0.000100707 -0.000101945 -0.000301059 -0.000274587 0.000109924 -3.61179e-05 0.000217201 0.000203299 -0.000116119 6.71798e-05 0.000236143 3.66823e-05 0.000249294 0.00017675 -9.20325e-05 -0.000278573 2.36174e-07 -5.32805e-05 0.000233999 -6.59979e-05
internal_weight=1539 900 639 519 459 193 559 341 219 340 310 266 120 120 280 133 311 217 206 86 97 60 94 120 73 90 60 60 60 73
internal_count=1539 900 639 519 459 193 559 341 219 340 310 266 120 120 280 133 311 217 206 86 97 60 94 120 73 90 60 60 60 73
is_linear=0
shrinkage=0.05


Tree=18
num_leaves=31
num_cat=0
split_feature=7 10 10 5 10 8 1 3 1 3 5 7 1 3 1 1 1 13 1 13 5 5 1 1 1 1 1 1 1 1
split_gain=0.00979869 0.00159131 0.00109754 0.000592991 0.000678907 0.000425486 0.0003143 0.000230415 0.000218341 0.00011985 9.67596e-05 7.42796e-05 7.16368e-05 6.62361e-05 6.57089e-05 6.34739e-05 6.20288e-05 4.14713e-05 4.01686e-05 3.47349e-05 2.8518e-05 3.28987e-05 1.97298e-05 1.45824e-05 7.48972e-06 4.59409e-06 3.49844e-06 2.68967e-06 7.35962e-08 7.0211e-08
threshold=0.54685326298162384 19.420604127732222 25.723055584095402 0.0042777611798016507 39.166184476999526 0.51102409188886921 -0.0073153214312201486 -0.03532628642736544 -0.0040032187963474491 -0.027181217910191947 0.0055439299396294007 0.76393353251675544 0.0055179735003143002 -0.031297145444406142 -0.0027245060146296497 -0.0099940316534379483 -0.017076827582606598 -0.38042711967859133 0.0088684001363770523 -0.88443434744865035 0.0071208786865949005 0.0056482333097462511 0.0051885512758009008 0.0059272173857267008 -0.017700452723838446 -0.0042147377244153494 -0.0020813621612574998 -0.0035395958458845499 0.0069183747347000514 -0.0054549567215894492
decision_type=2 2 2 2 2 2 2 2 2 2 2 2 2 2 2 2 2 2 2 2 2 2 2 2 2 2 2 2 2 2
left_child=2 6 14 9 7 23 16 -5 10 22 -7 -12 26 17 25 -9 19 -6 -14 -2 21 -18 -4 -3 -21 29 -10 -15 -25 -1
right_child=1 5 3 4 13 8 -8 15 12 -11 11 -13 18 27 -16 -17 20 -19 -20 24 -22 -23 -24 28 -26 -27 -28 -29 -30 -31
leaf_value=-0.00025836720596998929 0.00019070765565094703 -1.6645905270706864e-05 6.1762817495036875e-06 -0.000105933693703264 -9.3692412102749031e-05 0.00016618819841507663 3.6876538069918757e-05 -0.00019787305500358344 1.2037268606945873e-05 -7.4521961573208143e-05 5.0992329488508406e-05 0.00010796705250491856 8.4801740013062957e-05 -6.1202765209600329e-05 -0.00035009055864065886 -0.00028185313567519188 0.00022253471919718912 -0.00014059427497296098 1.394219434587285e-05 0.00026022710371762517 0.00023033793549984694 0.00016681750130373985 6.3520018011331564e-05 -6.3227326609194276e-05 0.00022962947841733696 -0.00028062055353075268 -8.8745553512126214e-06 -4.0030182572081688e-05 -5.9725035680457952e-05 -0.00025494641158729792
leaf_weight=30 34 26 30 30 133 46 30 30 30 43 90 157 60 30 30 90 34 73 30 60 33 120 30 30 30 30 60 30 30 30
leaf_count=30 34 26 30 30 133 46 30 30 30 43 90 157 60 30 30 90 34 73 30 60 33 120 30 30 30 30 60 30 30 30
internal_value=5.4747e-13 0.000106307 -0.000149729 -0.00011822 -0.000144814 5.438e-05 0.000191432 -0.000229873 7.29806e-05 -1.08112e-05 9.96068e-05 8.7207e-05 2.9639e-05 -9.68476e-05 -0.000286006 -0.000260858 0.000206341 -0.000110313 6.11819e-05 0.000233763 0.000188157 0.000179119 3.48481e-05 -4.79228e-05 0.000250028 -0.000264645 -1.90395e-06 -5.06165e-05 -6.14762e-05 -0.000256657
internal_weight=1539 900 639 519 416 559 341 150 473 103 293 247 180 266 120 120 311 206 90 124 187 154 60 86 90 90 90 60 60 60
internal_count=1539 900 639 519 416 559 341 150 473 103 293 247 180 266 120 120 311 206 90 124 187 154 60 86 90 90 90 60 60 60
is_linear=0
shrinkage=0.05


Tree=19
num_leaves=31
num_cat=0
split_feature=7 10 10 0 10 0 8 1 1 2 1 1 10 0 1 1 13 0 13 0 0 0 0 0 0 0 0 0 1 0
split_gain=0.00884332 0.00143615 0.000990533 0.000573827 0.000391061 0.00049282 0.000384001 0.000283655 0.000197053 7.62285e-05 9.35695e-05 6.46522e-05 5.97781e-05 5.93023e-05 5.72852e-05 5.59809e-05 3.74278e-05 3.62522e-05 3.13482e-05 2.32469e-05 3.32005e-05 1.78062e-05 1.31606e-05 6.75947e-06 6.29445e-06 4.4592e-06 4.14617e-06 3.15734e-06 2.42743e-06 1.16154e-06
threshold=0.54685326298162384 19.420604127732222 25.723055584095402 0.0060890578474062504 39.166184476999526 0.0025544119552895505 0.51102409188886921 -0.0073153214312201486 -0.0040032187963474491 -0.026751804866155349 -0.013811566170492997 0.0055179735003143002 48.0438335095645 -0.0011860804375990498 -0.0099940316534379483 -0.017076827582606598 -0.38042711967859133 -0.0056037909273994992 -0.88443434744865035 -0.00047970463249884997 -0.0060096432816185994 0.0065972975720116006 0.0083192319646373022 -0.0036392535374765497 0.0054699711770441013 0.0014273162019670003 -0.0019652427413076995 -0.0039605010214170998 -0.0035395958458845499 0.0015589889456557502
decision_type=2 2 2 2 2 2 2 2 2 2 2 2 2 2 2 2 2 2 2 2 2 2 2 2 2 2 2 2 2 2
left_child=2 7 13 4 5 14 22 15 9 25 -11 27 16 26 -4 18 -6 -13 -2 20 -17 -5 -3 -20 -7 -8 -1 -10 -14 -21
right_child=1 6 3 21 12 24 8 -9 11 10 -12 17 28 -15 -16 19 -18 -19 23 29 -22 -23 -24 -25 -26 -27 -28 -29 -30 -31
leaf_value=-0.00024382396368309857 0.0001811722745461499 -1.5813611389603467e-05 -0.00018797940574586392 6.0344015946611765e-05 -8.9007792329149593e-05 -7.0795866249259121e-05 5.8000243734568363e-05 3.503271145746112e-05 -8.4308272562338967e-06 0.00017145353511137807 9.1853091508189945e-05 1.3245084846857936e-05 -5.8142625493928794e-05 -0.00033258604817092423 -0.00026776047889143229 0.0001638519810512662 -0.00013356455904750588 8.0561655340716254e-05 0.00021814799401909113 0.00014614443061873318 0.00021505918520600049 5.8674675528891391e-06 -5.8402374270372094e-05 0.00024721574736759068 -0.00010063701774924994 3.0738557688891889e-05 -0.00026658952701836826 1.1435405031079427e-05 -3.8028674316592516e-05 0.00016005811048671605
leaf_weight=60 34 26 30 30 133 43 30 30 60 46 187 30 30 30 90 60 73 60 30 30 67 30 60 60 30 30 30 30 30 30
leaf_count=60 34 26 30 30 133 43 30 30 60 46 187 30 30 30 90 60 73 60 30 30 67 30 60 60 30 30 30 30 30 30
internal_value=-1.07319e-13 0.000100992 -0.000142242 -0.000112309 -0.000131317 -0.000185498 5.1661e-05 0.00018186 6.93315e-05 9.46265e-05 0.000107568 2.8157e-05 -9.20052e-05 -0.000271706 -0.000247815 0.000196024 -0.000104797 5.81228e-05 0.000222075 0.00017875 0.000190867 3.31057e-05 -4.55267e-05 0.000237526 -8.30594e-05 4.43694e-05 -0.000251412 -1.80875e-06 -4.80856e-05 0.000153101
internal_weight=1539 900 639 519 459 193 559 341 473 293 233 180 266 120 120 311 206 90 124 187 127 60 86 90 73 60 90 90 60 60
internal_count=1539 900 639 519 459 193 559 341 473 293 233 180 266 120 120 311 206 90 124 187 127 60 86 90 73 60 90 90 60 60
is_linear=0
shrinkage=0.05


Tree=20
num_leaves=31
num_cat=0
split_feature=7 10 10 8 8 10 2 1 1 1 1 2 1 3 1 1 1 3 1 13 1 9 1 1 1 1 1 1 1 1
split_gain=0.00798109 0.00129613 0.000893956 0.000444726 0.000346561 0.000327798 0.00030897 0.000255999 0.00017784 0.000141578 9.9063e-05 6.87962e-05 8.44465e-05 5.86404e-05 5.83486e-05 5.35203e-05 5.05228e-05 3.30038e-05 3.27176e-05 2.82918e-05 2.09803e-05 2.99634e-05 1.60701e-05 1.18775e-05 6.10043e-06 4.41998e-06 4.02443e-06 3.74191e-06 2.8495e-06 2.19075e-06
threshold=0.54685326298162384 19.420604127732222 25.723055584095402 0.29248832487020154 0.51102409188886921 39.166184476999526 -0.027161163881830448 -0.0073153214312201486 -0.0040032187963474491 -0.0099940316534379483 -0.0022978698534641497 -0.026751804866155349 -0.013811566170492997 -0.031297145444406142 0.0055179735003143002 -0.0027245060146296497 -0.017076827582606598 -0.052409578968192143 0.0088684001363770523 -0.88443434744865035 -0.0093029459489308488 -72377.498630499977 0.0051885512758009008 0.0059272173857267008 -0.017700452723838446 1.0000000180025095e-35 -0.0091776035789242483 -0.0042147377244153494 -0.0020813621612574998 -0.0035395958458845499
decision_type=2 2 2 2 2 2 2 2 2 2 2 2 2 2 2 2 2 2 2 2 2 2 2 2 2 2 2 2 2 2
left_child=2 7 15 10 23 6 9 16 11 -5 -4 26 -13 17 28 27 19 -7 -16 -2 21 -18 -12 -3 -21 -8 -6 -1 -10 -15
right_child=1 4 3 5 8 13 25 -9 14 -11 22 12 -14 29 18 -17 20 -19 -20 24 -22 -23 -24 -25 -26 -27 -28 -29 -30 -31
leaf_value=-0.00023163276491686702 0.00017211366075036281 -1.5022930165287108e-05 -7.9827907029539347e-05 -0.00014408176201720572 5.510023329406977e-05 -5.5155239533632996e-05 -9.5605163369327794e-05 3.3281074138358235e-05 1.0863634815905244e-05 -0.00025437246076762679 5.5740943935234105e-06 0.00016288085202888951 8.7260435345298793e-05 -5.5235496256500488e-05 7.6533574610948565e-05 -0.00031595672480762006 0.00020430622789174765 -0.00011273522276035831 1.2582830095198005e-05 0.00023485496640205384 0.00014544620062224568 0.00015565938083454968 5.7326816022396092e-05 -5.5482255993410946e-05 0.00020724060013890269 -6.8463606294244531e-05 2.9201630968600512e-05 -0.00025326004251837733 -8.0092859207070433e-06 -3.6127239582128823e-05
leaf_weight=60 34 26 30 43 30 30 30 30 30 90 30 46 187 30 60 30 67 146 30 60 60 60 30 60 30 30 30 30 60 30
leaf_count=60 34 26 30 43 30 30 30 30 30 90 30 46 187 30 60 30 67 146 30 60 60 60 30 60 30 30 30 30 60 30
internal_value=1.08265e-13 9.59425e-05 -0.00013513 -0.000106693 4.9078e-05 -0.000127893 -0.000176223 0.000172767 6.5865e-05 -0.000218715 -5.64233e-06 8.98951e-05 0.00010219 -8.83681e-05 2.67492e-05 -0.000258121 0.000186223 -0.00010292 5.52167e-05 0.000210971 0.000169812 0.000181323 3.14505e-05 -4.32504e-05 0.00022565 -8.20344e-05 4.21509e-05 -0.000238842 -1.71831e-06 -4.56814e-05
internal_weight=1539 900 639 519 559 429 193 341 473 133 90 293 233 236 180 120 311 176 90 124 187 127 60 86 90 60 60 90 90 60
internal_count=1539 900 639 519 559 429 193 341 473 133 90 293 233 236 180 120 311 176 90 124 187 127 60 86 90 60 60 90 90 60
is_linear=0
shrinkage=0.05


Tree=21
num_leaves=31
num_cat=0
split_feature=7 10 10 0 10 0 8 2 8 13 0 0 8 0 2 5 0 2 0 5 0 10 0 0 5 0 0 0 0 0
split_gain=0.00720294 0.00116976 0.000806796 0.000467386 0.000318522 0.000407584 0.000312771 0.000231039 0.000130622 9.26566e-05 5.05051e-05 4.83021e-05 4.46234e-05 5.4439e-05 4.44503e-05 4.28026e-05 4.00761e-05 2.74933e-05 2.71475e-05 1.93517e-05 1.69972e-05 1.67874e-05 1.45032e-05 1.07194e-05 8.84579e-06 5.5953e-06 3.37708e-06 1.04829e-06 6.64205e-08 6.33655e-08
threshold=0.54685326298162384 19.420604127732222 25.723055584095402 0.0060890578474062504 39.166184476999526 0.0025544119552895505 0.51102409188886921 -0.00045174484029319995 1.7573635761785023 -0.71602625066404102 1.0000000180025095e-35 -0.0011860804375990498 0.61382018295469198 -0.0036392535374765497 -0.043737198045175639 0.0054483703609439016 -0.013326444836034098 -0.035034873037086543 -0.00080855106979714996 0.0056973418742509007 0.00070974303507925004 28.56865559798845 0.0065972975720116006 0.0083192319646373022 0.0071480024045094508 0.0054699711770441013 -0.0019652427413076995 0.0015589889456557502 0.0093788507389773509 -0.0044385424890815992
decision_type=2 2 2 2 2 2 2 2 2 2 2 2 2 2 2 2 2 2 2 2 2 2 2 2 2 2 2 2 2 2
left_child=2 7 11 4 5 14 23 12 9 18 17 26 27 19 -4 -11 -10 -6 -8 -14 -12 -18 -5 -3 -15 -7 29 -2 -25 -1
right_child=1 6 3 22 10 25 8 -9 16 15 20 -13 13 24 -16 -17 21 -19 -20 -21 -22 -23 -24 28 -26 -27 -28 -29 -30 -31
leaf_value=-0.00021842624992132189 0.00013156490167602898 -1.4271783584263176e-05 -0.00017137634567916394 5.4460472892969849e-05 -9.0092429309152075e-05 -6.2689827863386902e-05 0.00015835527119634207 3.1617021886631849e-05 7.5703515904024243e-05 1.032045329338871e-05 -0.00013274746178107899 -0.00030015890952199702 0.0001898758811876178 0.00022561521922696885 -0.00024165383074432613 7.3934363586527422e-05 -7.6088217610958964e-06 -4.639735949846606e-05 9.5434568356722601e-05 0.00015353038064897697 -9.3120333981024073e-05 2.9793674548272976e-05 5.2953895647078756e-06 -5.4371729493141178e-05 0.00019294695230200889 -9.0824905782938004e-05 -0.00024059705901890993 0.00014478289522230626 -5.1044556312263015e-05 -0.00022167600691318514
leaf_weight=30 30 26 30 30 60 43 40 30 30 30 43 30 60 67 90 223 60 90 30 94 73 60 30 30 30 30 30 30 30 30
leaf_count=30 30 26 30 30 60 43 40 30 30 30 43 30 60 67 90 223 60 90 30 94 73 60 30 30 30 30 30 30 30 30
internal_value=-9.09613e-13 9.11454e-05 -0.000128374 -0.000101359 -0.000118514 -0.000167412 4.66241e-05 0.000164129 6.25717e-05 8.04775e-05 -8.30347e-05 -0.000245215 0.000176911 0.000186171 -0.000224084 6.63912e-05 2.40146e-05 -6.38754e-05 0.000131389 0.000167691 -0.00010781 1.10924e-05 2.98779e-05 -4.10878e-05 0.000215512 -7.42522e-05 -0.0002269 0.000138174 -5.27081e-05 -0.000220051
internal_weight=1539 900 639 519 459 193 559 341 473 323 266 120 311 251 120 253 150 150 70 154 116 120 60 86 97 73 90 60 60 60
internal_count=1539 900 639 519 459 193 559 341 473 323 266 120 311 251 120 253 150 150 70 154 116 120 60 86 97 73 90 60 60 60
is_linear=0
shrinkage=0.05


Tree=22
num_leaves=31
num_cat=0
split_feature=6 0 1 10 2 6 6 1 3 0 6 9 1 6 0 0 0 0 5 12 0 3 5 0 0 5 3 0 0 0
split_gain=0.00621437 0.00117734 0.000881423 0.000629809 0.000533838 0.000208143 0.000179708 0.000109067 8.77191e-05 8.62074e-05 5.41754e-05 5.0901e-05 4.69017e-05 3.51496e-05 3.36718e-05 4.26112e-05 2.74212e-05 2.13275e-05 2.02009e-05 1.86824e-05 1.82201e-05 1.61047e-05 1.55001e-05 1.12239e-05 1.00878e-05 8.4387e-06 7.01784e-06 3.6993e-06 2.88101e-06 2.80794e-06
threshold=0.0081976983130216518 -1.0000000180025095e-35 -0.008864240980542698 39.166184476999526 -0.043392458466168647 0.0094476346556811013 0.010116854952058702 -0.0040032187963474491 -0.047272831922308141 0.0016334309378130503 0.010758805525703902 -403002.97456300008 0.0055179735003143002 0.0091945870319144526 -0.0036392535374765497 0.0015589889456557502 -0.0056037909273994992 0.0015236675841051501 0.0055343889112757011 -3.0887801078807908 0.004656263828338651 -0.027181217910191947 0.0049580988349445512 0.0020886390401929004 -0.0019067212504120497 0.0071480024045094508 -0.06081325559413809 -0.0019652427413076995 0.0035995701375608007 -0.00080855106979714996
decision_type=2 2 2 2 2 2 2 2 2 2 2 2 2 2 2 2 2 2 2 2 2 2 2 2 2 2 2 2 2 2
left_child=2 3 8 13 9 21 20 11 14 17 -8 -4 -9 -2 18 25 -14 -3 -1 29 -7 28 27 -11 -5 -16 -20 -15 -6 -13
right_child=1 4 7 24 5 6 10 12 -10 23 -12 19 16 22 15 -17 -18 -19 26 -21 -22 -23 -24 -25 -26 -27 -28 -29 -30 -31
leaf_value=0.00018038208363577724 -0.00028515094891190529 -0.00012611008877324505 3.8090071757324044e-05 -5.0077610649168494e-05 -0.00010011325357481838 3.6346665729070084e-05 -5.1779830455327932e-05 -1.5507768694078551e-06 8.8931617761232163e-05 -0.0001628075260668993 1.5038382251839001e-05 7.1928030229173609e-05 1.0464005026733504e-05 -0.00020904856501147151 0.00021499513382358212 0.00013754374813288451 6.9010176230221989e-05 -7.1180495433509355e-05 0.00012398572871461511 0.00011419221991673113 7.8990269549797441e-05 -5.5008891759414792e-05 -0.00025800948496907951 -0.0002060584956780076 -8.5587808280251926e-05 0.00018329960294067861 0.00015176098144791548 -0.00022660632384940982 -7.9924527821022772e-05 9.0662838192656647e-05
leaf_weight=60 30 43 60 30 30 60 103 90 37 30 43 60 30 60 70 30 60 30 30 60 43 73 30 30 60 30 94 60 43 30
leaf_count=60 30 43 60 30 30 60 103 90 37 30 43 60 30 60 70 30 60 30 30 60 43 73 30 30 60 30 94 60 43 30
internal_value=-1.98564e-13 -9.68182e-05 0.000104266 -0.000181747 -5.33887e-05 -2.42154e-05 3.57715e-06 5.2532e-05 0.000161748 -0.000140031 -3.21005e-05 7.70119e-05 2.3972e-05 -0.000235745 0.000170328 0.000189807 4.94948e-05 -0.000103536 0.000156565 9.25807e-05 5.41493e-05 -7.16151e-05 -0.000225864 -0.000184433 -7.37511e-05 0.000205486 0.000145041 -0.000217827 -8.82213e-05 7.8173e-05
internal_weight=1539 798 741 270 528 395 249 390 351 133 146 210 180 180 314 130 90 73 184 150 103 146 150 60 90 100 124 120 73 90
internal_count=1539 798 741 270 528 395 249 390 351 133 146 210 180 180 314 130 90 73 184 150 103 146 150 60 90 100 124 120 73 90
is_linear=0
shrinkage=0.05


Tree=23
num_leaves=31
num_cat=0
split_feature=7 10 10 5 10 8 2 2 8 13 6 7 6 2 8 5 2 6 10 6 2 6 6 2 2 2 5 2 2 2
split_gain=0.00587879 0.000951691 0.000655976 0.000354665 0.000409292 0.000252861 0.000189599 0.000138066 0.00010692 7.56265e-05 6.87549e-05 4.24862e-05 3.93035e-05 3.61678e-05 3.59723e-05 3.41939e-05 3.26879e-05 2.23042e-05 2.16921e-05 2.27714e-05 1.95128e-05 1.87907e-05 1.84505e-05 1.13583e-05 9.38011e-06 9.12713e-06 2.77982e-06 7.78326e-07 6.62248e-08 5.71872e-08
threshold=0.54685326298162384 19.420604127732222 25.723055584095402 0.0042777611798016507 39.166184476999526 0.51102409188886921 -0.00045174484029319995 -0.014400688891271798 1.7573635761785023 -0.71602625066404102 0.0096473154930124521 0.45325673232959413 0.0091945870319144526 -0.043737198045175639 0.61382018295469198 0.0054483703609439016 -0.0044491477960333491 0.0058179603480160011 17.400592226302141 0.0054449083784891003 -0.012183928273206949 0.0075967065639819505 0.010539413464131403 -0.033025758048475941 -0.057778590658261249 -0.010995128215444848 0.0032539237709999004 -0.00352852120037095 -0.0066587383690342493 -0.030728613891327347
decision_type=2 2 2 2 2 2 2 2 2 2 2 2 2 2 2 2 2 2 2 2 2 2 2 2 2 2 2 2 2 2
left_child=2 6 12 10 7 25 14 13 9 17 -4 24 -1 -5 27 -11 -10 -7 20 -20 -16 -18 -13 -12 -6 -3 -14 -2 -27 -28
right_child=1 5 3 4 11 8 -8 -9 16 15 23 22 26 -15 18 -17 21 -19 19 -21 -22 -23 -24 -25 -26 28 29 -29 -30 -31
leaf_value=-0.00027089340146631004 0.00013066655956208705 -1.1936041119042784e-05 -5.680489188688266e-05 -0.00015466714976355436 -9.2978859902359553e-05 8.6129695409908899e-05 2.8131666476838293e-05 -8.2287430996075275e-05 6.8321934668347248e-05 9.8819691629614681e-06 4.2787010897882288e-06 -7.2446633566869423e-05 -0.00021723688114434482 -0.00021805990642557541 0.00011778644984588027 6.6739923230397431e-05 -1.4536262218219541e-06 0.00014316208980744705 0.00014692375244682328 0.00019447643300230357 0.00016434919089078904 4.4239472481422132e-05 -3.8488440623041242e-05 4.7787936637178063e-05 -0.00012893398525193334 -4.9064151244238023e-05 -0.00019705251324921849 0.00011927704326808453 -4.5741882058791819e-05 -0.00020013977773487569
leaf_weight=30 30 26 43 30 60 30 30 30 30 30 30 120 30 90 30 223 90 40 34 97 90 30 60 30 26 30 30 30 30 30
leaf_count=30 30 26 43 30 60 30 30 30 30 30 30 120 30 90 30 223 90 40 34 97 90 30 60 30 26 30 30 30 30 30
internal_value=-3.69708e-13 8.23425e-05 -0.000115975 -9.16157e-05 -0.000112183 4.21849e-05 0.000148173 -0.000178227 5.6524e-05 7.2724e-05 -8.54962e-06 -7.49395e-05 -0.000221331 -0.000202212 0.000159752 5.99979e-05 2.16401e-05 0.00011872 0.000168066 0.000182135 0.000152709 9.96965e-06 -6.11272e-05 2.60333e-05 -0.000103849 -3.66804e-05 -0.00020481 0.000124972 -4.7403e-05 -0.000198596
internal_weight=1539 900 639 519 416 559 341 150 473 323 103 266 120 120 311 253 150 70 251 131 120 120 180 60 86 86 90 60 60 60
internal_count=1539 900 639 519 416 559 341 150 473 323 103 266 120 120 311 253 150 70 251 131 120 120 180 60 86 86 90 60 60 60
is_linear=0
shrinkage=0.05


Tree=24
num_leaves=31
num_cat=0
split_feature=7 10 10 3 7 1 6 13 1 2 7 2 1 1 1 6 1 13 2 1 3 1 1 3 1 6 6 3 1 1
split_gain=0.00530561 0.000858901 0.000592018 0.000269304 0.00022733 0.000207522 0.000205927 0.000176195 0.000171113 9.23072e-05 8.29319e-05 5.53798e-05 3.6632e-05 3.54714e-05 3.43798e-05 3.35159e-05 3.29691e-05 1.9249e-05 1.9007e-05 1.72867e-05 1.57116e-05 1.34432e-05 1.98502e-05 1.22962e-05 1.02509e-05 8.23629e-06 7.28203e-06 4.95526e-06 3.94115e-06 3.5988e-06
threshold=0.54685326298162384 19.420604127732222 25.723055584095402 -0.037155007641972694 0.46085589323153064 -0.0040032187963474491 0.010720073744438802 -0.34547756194177309 -0.0073153214312201486 0.009858218361437552 0.76393353251675544 -0.043392458466168647 -0.013811566170492997 -0.0027245060146296497 -0.017076827582606598 0.0094964934767372017 -0.0039385590985523489 -0.88443434744865035 0.020436395031689553 0.0059272173857267008 -0.013210457631607499 -0.0093029459489308488 -0.016303083073906845 -0.052409578968192143 0.0051885512758009008 0.0064917249973333513 0.0094546766022143517 -0.027181217910191947 -0.016934821259719048 -0.017700452723838446
decision_type=2 2 2 2 2 2 2 2 2 2 2 2 2 2 2 2 2 2 2 2 2 2 2 2 2 2 2 2 2 2
left_child=2 8 13 7 11 10 16 23 14 19 15 -5 -12 -1 17 26 -6 -2 20 -7 -11 22 -16 -4 -9 -14 -3 -13 -25 -19
right_child=1 5 3 4 6 9 -8 24 -10 18 12 27 25 -15 21 -17 -18 29 -20 -21 -22 -23 -24 28 -26 -27 -28 -29 -30 -31
leaf_value=-0.00019456923473626375 0.00014012844561982682 1.4232938004058007e-05 -4.3951396946795285e-05 -0.00011461213241916063 -0.00016589317820034922 -7.0781605245429098e-06 -4.5640440657734874e-05 4.0647657442605125e-06 2.6725084171630443e-05 9.7006788564613099e-06 0.00013539344495670363 -2.7487595798447731e-05 9.9223251933889354e-05 -0.00025734873488545421 0.00011189712677150965 8.6286489386111503e-05 -0.00021830908954143525 0.00019135787733830513 7.0428143953904512e-05 -4.5032864727545535e-05 5.4017192451283338e-05 0.00011872320901602508 0.00015843516268488982 -9.1771540085806752e-05 4.5398541260510683e-05 7.1420130020336868e-05 4.3494172859936957e-05 -5.3964645011610421e-05 -7.412943959934638e-05 0.0001701482106000185
leaf_weight=90 34 73 30 43 60 60 30 30 30 60 33 30 34 30 30 26 60 60 30 60 30 60 97 43 30 123 30 43 120 30
leaf_count=90 34 73 30 43 60 60 30 30 30 60 33 30 34 30 30 26 60 60 30 60 30 60 97 43 30 123 30 43 120 30
internal_value=1.68307e-13 7.82254e-05 -0.000110177 -8.70349e-05 -0.000122161 4.00756e-05 -0.000162809 -5.01042e-05 0.000140764 4.95308e-06 6.65001e-05 -6.95985e-05 8.75066e-05 -0.000210264 0.000151765 3.55603e-05 -0.000192101 0.00017218 3.59617e-05 -2.60555e-05 2.44729e-05 0.000138227 0.000147442 -7.33692e-05 2.47317e-05 7.74412e-05 2.27556e-05 -4.30837e-05 -7.87835e-05 0.000184288
internal_weight=1539 900 639 519 266 559 150 253 341 240 319 116 190 120 311 129 120 124 120 120 90 187 127 193 60 157 103 73 163 90
internal_count=1539 900 639 519 266 559 150 253 341 240 319 116 190 120 311 129 120 124 120 120 90 187 127 193 60 157 103 73 163 90
is_linear=0
shrinkage=0.05


Tree=25
num_leaves=30
num_cat=0
split_feature=7 10 10 0 10 0 8 5 8 13 0 0 5 8 0 5 0 0 9 6 5 7 0 8 5 0 0 0 0
split_gain=0.00478831 0.000775158 0.000534296 0.000305941 0.000212115 0.000268878 0.00021138 0.000154429 8.68294e-05 6.08213e-05 3.51275e-05 3.20129e-05 3.07749e-05 2.92997e-05 3.68298e-05 2.81424e-05 2.59443e-05 1.91116e-05 1.90702e-05 1.63501e-05 1.35717e-05 1.26711e-05 9.25142e-06 8.22869e-06 6.48714e-06 3.8046e-06 2.50879e-06 7.02441e-07 5.16113e-08
threshold=0.54685326298162384 19.420604127732222 25.723055584095402 0.0060890578474062504 39.166184476999526 0.0025544119552895505 0.51102409188886921 0.0043502292334931013 1.7573635761785023 -0.71602625066404102 1.0000000180025095e-35 -0.0011860804375990498 0.0046188755614056014 0.61382018295469198 -0.0036392535374765497 0.0054483703609439016 -0.013326444836034098 -0.00080855106979714996 -559076.69793499995 0.0075967065639819505 0.0070919673694813511 0.48509850290447948 0.0065972975720116006 0.37286552212996465 0.0071480024045094508 0.0054699711770441013 -0.0019652427413076995 0.0015589889456557502 -0.0044385424890815992
decision_type=2 2 2 2 2 2 2 2 2 2 2 2 2 2 2 2 2 2 2 2 2 2 2 2 2 2 2 2 2
left_child=2 7 11 4 5 12 23 -2 9 17 18 26 -4 27 20 -11 -10 -8 -6 -18 -15 -12 -5 -3 -16 -7 28 -9 -1
right_child=1 6 3 22 10 25 8 13 16 15 21 -13 -14 14 24 -17 19 -19 -20 -21 -22 -23 -24 -25 -26 -27 -28 -29 -30
leaf_value=-0.0001774714211933315 2.5388828362338245e-05 -1.8568957349025581e-05 -0.00013863913482055069 4.3128614197485153e-05 -3.7075154250487688e-05 -5.126641548866796e-05 0.00012965506131877192 0.00010737702250480653 6.1334832571446904e-05 8.9028369984589524e-06 -9.8032243400920458e-05 -0.00024448130279779433 -0.00019711505156010391 0.00014378021850491003 0.00018446497313344659 6.0484831202086149e-05 -1.3066841347608717e-06 7.6862052083015442e-05 -7.3466307367198172e-05 4.1315853013657038e-05 0.00010630226461216807 -6.0292665148153907e-05 3.8615275116171691e-06 -4.9501534708407386e-05 0.00015648904955014589 -7.4466591468080881e-05 -0.00019664657302200796 0.00011819706996902825 -0.00018040431896224619
leaf_weight=30 30 43 30 30 90 43 40 30 30 30 86 30 90 124 67 223 90 30 60 30 30 30 30 43 30 30 30 30 30
leaf_count=30 30 43 30 30 90 43 40 30 30 30 86 30 90 124 67 223 90 30 60 30 30 30 30 43 30 30 30 30 30
internal_value=-4.53861e-14 7.43141e-05 -0.000104668 -8.26832e-05 -9.65627e-05 -0.000136466 3.80718e-05 0.000133726 5.11822e-05 6.5781e-05 -6.76101e-05 -0.000199751 -0.000182496 0.000144176 0.00015168 5.43684e-05 1.97461e-05 0.000107029 -5.16316e-05 9.34895e-06 0.000136479 -8.8272e-05 2.34951e-05 -3.40352e-05 0.000175813 -6.08007e-05 -0.000184841 0.000112787 -0.000178938
internal_weight=1539 900 639 519 459 193 559 341 473 323 266 120 120 311 251 253 150 70 150 120 154 116 60 86 97 73 90 60 60
internal_count=1539 900 639 519 459 193 559 341 473 323 266 120 120 311 251 253 150 70 150 120 154 116 60 86 97 73 90 60 60
is_linear=0
shrinkage=0.05


Tree=26
num_leaves=30
num_cat=0
split_feature=7 10 10 0 10 0 8 1 1 10 1 6 1 0 0 1 10 0 13 5 5 0 8 0 0 0 0 0 0
split_gain=0.00432145 0.00069958 0.000482202 0.000276111 0.000191434 0.000242662 0.000190771 0.000139372 9.86864e-05 4.78041e-05 5.02443e-05 3.2418e-05 3.20696e-05 2.88917e-05 2.80332e-05 2.80184e-05 1.84158e-05 1.72932e-05 1.62672e-05 1.29316e-05 1.47878e-05 8.34941e-06 7.42639e-06 3.43365e-06 3.21293e-06 2.62521e-06 2.26418e-06 1.8281e-06 4.65795e-08
threshold=0.54685326298162384 19.420604127732222 25.723055584095402 0.0060890578474062504 39.166184476999526 0.0025544119552895505 0.51102409188886921 -0.0073153214312201486 -0.0040032187963474491 45.826686004350989 -0.013811566170492997 0.011639787850372101 0.0055179735003143002 -0.0011860804375990498 0.0016334309378130503 -0.017076827582606598 48.0438335095645 -0.0056037909273994992 -0.88443434744865035 0.0071208786865949005 0.0056482333097462511 0.0065972975720116006 0.37286552212996465 0.0054699711770441013 0.0014273162019670003 -0.0036392535374765497 -0.0019652427413076995 -0.0039605010214170998 -0.0044385424890815992
decision_type=2 2 2 2 2 2 2 2 2 2 2 2 2 2 2 2 2 2 2 2 2 2 2 2 2 2 2 2 2
left_child=2 7 13 4 5 14 22 15 9 10 -8 16 27 26 -4 18 -6 -14 -2 20 -17 -5 -3 -7 -11 -20 28 -10 -1
right_child=1 6 3 21 11 23 8 -9 12 24 -12 -13 17 -15 -16 19 -18 -19 25 -21 -22 -23 -24 -25 -26 -27 -28 -29 -30
leaf_value=-0.0001685978495515883 0.0001259330173899584 -1.7640510232859229e-05 -0.00019753787782974543 4.0972183342091739e-05 -6.5282335257774764e-05 -4.8703091560191542e-05 0.00012358664231293878 2.4119387671817097e-05 -6.6589183916221374e-06 3.8295221747830511e-05 6.5256678347536847e-05 -0.00010397990943517449 9.5937866717576981e-06 -0.0002322572283446789 -0.00014920466346666217 0.00014776820179951541 -3.2882059895200658e-05 5.6087296979967507e-05 0.00015445178141817453 0.00015315067615698686 0.00011041290417779237 3.6684512451756748e-06 -4.7026457654875382e-05 -7.0743256947025665e-05 1.5154611901380122e-05 0.000172566733090207 -0.00018681425135582688 8.4576953668147329e-06 -0.00017138411058112979
leaf_weight=30 34 43 60 30 163 43 46 30 60 30 187 43 30 30 60 34 60 60 30 33 120 30 43 30 30 60 30 30 30
leaf_count=30 34 43 60 30 163 43 46 30 60 30 187 43 30 30 60 34 60 60 30 33 120 30 43 30 30 60 30 30 30
internal_value=4.30222e-13 7.05984e-05 -9.94343e-05 -7.8549e-05 -9.17346e-05 -0.000129643 3.61682e-05 0.00012704 4.86231e-05 6.65238e-05 7.67725e-05 -6.42296e-05 1.94847e-05 -0.000189763 -0.000173371 0.000136968 -5.65648e-05 4.05895e-05 0.000155397 0.000124747 0.00011866 2.23203e-05 -3.23335e-05 -5.77607e-05 2.67249e-05 0.000166528 -0.000175599 -1.62005e-06 -0.000169991
internal_weight=1539 900 639 519 459 193 559 341 473 293 233 266 180 120 120 311 223 90 124 187 154 60 86 73 60 90 90 90 60
internal_count=1539 900 639 519 459 193 559 341 473 293 233 266 180 120 120 311 223 90 124 187 154 60 86 73 60 90 90 90 60
is_linear=0
shrinkage=0.05


Tree=27
num_leaves=31
num_cat=0
split_feature=7 10 10 0 0 7 3 2 0 2 9 0 3 0 0 9 11 0 0 0 0 3 0 0 0 0 0 0 0 0
split_gain=0.00390011 0.000631371 0.000435188 0.000249191 0.000173987 0.000151348 0.000146963 0.000125784 9.57267e-05 8.80864e-05 4.65626e-05 3.61297e-05 2.95933e-05 2.60747e-05 2.32389e-05 2.11408e-05 2.90792e-05 2.02947e-05 1.96479e-05 2.66634e-05 1.10144e-05 9.98069e-06 7.53534e-06 6.29432e-06 4.37127e-06 3.53373e-06 2.89967e-06 2.04342e-06 1.74929e-06 1.02739e-06
threshold=0.54685326298162384 19.420604127732222 25.723055584095402 0.0060890578474062504 -0.0028355604536896496 0.75015812479637378 -0.026806949240610146 -0.00045174484029319995 0.0043615465826864512 -0.016261009342197846 -4218.6375865 -0.00080855106979714996 -0.031297145444406142 -0.0011860804375990498 0.0035995701375608007 -534782.11548499973 -20.445945266073405 0.004656263828338651 -0.0041764287475157995 -0.0021090803051458493 -0.0036392535374765497 -0.024851637325257695 0.0065972975720116006 -0.0019954371104266995 -0.0063133560247083491 0.00065365142917655009 0.0014273162019670003 -0.0019652427413076995 -0.0039605010214170998 -0.0060096432816185994
decision_type=2 2 2 2 2 2 2 2 2 2 2 2 2 2 2 2 2 2 2 2 2 2 2 2 2 2 2 2 2 2
left_child=2 7 13 4 -4 9 12 15 -8 17 18 -12 -6 27 28 23 20 26 21 -20 -17 -7 -5 29 -18 -13 -3 -1 -11 -2
right_child=1 5 3 22 6 10 8 -9 -10 14 11 25 -14 -15 -16 16 24 -19 19 -21 -22 -23 -24 -25 -26 -27 -28 -29 -30 -31
leaf_value=-0.00016149142757058144 0.00014672919642180207 3.6380463279783724e-05 -0.00020355791784822943 3.8923573447391392e-05 -6.9375982521875307e-05 5.2249414147809153e-05 -0.00015175097311536474 2.2913418069947512e-05 -4.8618536675348883e-05 -9.0399560576770461e-06 2.7510544896358627e-06 6.9756113225594171e-05 -3.2948528947500028e-05 -0.00022064438089728356 -4.2504259091738154e-05 0.00011896255001535312 0.00012161206686869264 7.8275619307532915e-05 0.00011750336204386258 5.5146246450021866e-05 0.0001542748179331067 8.4493093891069296e-05 3.485028719296679e-06 0.00016711375415873002 9.9573540501296528e-05 4.5487729948945343e-05 1.4396882033906878e-05 -0.00017747352831065655 8.0348101619165401e-06 0.00013364366022869945
leaf_weight=60 30 30 30 30 236 120 90 30 30 30 60 30 73 30 73 34 30 26 40 30 63 30 30 34 90 30 30 30 30 30
leaf_count=60 30 30 30 30 236 120 90 30 30 30 60 30 73 30 73 34 30 26 40 30 63 30 30 34 90 30 30 30 30 30
internal_value=2.07783e-13 6.70685e-05 -9.44626e-05 -7.46216e-05 -8.71478e-05 3.43598e-05 -7.90073e-05 0.000120688 -0.000125968 1.94302e-06 5.52401e-05 3.01865e-05 -6.07701e-05 -0.000180275 -2.35561e-05 0.000130119 0.000121539 4.13777e-05 6.89057e-05 9.07789e-05 0.000141897 5.86982e-05 2.12043e-05 0.000149926 0.000105083 5.76219e-05 2.53887e-05 -0.000166819 -5.02573e-07 0.000140186
internal_weight=1539 900 639 519 459 559 429 341 120 219 340 120 309 120 133 311 217 86 220 70 97 150 60 94 120 60 60 90 60 60
internal_count=1539 900 639 519 459 559 429 341 120 219 340 120 309 120 133 311 217 86 220 70 97 150 60 94 120 60 60 90 60 60
is_linear=0
shrinkage=0.05


Tree=28
num_leaves=31
num_cat=0
split_feature=7 10 10 0 0 1 3 1 0 2 7 6 0 0 1 1 0 13 2 0 5 5 0 7 0 0 0 0 0 0
split_gain=0.00351985 0.000569813 0.000392757 0.000224894 0.000157024 0.000138878 0.000132634 0.00011352 8.63933e-05 6.32229e-05 5.75552e-05 2.82182e-05 2.74157e-05 2.35324e-05 2.34671e-05 2.29742e-05 1.67422e-05 1.33885e-05 1.33574e-05 1.16579e-05 1.0205e-05 1.21281e-05 9.74885e-06 7.06861e-06 6.80065e-06 2.18089e-06 1.84419e-06 1.40462e-07 4.20376e-08 1.17988e-10
threshold=0.54685326298162384 19.420604127732222 25.723055584095402 0.0060890578474062504 -0.0028355604536896496 -0.0040032187963474491 -0.026806949240610146 -0.0073153214312201486 0.0043615465826864512 0.009858218361437552 0.76393353251675544 0.011639787850372101 0.004656263828338651 -0.0011860804375990498 -0.013811566170492997 -0.017076827582606598 0.0014273162019670003 -0.88443434744865035 0.020436395031689553 0.0083192319646373022 0.0071208786865949005 0.0056482333097462511 0.00065365142917655009 1.0103516981396228 0.0065972975720116006 -0.0036392535374765497 -0.0019652427413076995 -0.0053172253741294489 -0.0044385424890815992 0.0093788507389773509
decision_type=2 2 2 2 2 2 2 2 2 2 2 2 2 2 2 2 2 2 2 2 2 2 2 2 2 2 2 2 2 2
left_child=2 7 13 4 -4 10 11 15 -8 19 12 -6 16 26 -12 17 -3 -2 22 27 21 -17 -11 -16 -5 -19 28 -7 -1 -21
right_child=1 5 3 24 6 9 8 -9 -10 18 14 -13 -14 -15 23 20 -18 25 -20 29 -22 -23 -24 -25 -26 -27 -28 -29 -30 -31
leaf_value=-0.00015209339326247573 0.00011357134961358766 3.396809624973685e-05 -0.00019338001729920509 3.6977394483983519e-05 -5.1656597196754716e-05 -3.7495410651899874e-06 -0.00014416342601180078 2.1767747239209714e-05 -4.6187610132619744e-05 8.3048071246594191e-06 0.00011008651186288758 -9.5312117577292207e-05 7.4361839506309482e-05 -0.00020961214322596789 5.0743041629175427e-05 0.00013350073302931647 -6.9094157160454714e-06 0.00013939273776486516 5.8465660549700262e-05 -3.7407688796520237e-05 0.00013777940661053765 9.9671217321883892e-05 4.3213341268710795e-05 7.2387793903892981e-05 3.3107771741924807e-06 0.0001559036783874035 -0.00016859985189512374 -8.5879582911729813e-06 -0.00015474032843485475 -3.7267457810230556e-05
leaf_weight=30 34 60 30 30 266 30 90 30 30 60 33 43 26 30 63 34 43 30 30 30 33 120 30 94 30 60 30 30 30 30
leaf_count=30 34 60 30 30 266 30 90 30 30 60 33 43 26 30 63 34 43 30 30 30 33 120 30 94 30 60 30 30 30 30
internal_value=6.60108e-14 6.3715e-05 -8.97395e-05 -7.08905e-05 -8.27904e-05 3.26418e-05 -7.50569e-05 0.000114653 -0.000119669 3.9095e-06 5.42586e-05 -5.77316e-05 2.84836e-05 -0.000171261 7.17585e-05 0.000123613 1.69027e-05 0.000140302 2.95722e-05 -2.17532e-05 0.000112547 0.00010714 1.9941e-05 6.37023e-05 2.01441e-05 0.0001504 -0.000158478 -6.16875e-06 -0.000153417 -3.73376e-05
internal_weight=1539 900 639 519 459 559 429 341 120 240 319 309 129 120 190 311 103 124 120 120 187 154 90 157 60 90 90 60 60 60
internal_count=1539 900 639 519 459 559 429 341 120 240 319 309 129 120 190 311 103 124 120 120 187 154 90 157 60 90 90 60 60 60
is_linear=0
shrinkage=0.05


Tree=29
num_leaves=29
num_cat=0
split_feature=7 10 10 0 8 0 3 1 0 1 2 1 3 1 0 1 0 0 5 5 0 8 1 0 0 0 0 0
split_gain=0.00317667 0.000514256 0.000354463 0.000202967 0.000145001 0.000141714 0.000119702 0.000102451 7.797e-05 7.31843e-05 3.45622e-05 3.87067e-05 2.60976e-05 2.40503e-05 2.1238e-05 2.07342e-05 1.26317e-05 1.02153e-05 9.20999e-06 1.09456e-05 6.13758e-06 5.3139e-06 3.83607e-06 2.12979e-06 1.66438e-06 1.3683e-06 3.79391e-08 2.41526e-09
threshold=0.54685326298162384 19.420604127732222 25.723055584095402 0.0060890578474062504 0.51102409188886921 -0.0028355604536896496 -0.026806949240610146 -0.0073153214312201486 0.0043615465826864512 -0.0040032187963474491 -0.026751804866155349 -0.013811566170492997 -0.031297145444406142 0.0055179735003143002 -0.0011860804375990498 -0.017076827582606598 -0.0056037909273994992 -0.0036392535374765497 0.0071208786865949005 0.0056482333097462511 0.0065972975720116006 0.37286552212996465 -0.017700452723838446 0.0014273162019670003 -0.0019652427413076995 -0.0039605010214170998 -0.0044385424890815992 -0.00032319759938484997
decision_type=2 2 2 2 2 2 2 2 2 2 2 2 2 2 2 2 2 2 2 2 2 2 2 2 2 2 2 2
left_child=2 7 14 5 21 -4 12 15 -8 10 23 -12 -7 25 24 17 -15 22 19 -17 -5 -3 -2 -6 26 -11 -1 -19
right_child=1 4 3 20 9 6 8 -9 -10 13 11 -13 -14 16 -16 18 -18 27 -20 -21 -22 -23 -24 -25 -26 -27 -28 -29
leaf_value=-0.0001444887137040496 0.00010789278415305651 -1.6283061555695047e-05 -0.00018371101468801499 3.5128524177707736e-05 3.2863035448826851e-05 -6.2926645194361831e-05 -0.00013695524927849573 2.0679360022768379e-05 -4.3878229917027056e-05 -5.8603121942724105e-06 0.00010708692994819065 5.5890329875737391e-05 -2.8718272638698556e-05 8.5613042756449428e-06 -0.00019913155119866133 0.00012682568802333932 4.8297527246177201e-05 0.00014842572854831815 0.00013089043680917131 9.4687653472647071e-05 3.1452382245333865e-06 -4.1140558950732964e-05 0.00013242310378700495 1.4022507821209729e-05 -0.00016016986919566991 7.2178292612079533e-06 -0.00014700330793857575 0.00014779126504436136
leaf_weight=30 34 43 30 30 30 236 90 30 30 60 46 187 73 30 30 34 60 30 33 120 30 43 30 30 30 30 30 30
leaf_count=30 34 43 30 30 30 236 90 30 30 60 46 187 73 30 30 34 60 30 33 120 30 43 30 30 30 30 30 30
internal_value=1.73271e-13 6.05293e-05 -8.52525e-05 -6.7346e-05 3.10097e-05 -7.86509e-05 -7.13041e-05 0.000108921 -0.000113686 4.18682e-05 5.72835e-05 6.59978e-05 -5.48451e-05 1.67756e-05 -0.000162698 0.000117433 3.50521e-05 0.000133287 0.00010692 0.000101783 1.91369e-05 -2.87118e-05 0.000119391 2.34428e-05 -0.000150554 -1.50093e-06 -0.000145746 0.000148108
internal_weight=1539 900 639 519 559 459 429 341 120 473 293 233 309 180 120 311 90 124 187 154 60 86 64 60 90 90 60 60
internal_count=1539 900 639 519 559 459 429 341 120 473 293 233 309 180 120 311 90 124 187 154 60 86 64 60 90 90 60 60
is_linear=0
shrinkage=0.05


Tree=30
num_leaves=29
num_cat=0
split_feature=7 10 10 5 10 8 2 2 8 3 3 5 7 2 3 8 2 7 10 6 2 6 2 2 6 5 2 2
split_gain=0.00286694 0.000464116 0.000319903 0.000172842 0.000200587 0.000130863 9.24624e-05 6.64597e-05 5.66993e-05 3.35859e-05 3.33898e-05 2.83105e-05 2.58424e-05 2.38499e-05 1.91673e-05 1.80404e-05 1.4985e-05 1.3407e-05 1.15468e-05 1.10931e-05 1.03827e-05 8.03656e-06 7.95058e-06 5.53917e-06 5.44531e-06 1.5021e-06 6.33952e-07 3.42401e-08
threshold=0.54685326298162384 19.420604127732222 25.723055584095402 0.0042777611798016507 39.166184476999526 0.51102409188886921 -0.00045174484029319995 -0.014400688891271798 1.7573635761785023 -0.027181217910191947 -0.047272831922308141 0.0066350005371799007 0.45325673232959413 -0.043737198045175639 -0.027479782591102699 0.61382018295469198 -0.0044491477960333491 0.47297856842888547 17.400592226302141 0.0054449083784891003 -0.012183928273206949 0.0075967065639819505 -0.057778590658261249 -0.033025758048475941 0.010265996847639203 0.0032539237709999004 -0.00352852120037095 -0.030728613891327347
decision_type=2 2 2 2 2 2 2 2 2 2 2 2 2 2 2 2 2 2 2 2 2 2 2 2 2 2 2 2
left_child=2 6 14 9 7 24 15 13 10 23 -7 -12 22 -5 25 26 -10 -14 20 -20 -17 -18 -6 -4 -3 -1 -2 -27
right_child=1 5 3 4 12 8 -8 -9 16 -11 11 -13 17 -15 -16 18 21 -19 19 -21 -22 -23 -24 -25 -26 27 -28 -29
leaf_value=-0.0001521613681688905 9.2069950187578808e-05 -3.9857708128862258e-05 2.9879764042561876e-06 -0.00010260345879942179 -6.4803007990121839e-05 9.922784308648923e-05 1.9645391148515046e-05 -5.8008136693388228e-05 4.5978880370967091e-05 -3.9717084105494758e-05 4.0455600574773599e-05 8.9016087996937783e-05 -2.2193588665686548e-05 -0.00015408149144301815 -0.00018917496781796218 8.0769887426868087e-05 -1.0004516904397557e-06 -5.1140721916453918e-05 0.00010313703883987141 0.00013632696150734868 0.0001147351188895603 2.8881832258775832e-05 -9.7905175061896449e-05 3.3372099278494718e-05 -1.4694729281134558e-05 -0.00013726428151130676 8.1790913827717315e-05 -0.00013965314719825985
leaf_weight=30 30 43 30 30 60 33 30 30 30 43 256 34 60 90 30 30 90 120 34 97 90 30 26 30 43 30 30 30
leaf_count=30 30 43 30 30 60 33 30 30 30 43 256 34 60 90 30 30 90 120 34 97 90 30 26 30 43 30 30 30
internal_value=4.42514e-13 5.75028e-05 -8.09899e-05 -6.39787e-05 -7.83363e-05 2.94593e-05 0.000103475 -0.000124571 3.97748e-05 -5.99061e-06 5.15718e-05 4.61489e-05 -5.2264e-05 -0.000141212 -0.000154563 0.000111561 1.43719e-05 -4.14917e-05 0.000117449 0.000127713 0.000106244 6.47012e-06 -7.48106e-05 1.818e-05 -2.72762e-05 -0.000143026 8.69304e-05 -0.000138459
internal_weight=1539 900 639 519 416 559 341 150 473 103 323 290 266 120 120 311 150 180 251 131 120 120 86 60 86 90 60 60
internal_count=1539 900 639 519 416 559 341 150 473 103 323 290 266 120 120 311 150 180 251 131 120 120 86 60 86 90 60 60
is_linear=0
shrinkage=0.05


Tree=31
num_leaves=31
num_cat=0
split_feature=7 10 10 5 10 8 1 1 2 6 2 1 1 1 1 2 1 1 13 1 8 5 8 1 1 2 1 1 1 1
split_gain=0.00258741 0.000418865 0.000288712 0.00015599 0.00018103 0.000118104 8.34474e-05 6.0611e-05 5.99798e-05 3.03112e-05 3.00737e-05 3.25124e-05 2.45454e-05 2.15245e-05 2.08502e-05 1.86504e-05 1.72985e-05 1.71029e-05 1.03941e-05 1.01826e-05 7.21008e-06 5.64264e-06 4.99995e-06 4.9991e-06 3.77613e-06 2.26792e-06 1.92214e-06 1.52828e-06 1.35565e-06 8.57217e-07
threshold=0.54685326298162384 19.420604127732222 25.723055584095402 0.0042777611798016507 39.166184476999526 0.51102409188886921 -0.0073153214312201486 -0.0040032187963474491 -0.014400688891271798 0.0096473154930124521 -0.026751804866155349 -0.013811566170492997 -0.016934821259719048 -0.0099940316534379483 0.0055179735003143002 -0.035034873037086543 -0.0027245060146296497 -0.017076827582606598 -0.88443434744865035 0.0088684001363770523 0.93283670202974156 0.0056482333097462511 0.37286552212996465 0.0051885512758009008 -0.017338469973922448 -0.016497478564706448 -0.0091776035789242483 -0.017700452723838446 -0.0042147377244153494 -0.0020813621612574998
decision_type=2 2 2 2 2 2 2 2 2 2 2 2 2 2 2 2 2 2 2 2 2 2 2 2 2 2 2 2 2 2
left_child=2 6 16 9 8 22 17 10 13 -4 26 -12 24 -5 29 -14 28 18 -2 -16 21 -19 -3 -11 -6 -22 -7 -20 -1 -9
right_child=1 5 3 4 12 7 -8 14 -10 23 11 -13 15 -15 19 -17 -18 20 27 -21 25 -23 -24 -25 -26 -27 -28 -29 -30 -31
leaf_value=-0.00013153578038327396 9.6829608082771301e-05 -1.3856393309461691e-05 -3.7731228769908468e-05 -9.7473285859450701e-05 -9.3009913689456888e-05 2.9197102412581445e-05 1.8663122318685055e-05 4.8341578803956515e-06 -5.5107730440795427e-05 2.8385775294736959e-06 9.7601666904823943e-05 5.0680106910403805e-05 -5.4711785924155269e-05 -0.00014637741648281614 4.3859872675966471e-05 -2.460172399878502e-05 -0.00017971622291952373 0.00010820840252563358 0.00013388672959990799 8.1832615251187245e-06 0.00010002547642216087 8.3270406485685424e-05 -3.7968423499097661e-05 3.1703495187684895e-05 -6.6975952358916407e-05 0.00011888688964330976 1.129860247601755e-05 0.00012006518663838507 -0.00014455330092459919 -5.517274075828027e-06
leaf_weight=60 34 43 43 30 26 30 30 30 30 30 46 187 120 90 60 90 30 30 60 30 30 93 43 30 30 34 30 30 30 60
leaf_count=60 34 43 43 30 26 30 30 30 30 30 46 187 120 90 60 90 30 30 60 30 30 93 43 30 30 34 30 30 30 60
internal_value=2.38513e-13 5.46277e-05 -7.69404e-05 -6.07797e-05 -7.44195e-05 2.79863e-05 9.83008e-05 3.77861e-05 -0.000118343 -5.69107e-06 5.18148e-05 5.99436e-05 -4.96508e-05 -0.000134151 1.49504e-05 -4.18075e-05 -0.000146835 0.000105983 0.000120382 3.19677e-05 9.64349e-05 8.93528e-05 -2.59124e-05 1.7271e-05 -7.90631e-05 0.000110046 2.02479e-05 0.00012928 -0.000135875 -2.0668e-06
internal_weight=1539 900 639 519 416 559 341 473 150 103 293 233 266 120 180 210 120 311 124 90 187 123 86 60 56 64 60 90 90 90
internal_count=1539 900 639 519 416 559 341 473 150 103 293 233 266 120 180 210 120 311 124 90 187 123 86 60 56 64 60 90 90 90
is_linear=0
shrinkage=0.05


Tree=32
num_leaves=31
num_cat=0
split_feature=7 13 0 1 1 1 0 8 8 0 3 0 3 12 1 12 6 5 5 1 5 3 0 0 0 0 6 0 0 1
split_gain=0.00233514 0.000374398 0.000241226 0.000177778 0.000157711 0.000124447 6.23947e-05 5.65532e-05 4.68876e-05 4.0325e-05 3.69937e-05 1.99408e-05 1.68975e-05 2.18952e-05 1.3778e-05 1.36802e-05 9.70356e-06 9.25626e-06 8.47048e-06 7.16789e-06 6.76671e-06 6.487e-06 6.11491e-06 5.65984e-06 5.60873e-06 5.39132e-06 5.11232e-06 4.51169e-06 4.48442e-06 4.19742e-06
threshold=0.54685326298162384 -0.62192883750136407 -1.0000000180025095e-35 -0.0054549567215894492 -0.011566540522699948 -0.0095557289828367472 -0.0028355604536896496 0.46268667479193887 0.81845290147711547 0.0060890578474062504 -0.026806949240610146 -0.0036392535374765497 -0.038782752615185392 -3.1598369458166347 -0.0020813621612574998 -15.442283372954048 0.0093916084153818514 0.0066350005371799007 0.0055343889112757011 -0.015979603159052096 0.0049580988349445512 -0.013210457631607499 0.0043615465826864512 -0.0019067212504120497 -0.0022968283032751995 0.0020886390401929004 0.010265996847639203 0.0065972975720116006 -0.00047970463249884997 -0.017338469973922448
decision_type=2 2 2 2 2 2 2 2 2 2 2 2 2 2 2 2 2 2 2 2 2 2 2 2 2 2 2 2 2 2
left_child=2 4 3 6 11 10 -1 26 17 22 15 18 -9 -14 -10 -4 -5 28 -2 -13 -18 -15 -7 -8 -19 -12 -3 -11 -6 -17
right_child=1 7 5 16 8 9 23 12 14 27 25 19 13 21 -16 29 20 24 -20 -21 -22 -23 -24 -25 -26 -27 -28 -29 -30 -31
