tree
version=v4
num_class=1
num_tree_per_iteration=1
label_index=0
max_feature_idx=14
objective=regression
feature_names=returns_1h returns_6h returns_24h momentum_5d momentum_20d volatility_6h volatility_24h volatility_ratio volume_ratio obv rsi macd macd_signal bb_position price_position
feature_infos=[-0.0145885754055355:0.0100620493040415] [-0.0301580698835274:0.0097939885173926999] [-0.063651591289782095:0.0209171359613835] [-0.073924050632911395:-0.00082946250829459998] none [0.0021252421661412:0.0071511509792581999] [0.0052460504526583001:0.0117617807832114] [0.21263239966093869:1.1561684178924745] [0.2377191907499539:2.7167041709440376] [-215205274.46923321:-722.24404718000665] [15.191740412979229:48.514851485148462] [-737.93017439475079:-0.00054809781749879998] [-624.15101149742827:-0.00035811543063439999] [-0.9107630900008884:0.094021578712230006] none
tree_sizes=2957 3045 3048 3057 3052 3054 3044 3059

Tree=0
num_leaves=31
num_cat=0
split_feature=7 13 13 1 5 1 1 8 8 1 1 2 3 1 8 3 3 3 12 5 13 3 1 1 1 1 5 1 1 3
split_gain=0.0718322 0.0117362 0.00603138 0.0046737 0.00305192 0.00253069 0.00176565 0.00139794 0.00107326 0.00153993 0.00101547 0.000638333 0.000597436 0.000471091 0.000424714 0.000414633 0.000406498 0.000382742 0.000334237 0.000245215 0.000187906 0.000197742 0.000142668 0.000104828 9.50179e-05 6.72243e-05 6.03752e-05 5.11603e-05 3.46897e-05 2.44284e-05
threshold=0.54685326298162384 -0.62192883750136407 -0.47379514982674564 -0.011566540522699948 0.0042777611798016507 -0.012930543198402148 -0.0020152262359882998 0.46268667479193887 0.30777182954804666 -0.0039385590985523489 -0.0020813621612574998 -0.027161163881830448 -0.050717537274098994 -0.0027245060146296497 0.62585767525137281 -0.026806949240610146 -0.031297145444406142 -0.038782752615185392 -3.1598369458166347 0.0066350005371799007 -0.88443434744865035 -0.06405582917929524 -0.013811566170492997 0.0059272173857267008 0.0051885512758009008 -0.0091776035789242483 0.0065856209501232504 -0.0015964735684347998 -0.0042147377244153494 -0.013210457631607499
decision_type=2 2 2 2 2 2 2 2 2 2 2 2 2 2 2 2 2 2 2 2 2 2 2 2 2 2 2 2 2 2
left_child=2 3 5 12 11 15 8 23 9 -6 14 24 20 28 19 -1 -10 27 25 -5 -2 -22 -14 -3 -4 -19 -16 -9 -7 -20
right_child=1 7 4 10 6 13 -8 17 16 -11 -12 -13 22 -15 26 -17 -18 18 29 -21 21 -23 -24 -25 -26 -27 -28 -29 -30 -31
leaf_value=-0.010544220456537731 -0.0098212492793562627 -0.010331645349422582 -0.010273936457131606 -0.0099946977253372368 -0.01053255360970794 -0.010942878627776095 -0.010999590274193873 -0.010238262005848776 -0.01058734386180794 -0.01103916561628281 -0.010308376017972444 -0.010493489284315694 -0.0098452472121134289 -0.011179921658956994 -0.010132460900829721 -0.010786417242386926 -0.010436640423038591 -0.010139828896397342 -0.010032799738576684 -0.0098606914211506087 -0.0097504841252786158 -0.0096570823430639739 -0.0099874136962607388 -0.010451842610971618 -0.010148094011718024 -0.010231496993626899 -0.010050556365647901 -0.010318230947494123 -0.011004962515333283 -0.010091587155373383
leaf_weight=43 55 26 30 90 30 90 30 60 176 30 30 30 60 30 30 30 60 30 43 55 170 85 25 60 30 60 90 30 30 30
leaf_count=43 55 26 30 90 30 90 30 60 176 30 30 30 60 30 30 30 60 30 43 55 170 85 25 60 30 60 90 30 30 30
internal_value=-0.010259 -0.0100004 -0.0106754 -0.00988209 -0.0105629 -0.0108852 -0.0106341 -0.0102414 -0.010597 -0.0107859 -0.0100327 -0.0103052 -0.00976963 -0.0110027 -0.0100015 -0.0106438 -0.010549 -0.0101822 -0.0101365 -0.00994387 -0.00973743 -0.00971935 -0.00988706 -0.0104155 -0.010211 -0.0102009 -0.010071 -0.0102649 -0.0109584 -0.010057
internal_weight=1668 1029 639 690 416 223 326 339 296 60 295 90 395 150 265 73 236 253 163 145 310 255 85 86 60 90 120 90 120 73
internal_count=1668 1029 639 690 416 223 326 339 296 60 295 90 395 150 265 73 236 253 163 145 310 255 85 86 60 90 120 90 120 73
is_linear=0
shrinkage=1


Tree=1
num_leaves=31
num_cat=0
split_feature=7 13 13 1 5 1 1 8 8 1 1 2 2 1 8 6 13 5 12 2 13 1 1 1 1 1 1 1 5 6
split_gain=0.0648286 0.0105919 0.00544332 0.00421801 0.00275436 0.00228395 0.0015935 0.00126164 0.000968619 0.00138979 0.000916462 0.000576095 0.000535053 0.00042516 0.000384735 0.000374206 0.000366864 0.000345425 0.000301649 0.000244021 0.000242092 0.000129282 9.46068e-05 8.57537e-05 7.09506e-05 6.06699e-05 4.61721e-05 3.13074e-05 2.94512e-05 2.20467e-05
threshold=0.54685326298162384 -0.62192883750136407 -0.47379514982674564 -0.011566540522699948 0.0042777611798016507 -0.012930543198402148 -0.0020152262359882998 0.46268667479193887 0.30777182954804666 -0.0039385590985523489 -0.0020813621612574998 -0.027161163881830448 -0.0060875416361930992 -0.0027245060146296497 0.81845290147711547 0.0088351841388678524 -0.22836966988874988 0.0054483703609439016 -3.1598369458166347 -0.0019386045234512999 -0.88443434744865035 -0.017700452723838446 0.0059272173857267008 0.0051885512758009008 -0.013811566170492997 -0.0091776035789242483 -0.0015964735684347998 -0.0042147377244153494 0.0065856209501232504 0.0071169866492294511
decision_type=2 2 2 2 2 2 2 2 2 2 2 2 2 2 2 2 2 2 2 2 2 2 2 2 2 2 2 2 2 2
left_child=2 3 5 12 11 15 8 22 9 -6 14 23 20 27 19 -1 -10 26 25 -5 -2 -22 -3 -4 -14 -19 -9 -7 -16 -20
right_child=1 7 4 10 6 13 -8 17 16 -11 -12 -13 24 -15 28 -17 -18 18 29 -21 21 -23 -24 -25 -26 -27 -28 -29 -30 -31
leaf_value=-0.00050103426910936839 0.00041524325771366853 -6.900095686432906e-05 -1.4177510456647725e-05 0.00033053482639724795 -0.00025986379478126764 -0.00064967259143789606 -0.00070354864001274118 1.9713217443495524e-05 -0.00031191453824497083 -0.00074114520102739343 -4.6895098057575525e-05 -0.00022275268565863371 0.00037207005079835658 -0.00087486347183585167 0.00012022426817566157 -0.00027094730771644868 -0.00016874627908691764 0.0001132246688939631 0.00015905433101579547 0.00020614693639799955 0.0005768610397353769 0.00049293124212477449 -0.00018318835645914078 0.00010537281632423402 0.00025801912415772675 2.6139977762795752e-05 -5.6257279356941585e-05 -0.00070865224115550522 0.00018089876975864173 0.00021490237383215232
leaf_weight=30 85 26 30 115 30 90 30 60 176 30 30 30 30 30 30 43 60 30 30 60 60 195 60 30 25 60 30 30 60 43
leaf_count=30 85 26 30 115 30 90 30 60 176 30 30 30 30 30 30 43 60 30 30 60 60 195 60 30 25 60 30 30 60 43
internal_value=-5.4308e-14 0.000245639 -0.00039556 0.000358081 -0.000288714 -0.000594878 -0.000356314 1.67768e-05 -0.000321122 -0.000500504 0.000215031 -4.38525e-05 0.000464915 -0.000706507 0.000244683 -0.000365504 -0.000275516 7.30144e-05 0.000116427 0.000287888 0.00048832 0.000512679 -0.000148667 4.55977e-05 0.000320229 5.51682e-05 -5.61028e-06 -0.000664418 0.000160674 0.000191951
internal_weight=1668 1029 639 690 416 223 326 339 296 60 295 90 395 150 265 73 236 253 163 175 340 255 86 60 55 90 90 120 90 73
internal_count=1668 1029 639 690 416 223 326 339 296 60 295 90 395 150 265 73 236 253 163 175 340 255 86 60 55 90 90 120 90 73
is_linear=0
shrinkage=0.05


Tree=2
num_leaves=31
num_cat=0
split_feature=7 13 13 1 5 1 1 8 8 1 1 2 3 1 8 3 3 3 2 1 7 2 2 1 1 1 1 1 5 1
split_gain=0.0585078 0.00955923 0.0049126 0.00380676 0.00248581 0.00206126 0.00143813 0.00113863 0.000874178 0.00125429 0.000827107 0.000519926 0.000486803 0.000383707 0.000347223 0.000337721 0.000331095 0.000311746 0.000220229 0.000178049 0.00016787 0.000287727 0.000142551 0.000116152 8.53827e-05 7.73927e-05 4.38791e-05 2.8255e-05 2.65797e-05 1.31729e-05
threshold=0.54685326298162384 -0.62192883750136407 -0.47379514982674564 -0.011566540522699948 0.0042777611798016507 -0.012930543198402148 -0.0020152262359882998 0.46268667479193887 0.30777182954804666 -0.0039385590985523489 -0.0020813621612574998 -0.027161163881830448 -0.050717537274098994 -0.0027245060146296497 0.81845290147711547 -0.026806949240610146 -0.031297145444406142 -0.038782752615185392 -0.0019386045234512999 0.0088684001363770523 1.0660943880136287 -0.016497478564706448 -0.026751804866155349 -0.013811566170492997 0.0059272173857267008 0.0051885512758009008 -0.0040032187963474491 -0.0042147377244153494 0.0065856209501232504 -0.0015964735684347998
decision_type=2 2 2 2 2 2 2 2 2 2 2 2 2 2 2 2 2 2 2 2 2 2 2 2 2 2 2 2 2 2
left_child=2 3 5 12 11 15 8 24 9 -6 14 25 20 27 18 -1 -10 26 -5 22 21 -2 -19 -14 -3 -4 -9 -7 -16 -28
right_child=1 7 4 10 6 13 -8 17 16 -11 -12 -13 23 -15 28 -17 -18 19 -20 -21 -22 -23 -24 -25 -26 -27 29 -29 -30 -31
leaf_value=-0.00025739994030012645 0.0003523669523102316 -6.5550908038858332e-05 -1.3468635734170677e-05 0.00031400808720323054 -0.00024687061086297034 -0.00061718894479175412 -0.00066837118938565263 4.4043603702448314e-05 -0.00029631881823826756 -0.00070408796891570098 -4.4550342136062684e-05 -0.00021161506883800031 0.0003733944497071207 -0.00083112036809325225 0.00011421305825933815 -0.00047598253004252914 -0.00016030896222218871 7.8327019582502555e-05 0.00019583959365263582 5.7535512496542653e-07 0.00054996018721298746 0.00048149910755455492 0.00018235356770200683 0.00024511816445738077 -0.00017402893863618376 0.00010010417317971588 -6.5884916693903507e-06 -0.00067321965470910081 0.00017185383476316931 -5.3444417426362639e-05
leaf_weight=43 55 26 30 115 30 90 30 30 176 30 30 30 60 30 30 30 60 60 60 30 55 200 73 25 60 30 30 30 60 30
leaf_count=43 55 26 30 115 30 90 30 30 176 30 30 30 60 30 30 30 60 60 60 30 55 200 73 25 60 30 30 30 60 30
internal_value=-1.27815e-12 0.000233357 -0.000375782 0.000340177 -0.000274279 -0.000565134 -0.000338499 1.59379e-05 -0.000305066 -0.000475479 0.000204279 -4.16598e-05 0.000441669 -0.000671181 0.000232449 -0.000347228 -0.00026174 6.93637e-05 0.000273493 0.000110605 0.000470735 0.000453647 0.000135424 0.000335666 -0.000141233 4.33178e-05 -5.32977e-06 -0.000631197 0.00015264 -3.00165e-05
internal_weight=1668 1029 639 690 416 223 326 339 296 60 295 90 395 150 265 73 236 253 175 163 310 255 133 85 86 60 90 120 90 60
internal_count=1668 1029 639 690 416 223 326 339 296 60 295 90 395 150 265 73 236 253 175 163 310 255 133 85 86 60 90 120 90 60
is_linear=0
shrinkage=0.05


Tree=3
num_leaves=31
num_cat=0
split_feature=7 13 0 1 1 1 0 8 0 3 1 3 0 0 1 3 12 6 5 11 0 0 0 0 0 1 6 0 3 0
split_gain=0.0528033 0.00862721 0.00454382 0.0034356 0.0030881 0.00240921 0.00105111 0.00102762 0.000844699 0.000835185 0.000746464 0.000439439 0.000401461 0.000314434 0.000331705 0.000281351 0.000245695 0.000236093 0.000127043 0.000118165 0.000116114 7.70578e-05 6.98469e-05 6.33308e-05 5.66763e-05 5.22119e-05 4.40236e-05 3.96009e-05 3.4533e-05 3.29438e-05
threshold=0.54685326298162384 -0.62192883750136407 -1.0000000180025095e-35 -0.011566540522699948 -0.0054549567215894492 -0.0095557289828367472 -0.0028355604536896496 0.46268667479193887 0.0060890578474062504 -0.026806949240610146 -0.0020813621612574998 -0.048586856964560693 -0.0036392535374765497 -0.0022968283032751995 -0.0078973048064577989 -0.038782752615185392 -3.1598369458166347 0.0093916084153818514 0.0056973418742509007 -17.669989041860045 0.0020886390401929004 0.0083192319646373022 0.0065972975720116006 0.0043615465826864512 -0.0024334063799262497 -0.0091776035789242483 0.0075967065639819505 -0.0013486994273826998 -0.06405582917929524 -0.0019067212504120497
decision_type=2 2 2 2 2 2 2 2 2 2 2 2 2 2 2 2 2 2 2 2 2 2 2 2 2 2 2 2 2 2
left_child=2 3 4 11 6 9 -1 21 23 19 13 12 18 26 -15 27 25 -6 -2 -4 -11 -3 -10 -7 -13 -17 -5 -9 -14 -8
right_child=1 7 5 10 17 8 29 15 22 20 -12 24 28 14 -16 16 -18 -19 -20 -21 -22 -23 -24 -25 -26 -27 -28 -29 -30 -31
leaf_value=-0.00058011687360703945 0.00044702007435262205 -6.227336270967499e-05 -0.00022826483148301758 0.00017844171961769464 -0.00078956428915262229 -0.00015229351120069624 -0.00019558963831514122 -2.8515632220660339e-05 9.5098966266959908e-05 -0.00045218341983854771 -4.2322825174778705e-05 0.00033479682169854644 0.00047317269782070075 0.00033391066689920777 0.00018036245601251724 0.00010364708723500372 0.00017323588684507428 -0.00063274262938648471 0.00035726880027062223 -0.00032977870432659984 -0.00059129591099917891 -0.00016532748704776168 -1.2795203656423838e-05 -0.00022494037402793766 0.00023286223877221348 2.2860419971948434e-05 0.00010850240942090751 4.1841424535959963e-05 0.00051894202718839931 -0.00025976112810894848
leaf_weight=30 60 26 43 90 30 60 30 60 30 30 30 30 80 85 60 30 73 120 115 86 30 60 30 60 25 60 30 30 85 60
leaf_count=30 60 26 43 90 30 60 30 60 30 30 30 30 80 85 60 30 73 120 115 86 30 60 30 60 25 60 30 30 85 60
internal_value=2.13573e-12 0.00022169 -0.000356993 0.000323168 -0.000512863 -0.000242942 -0.000323807 1.5141e-05 -0.000112027 -0.000367623 0.000194065 0.000419586 0.000440797 0.000220826 0.000270373 6.58955e-05 0.000105075 -0.000664107 0.000388041 -0.000295941 -0.00052174 -0.000134172 4.11519e-05 -0.000188617 0.000288463 4.97893e-05 0.000160957 -5.06328e-06 0.000496751 -0.000238371
internal_weight=1668 1029 639 690 270 369 120 339 180 189 295 395 340 265 145 253 163 150 175 129 60 86 60 120 55 90 120 90 165 90
internal_count=1668 1029 639 690 270 369 120 339 180 189 295 395 340 265 145 253 163 150 175 129 60 86 60 120 55 90 120 90 165 90
is_linear=0
shrinkage=0.05


Tree=4
num_leaves=31
num_cat=0
split_feature=7 13 10 10 0 10 0 8 0 6 0 3 2 3 3 0 0 5 13 0 2 5 2 0 0 5 2 3 0 0
split_gain=0.047655 0.00778606 0.00453851 0.0028592 0.00267841 0.00163696 0.00217707 0.000927423 0.000877945 0.000358019 0.000286532 0.000270839 0.000263754 0.000256783 0.000253919 0.000229025 0.000277946 0.000208933 0.000153289 0.000148299 0.000114733 0.000114657 0.000104739 6.95447e-05 6.30368e-05 4.25825e-05 4.05986e-05 3.74189e-05 3.57398e-05 2.36721e-05
threshold=0.54685326298162384 -0.62192883750136407 25.723055584095402 18.960353767612727 0.0060890578474062504 39.166184476999526 0.0025544119552895505 0.46268667479193887 -0.0041764287475157995 0.0066304481492392006 -0.0011860804375990498 -0.047272831922308141 -0.043737198045175639 -0.031297145444406142 -0.038782752615185392 -0.0036392535374765497 0.0015589889456557502 0.0066350005371799007 -0.38042711967859133 -0.0056037909273994992 -0.026751804866155349 0.0056973418742509007 -0.00352852120037095 0.0083192319646373022 0.0065972975720116006 0.0071480024045094508 1.0000000180025095e-35 -0.06081325559413809 -0.0013486994273826998 -0.0019652427413076995
decision_type=2 2 2 2 2 2 2 2 2 2 2 2 2 2 2 2 2 2 2 2 2 2 2 2 2 2 2 2 2 2
left_child=2 3 10 15 5 6 12 23 9 -5 29 22 -4 18 28 21 25 -13 -7 -16 -21 -2 -10 -3 -6 -17 -11 -23 -9 -1
right_child=1 7 4 8 24 13 -8 14 11 26 -12 17 -14 -15 19 16 -18 -19 -20 20 -22 27 -24 -25 -26 -27 -28 -29 -30 -31
leaf_value=-0.00055352479685097931 0.00042466905433684592 -5.9159695229027424e-05 -0.00042957426048815254 -4.0206682751886549e-05 9.0344017371535309e-05 -0.00023026443051552415 -0.00021168224366815535 -2.7089848663308659e-05 0.00042820228263735772 0.00013611813386281332 -0.0007500860840082169 0.00018601339063881075 -0.00060076435717443635 -0.00014467884320765734 -5.9643366512318607e-07 0.00049411960115486927 0.00031201222445815803 0.00035044704563915732 -0.00032043638671046661 7.1247981395572424e-05 0.00016457409795679866 0.00029139716643840076 0.00030639088945463302 -0.00015706111444160344 -1.2155443255323918e-05 0.00042691598646342759 0.00020328178070485594 0.00035634942571906482 3.9749353891238574e-05 -0.00060792155563831334
leaf_weight=60 60 26 30 30 30 133 73 60 25 90 30 85 90 60 30 110 30 25 73 60 73 30 60 60 30 30 30 85 30 30
leaf_count=60 60 26 30 30 30 133 73 60 25 90 30 85 90 60 30 110 30 25 73 60 73 30 60 60 30 30 30 85 30 30
internal_value=-1.29974e-12 0.000210605 -0.000339143 0.000307009 -0.000275069 -0.000316136 -0.000426989 1.4384e-05 0.000205228 0.000114286 -0.000616264 0.000275184 -0.000557967 -0.000235706 6.26007e-05 0.000408791 0.000450124 0.000223385 -0.000262219 9.98214e-05 0.000122472 0.000368639 0.000342218 -0.000127463 3.90943e-05 0.000479719 0.000152909 0.000339405 -4.81011e-06 -0.000571657
internal_weight=1668 1029 639 690 519 459 193 339 345 150 120 195 120 266 253 345 170 110 206 163 133 175 85 86 60 140 120 115 90 90
internal_count=1668 1029 639 690 519 459 193 339 345 150 120 195 120 266 253 345 170 110 206 163 133 175 85 86 60 140 120 115 90 90
is_linear=0
shrinkage=0.05


Tree=5
num_leaves=31
num_cat=0
split_feature=6 0 1 10 13 6 3 3 13 6 1 1 9 6 0 0 0 0 0 5 0 5 0 0 3 0 3 8 0 1
split_gain=0.0419873 0.00659975 0.0057999 0.00332317 0.00262393 0.00111782 0.000854134 0.000702193 0.000606559 0.000721494 0.000591053 0.000262994 0.000254343 0.000226925 0.000206085 0.000234304 0.000170143 0.000150874 0.000123079 0.000103478 9.16578e-05 7.51348e-05 5.21084e-05 3.39223e-05 3.37705e-05 2.97318e-05 2.79696e-05 2.4632e-05 2.05402e-05 1.9083e-05
threshold=0.0081976983130216518 -1.0000000180025095e-35 -0.008864240980542698 39.166184476999526 -0.36670852679825289 0.011639787850372101 -0.026806949240610146 -0.048586856964560693 -0.22836966988874988 0.0094476346556811013 -0.0040032187963474491 0.0055179735003143002 -403002.97456300008 0.0091945870319144526 -0.0036392535374765497 0.0015589889456557502 -0.0041764287475157995 -0.0056037909273994992 -0.00047970463249884997 0.0056973418742509007 0.0020886390401929004 0.0055343889112757011 -0.0032452425051676995 0.0015236675841051501 -0.06081325559413809 -0.0019067212504120497 -0.06405582917929524 0.38952905890790473 -0.0013486994273826998 -0.0062151437896279492
decision_type=2 2 2 2 2 2 2 2 2 2 2 2 2 2 2 2 2 2 2 2 2 2 2 2 2 2 2 2 2 2
left_child=2 3 7 13 6 8 23 14 9 -6 12 -12 28 -2 19 26 -9 -13 29 -1 -8 -18 -15 -3 -21 -5 -16 -10 -4 -14
right_child=1 4 10 25 5 -7 20 16 27 -11 11 17 18 22 15 -17 21 -19 -20 24 -22 -23 -24 -25 -26 -27 -28 -29 -30 -31
leaf_value=0.0004034356214106083 -0.00071258177049458036 -0.00028330131899565462 9.6271379152312886e-05 -0.00017429693834856153 -0.00016419798254880104 -0.00031914473673718617 -0.00040809554047882557 0.00014416336780413987 -9.6509022825007706e-05 7.1405940476885509e-05 -2.9889021000902478e-05 -5.6661197049834306e-07 0.00014623774914070963 -0.00052584854420274503 0.00042709810950327667 0.00029641159344464543 0.00021191847044974566 0.00013676221133209764 0.00027940524742007259 0.00027682732325047256 -0.00053169289603829386 0.00031645891087299046 -0.00058600365494688349 -0.00022155209146656617 0.00033853195114609075 -0.00023525984724983575 0.00046828892903731157 -0.00014251240451509755 3.7761885323561728e-05 0.00018611573032103481
leaf_weight=60 30 30 30 30 43 43 30 30 43 133 90 30 60 60 80 30 25 60 30 30 30 55 90 86 85 60 85 90 30 60
leaf_count=60 30 30 30 30 43 43 30 30 43 133 90 30 60 60 80 30 25 60 30 30 30 55 90 86 85 60 85 90 30 60
internal_value=2.08126e-13 -0.000261932 0.000240255 -0.000463012 -0.000159108 -8.02919e-05 -0.00031674 0.000356623 -4.70535e-05 1.38436e-05 9.70336e-05 3.05485e-05 0.000154021 -0.000587048 0.000389597 0.000424947 0.00024571 9.09859e-05 0.000188822 0.000350207 -0.000469894 0.00028379 -0.000561942 -0.000237522 0.000322435 -0.000214939 0.000448318 -0.000127639 6.70166e-05 0.000166177
internal_weight=1668 798 870 270 528 352 176 480 309 176 390 180 210 180 370 195 110 90 150 175 60 80 150 116 115 90 165 133 60 120
internal_count=1668 798 870 270 528 352 176 480 309 176 390 180 210 180 370 195 110 90 150 175 60 80 150 116 115 90 165 133 60 120
is_linear=0
shrinkage=0.05


Tree=6
num_leaves=31
num_cat=0
split_feature=7 13 10 1 0 10 0 8 8 3 0 0 1 1 3 3 12 0 13 1 5 0 0 1 0 0 5 3 0 5
split_gain=0.038859 0.00632357 0.00368842 0.00253244 0.00215892 0.00133548 0.00177267 0.00075866 0.000558284 0.000319633 0.000295111 0.000233792 0.000229839 0.000215223 0.000210365 0.00020898 0.000186405 0.000143995 0.000124598 0.000120432 9.33886e-05 6.3498e-05 5.68907e-05 4.28096e-05 3.99599e-05 3.21993e-05 2.54872e-05 2.0645e-05 1.89495e-05 1.80257e-05
threshold=0.54685326298162384 -0.62192883750136407 25.723055584095402 -0.011566540522699948 0.0060890578474062504 39.166184476999526 0.0025544119552895505 0.46268667479193887 0.81845290147711547 -0.048586856964560693 -0.0036392535374765497 -0.0011860804375990498 -0.0020813621612574998 -0.0099940316534379483 -0.031297145444406142 -0.038782752615185392 -3.1598369458166347 -0.0022968283032751995 -0.38042711967859133 -0.0062151437896279492 0.0056973418742509007 0.0083192319646373022 0.0065972975720116006 -0.0091776035789242483 -0.0024334063799262497 -0.0039605010214170998 0.0071480024045094508 -0.013210457631607499 -0.0019652427413076995 0.0065856209501232504
decision_type=2 2 2 2 2 2 2 2 2 2 2 2 2 2 2 2 2 2 2 2 2 2 2 2 2 2 2 2 2 2
left_child=2 3 11 9 5 6 13 21 17 10 20 28 29 -4 18 25 23 -5 -7 -19 -2 -3 -6 -17 -11 -9 -12 -18 -1 -10
right_child=1 7 4 8 22 14 -8 15 12 24 26 -13 -14 -15 -16 16 27 19 -20 -21 -22 -23 -24 -25 -26 -27 -28 -29 -30 -31
leaf_value=-0.00049955612048506741 0.00038326382637023928 -4.9684034456731753e-05 -0.00038769075181335213 0.00016038355533964932 8.2256516907364141e-05 -0.00020789735393836759 -0.00019119904418029402 -4.6497469884343449e-05 9.1457809321582328e-05 0.00028691450133919719 0.00043516541331040646 -0.00067695267498493197 -3.6701897624880078e-05 -0.000542331129933397 -0.00013031928101554514 9.1332040028646588e-05 0.00017229890624104546 0.00028633321909343496 -0.00028919383775034591 0.00016980797518044712 0.0003063133350856926 -0.00014323252835310996 -1.5117968723643571e-05 1.8180126699007814e-05 0.00020132253412157299 1.694472475719522e-05 0.00038421526551246643 0.00011825532419607043 -0.00054822526872158053 0.00013892585411667824
leaf_weight=60 60 26 30 60 30 133 73 30 30 30 135 30 30 90 60 30 43 85 73 30 115 60 30 60 25 60 30 30 30 60
leaf_count=60 60 26 30 60 30 133 73 30 30 30 135 30 30 90 60 30 43 85 73 30 115 60 30 60 25 60 30 30 30 60
internal_value=4.19196e-13 0.000190178 -0.000306249 0.000277058 -0.000248487 -0.000285357 -0.000385482 1.33431e-05 0.000166216 0.000359838 0.000377928 -0.000556073 8.31519e-05 -0.000503671 -0.000212709 5.69527e-05 9.07195e-05 0.000223175 -0.000236706 0.000255935 0.000332696 -0.00011495 3.35693e-05 4.25641e-05 0.000248009 -4.20267e-06 0.000425902 0.000150089 -0.000515779 0.000123103
internal_weight=1668 1029 639 690 519 459 193 339 295 395 340 120 120 120 266 253 163 175 206 115 175 86 60 90 55 90 165 73 90 90
internal_count=1668 1029 639 690 519 459 193 339 295 395 340 120 120 120 266 253 163 175 206 115 175 86 60 90 55 90 165 73 90 90
is_linear=0
shrinkage=0.05


Tree=7
num_leaves=31
num_cat=0
split_feature=7 13 0 1 1 1 0 8 0 3 8 2 0 1 3 12 6 0 1 5 12 0 0 0 0 1 0 0 0 0
split_gain=0.0350702 0.00570702 0.00302015 0.00228553 0.00206571 0.0015799 0.000697396 0.00068469 0.000552021 0.000542659 0.000503851 0.000288469 0.000266337 0.00020743 0.000188605 0.000168231 0.000154206 0.000129956 0.00010869 8.42832e-05 8.30624e-05 7.21854e-05 5.73069e-05 5.13439e-05 4.41392e-05 3.86357e-05 3.60638e-05 2.90599e-05 2.6833e-05 2.4803e-05
threshold=0.54685326298162384 -0.62192883750136407 -1.0000000180025095e-35 -0.011566540522699948 -0.0054549567215894492 -0.0095557289828367472 -0.0028355604536896496 0.46268667479193887 0.0060890578474062504 -0.026806949240610146 0.81845290147711547 -0.0060875416361930992 -0.0036392535374765497 -0.0020813621612574998 -0.038782752615185392 -3.1598369458166347 0.0093916084153818514 -0.0022968283032751995 -0.0062151437896279492 0.0056973418742509007 -15.442283372954048 0.0020886390401929004 0.0083192319646373022 0.0065972975720116006 0.0054699711770441013 -0.0091776035789242483 -0.0024334063799262497 -0.0039605010214170998 -0.0019067212504120497 -0.0032452425051676995
decision_type=2 2 2 2 2 2 2 2 2 2 2 2 2 2 2 2 2 2 2 2 2 2 2 2 2 2 2 2 2 2
left_child=2 3 4 11 6 9 -1 22 24 20 17 12 19 -12 27 25 -6 -5 -19 -2 -4 -11 -3 -10 -7 -16 -13 -9 -8 -18
right_child=1 7 5 10 16 8 28 14 23 21 13 26 -14 -15 15 -17 29 18 -20 -21 -22 -23 -24 -25 -26 -27 -28 -29 -30 -31
leaf_value=-0.00047216457314789298 0.00036410064203664663 -4.7199834079947328e-05 -0.00018439919357512925 0.00015236437902785838 -0.00064310505986213688 -0.0001363466454980274 -0.00015518722357228399 -4.4172597699798648e-05 7.8143691644072541e-05 -0.00036830622702836995 0.00011694801311629515 0.00027256875764578584 0.00040460664807169728 -3.4866802161559461e-05 8.676543948240579e-05 0.00014258475419235965 -0.00047699208371341232 0.00027201655594741601 0.00016131757292896511 0.00029099767157079087 -0.00026950980915666319 -0.00047799171879887582 -0.00013607090222649278 -1.4362069487106055e-05 -0.0002063777530565858 1.7271120623263413e-05 0.00019125641556456686 1.6097488787636395e-05 -0.00021310198353603483 -0.00052948868833482268
leaf_weight=30 60 26 43 60 30 90 30 30 30 30 90 30 165 30 30 73 30 85 30 115 86 30 60 30 30 60 25 60 60 90
leaf_count=30 60 26 43 60 30 90 30 30 30 30 90 30 165 30 30 73 30 85 30 115 86 30 60 30 30 60 25 60 60 90
internal_value=-2.59032e-12 0.000180669 -0.000290937 0.000263205 -0.000418013 -0.000197954 -0.000263389 1.26759e-05 -9.19393e-05 -0.00029892 0.000157905 0.000341846 0.000359032 7.89943e-05 5.41051e-05 8.61835e-05 -0.000541713 0.000212016 0.000243139 0.000316062 -0.00024114 -0.000423149 -0.000109203 3.18908e-05 -0.000153854 4.04359e-05 0.000235609 -3.99254e-06 -0.000193797 -0.000516365
internal_weight=1668 1029 639 690 270 369 120 339 180 189 295 395 340 120 253 163 150 175 115 175 129 60 86 60 120 90 55 90 90 120
internal_count=1668 1029 639 690 270 369 120 339 180 189 295 395 340 120 253 163 150 175 115 175 129 60 86 60 120 90 55 90 90 120
is_linear=0
shrinkage=0.05


end of trees

feature_importances:
returns_6h=59
returns_1h=57
momentum_5d=28
volatility_6h=18
bb_position=17
volume_ratio=16
returns_24h=13
volatility_24h=10
volatility_ratio=8
rsi=6
macd_signal=6
obv=1
macd=1

parameters:
[boosting: gbdt]
[objective: regression]
[metric: l2]
[tree_learner: serial]
[device_type: cpu]
[data_sample_strategy: bagging]
[data: ]
[valid: ]
[num_iterations: 200]
[learning_rate: 0.05]
[num_leaves: 31]
[num_threads: 1]
[seed: 42]
[deterministic: 0]
[force_col_wise: 0]
[force_row_wise: 0]
[histogram_pool_size: -1]
[max_depth: 6]
[min_data_in_leaf: 20]
[min_sum_hessian_in_leaf: 0.001]
[bagging_fraction: 0.8]
[pos_bagging_fraction: 1]
[neg_bagging_fraction: 1]
[bagging_freq: 0]
[bagging_seed: 400]
[bagging_by_query: 0]
[feature_fraction: 0.8]
[feature_fraction_bynode: 1]
[feature_fraction_seed: 30056]
[extra_trees: 0]
[extra_seed: 12879]
[early_stopping_round: 0]
[early_stopping_min_delta: 0]
[first_metric_only: 0]
[max_delta_step: 0]
[lambda_l1: 0]
[lambda_l2: 0]
[linear_lambda: 0]
[min_gain_to_split: 0]
[drop_rate: 0.1]
[max_drop: 50]
[skip_drop: 0.5]
[xgboost_dart_mode: 0]
[uniform_drop: 0]
[drop_seed: 17869]
[top_rate: 0.2]
[other_rate: 0.1]
[min_data_per_group: 100]
[max_cat_threshold: 32]
[cat_l2: 10]
[cat_smooth: 10]
[max_cat_to_onehot: 4]
[top_k: 20]
[monotone_constraints: ]
[monotone_constraints_method: basic]
[monotone_penalty: 0]
[feature_contri: ]
[forcedsplits_filename: ]
[refit_decay_rate: 0.9]
[cegb_tradeoff: 1]
[cegb_penalty_split: 0]
[cegb_penalty_feature_lazy: ]
[cegb_penalty_feature_coupled: ]
[path_smooth: 0]
[interaction_constraints: ]
[verbosity: -1]
[saved_feature_importance_type: 0]
[use_quantized_grad: 0]
[num_grad_quant_bins: 4]
[quant_train_renew_leaf: 0]
[stochastic_rounding: 1]
[linear_tree: 0]
[max_bin: 255]
[max_bin_by_feature: ]
[min_data_in_bin: 3]
[bin_construct_sample_cnt: 200000]
[data_random_seed: 175]
[is_enable_sparse: 1]
[enable_bundle: 1]
[use_missing: 1]
[zero_as_missing: 0]
[feature_pre_filter: 1]
[pre_partition: 0]
[two_round: 0]
[header: 0]
[label_column: ]
[weight_column: ]
[group_column: ]
[ignore_column: ]
[categorical_feature: ]
[forcedbins_filename: ]
[precise_float_parser: 0]
[parser_config_file: ]
[objective_seed: 16083]
[num_class: 1]
[is_unbalance: 0]
[scale_pos_weight: 1]
[sigmoid: 1]
[boost_from_average: 1]
[reg_sqrt: 0]
[alpha: 0.9]
[fair_c: 1]
[poisson_max_delta_step: 0.7]
[tweedie_variance_power: 1.5]
[lambdarank_truncation_level: 30]
[lambdarank_norm: 1]
[label_gain: ]
[lambdarank_position_bias_regularization: 0]
[eval_at: ]
[multi_error_top_k: 1]
[auc_mu_weights: ]
[num_machines: 1]
[local_listen_port: 12400]
[time_out: 120]
[machine_list_filename: ]
[machines: ]
[gpu_platform_id: -1]
[gpu_device_id: -1]
[gpu_use_dp: 0]
[num_gpu: 1]

end of parameters

pandas_categorical:[]
